{"arch": "mlp-relu", "in": 10, "hidden": 64, "out": 28, "in_labels": ["dps_Fire", "dps_Ice", "dps_Earth", "dps_Sonic", "dps_Zap", "dps_Light", "dps_Dark", "anti_air", "detection", "splash"], "elems": ["Fire", "Ice", "Earth", "Sonic", "Zap", "Light", "Dark"], "traits": ["Grunt", "Swarm", "Flier", "Shade"], "W1": [[0.0018571902764961123, -0.01374012604355812, 0.005558541975915432, 0.018915461376309395, -0.0007362554897554219, 0.008956104516983032, 0.019326146692037582, 0.00060839275829494, 0.0005669037927873433, 0.016732830554246902, 0.01694032922387123, 0.01057642512023449, 0.006331379059702158, 0.013048231601715088, 0.0006995260482653975, -0.007415645755827427, -0.009040266275405884, -0.011313536204397678, -0.006674582604318857, 0.006734908092767, 0.02018703706562519, -0.005933244246989489, -0.010706838220357895, 0.008944757282733917, -0.011748355813324451, -0.01849805749952793, 0.012852711603045464, -0.009875579737126827, 0.01649874821305275, 0.003770985873416066, 0.021232912316918373, 0.031250324100255966, -0.0027713896706700325, -0.008612984791398048, 0.0018743568798527122, 0.0022494876757264137, 0.013277356512844563, -0.02184111811220646, 0.029927989467978477, -0.00953084509819746, -0.00949617475271225, 0.02792304940521717, -0.009236212819814682, 0.0026161877904087305, 0.005325960461050272, 0.0024042511358857155, 0.0006250509759411216, 0.016628971323370934, 0.02074733003973961, -0.013418477028608322, -0.015191219747066498, 0.009968326427042484, -0.004654766991734505, -0.008228249847888947, -0.012615709565579891, 0.021075347438454628, 0.00037903725751675665, 0.005409555975347757, -0.002325546694919467, 0.014388016425073147, 0.0019442318007349968, -0.005093937274068594, 0.009574622847139835, -0.008311240933835506], [0.015505336225032806, -0.011410714127123356, 0.007694662548601627, 0.008038031868636608, 0.00838925689458847, 0.013759576715528965, -0.008001941256225109, 0.0017821697983890772, 3.8599806430283934e-05, 0.018420379608869553, 0.017171621322631836, 0.011236793361604214, 0.00397530710324645, 0.004669064190238714, 0.0012041861191391945, -0.005250047892332077, -0.005603804253041744, -0.009767638519406319, -0.00047308680950663984, 0.0071561564691364765, 0.009105567820370197, -0.005671322345733643, -0.01059470884501934, 0.0003923998156096786, -0.0010712530929595232, -0.012889152392745018, 0.006808387581259012, -0.013433677144348621, 0.0023956201039254665, 0.0052254172042012215, 0.005479717627167702, 0.018521102145314217, -0.005966505967080593, -0.01151034701615572, 0.002508406061679125, 0.014165128581225872, 0.012527542188763618, -0.01585172861814499, 0.020292207598686218, -0.01530448067933321, -0.002295644022524357, 0.015712227672338486, -0.009585043415427208, 0.007980653084814548, 0.009242923930287361, 0.004935982171446085, -0.003515174612402916, 0.012629096396267414, -0.006414053495973349, -0.01891353912651539, -0.006843548733741045, -0.004083501640707254, 0.006139175966382027, -0.013350223191082478, -0.014100136235356331, 0.015451687388122082, 0.013614803552627563, 0.01096616592258215, -0.000198499794350937, 0.004334716126322746, 0.0025877286680042744, 0.007070339750498533, -0.005953600164502859, -0.004246074240654707], [-0.003943892195820808, -0.002519432455301285, 0.00994123425334692, 0.02947997860610485, -0.005707628559321165, 0.011009780690073967, 0.01396770216524601, 0.03372437506914139, 0.0015935422852635384, 0.01865340955555439, 0.018269259482622147, 0.01252190675586462, 0.008422138169407845, 0.029128536581993103, 0.0010722255101427436, 0.005051371641457081, -0.013375208713114262, -0.006285566370934248, 0.005667037796229124, 0.006929031107574701, 0.0019087258260697126, -0.005418332293629646, -0.010016649961471558, 0.004053167998790741, -0.008037491701543331, -0.00696862256154418, 0.018465420231223106, 0.00528731569647789, 0.024239620193839073, -0.005632876884192228, -0.002296214224770665, 0.03802022337913513, -0.014272289350628853, 0.021382838487625122, 0.006186642684042454, -0.0036563051398843527, 0.013435699976980686, 0.017773261293768883, -0.012492300011217594, -0.0037926221266388893, -0.015459630638360977, -0.015124671161174774, -0.009010897018015385, 0.017064956948161125, 0.007425772957503796, 0.005215271841734648, -0.0071112653240561485, 0.004987300373613834, 0.015413185581564903, -0.013112672604620457, -0.017377205193042755, 0.013726352714002132, 0.005506896413862705, -0.016215931624174118, -0.012805987149477005, 0.009367910213768482, -0.00810220930725336, 0.009376131929457188, 0.005810108035802841, 0.02808278612792492, 0.001835089293308556, 0.003968785982578993, -0.0035445329267531633, -0.012598754838109016], [-0.002052867319434881, -0.02409290336072445, 0.008207441307604313, 0.005397343542426825, 0.008264809846878052, 0.029020583257079124, -0.025480421259999275, 0.00037291826447471976, 0.002560526831075549, 0.021514536812901497, 0.02206604741513729, 0.012328868731856346, 0.0036829852033406496, 0.010978571139276028, 0.0023653570096939802, 1.0374920748290606e-05, -0.020921986550092697, 0.012242059223353863, 0.007622446399182081, 0.006480817683041096, 0.009751014411449432, -0.0059787980280816555, -0.01056632213294506, 0.0033271233551204205, 0.010667257010936737, -0.013116879388689995, -0.00646238774061203, -0.010503232479095459, -0.008611072786152363, 0.002297512022778392, 0.00407413812354207, -0.016564596444368362, -0.010931548662483692, -0.010599302127957344, 0.003514996962621808, -0.0013356636045500636, 0.012077475897967815, 0.008683188818395138, -0.0025759716518223286, -0.00025933567667379975, -0.018297681584954262, 0.0003284534905105829, -0.008684593252837658, 0.012623761780560017, 0.011523767374455929, 0.006388259585946798, -0.005655498243868351, 0.012880374677479267, -0.027819886803627014, -0.006812513805925846, -0.012861981987953186, 0.01694588176906109, -0.0022100615315139294, -0.0146830128505826, -0.017369646579027176, -0.0057160318829119205, 0.015086859464645386, 0.009660651907324791, 0.0035724688787013292, 0.009038395248353481, 0.008068679831922054, 0.001908530481159687, -0.002878312487155199, -0.0077107916586101055], [0.005725983064621687, -0.010530481114983559, 0.01104504894465208, 0.01821039617061615, 0.008295316249132156, 0.003941430244594812, -0.011865037493407726, 0.009056368842720985, 0.0024431650526821613, 0.02156657539308071, 0.019138699397444725, 0.010565483011305332, 0.020610369741916656, 0.026338383555412292, 0.003942991606891155, -0.003014250425621867, -0.0031915807630866766, 0.01312697771936655, -0.007960896007716656, 0.0077050612308084965, 0.008193549700081348, -0.005413627717643976, -0.010332677513360977, -0.003006773069500923, 0.004441909026354551, -0.013138767331838608, 0.003174127545207739, -0.0034780872520059347, -0.0025921331252902746, 0.000810377299785614, 0.0021826850716024637, 0.008686024695634842, -0.0006433918606489897, 0.009457223117351532, 0.01635712757706642, 0.005319710820913315, 0.013495063409209251, -0.013540755026042461, 0.014254989102482796, -0.008594624698162079, 0.006011720281094313, 0.011249476112425327, -0.008659007959067822, 0.0009055832633748651, 0.005381691735237837, 0.005093494430184364, 0.002632891060784459, 0.014625242911279202, -0.011593138799071312, -0.012452125549316406, 0.001412955462001264, 0.003615183290094137, 0.0018051589140668511, -0.022597793489694595, -0.006954320706427097, -0.007350718602538109, 0.014622916467487812, 0.010661977343261242, 0.002042468637228012, 0.012125235982239246, 0.0036561423912644386, -0.0010193792404606938, 0.004229330457746983, -0.007925928570330143], [0.01641189679503441, 0.033320143818855286, 0.008822133764624596, 0.010274580679833889, 0.019691823050379753, 0.028593888506293297, -0.01393093727529049, -0.0006782701821066439, 0.000923043757211417, -0.0032050772570073605, -0.0037361111026257277, 0.012493694201111794, -0.016881702467799187, 0.005810190923511982, 0.005042503122240305, 0.0362115316092968, -0.007220846135169268, -0.01605062559247017, 0.011047931388020515, 0.008038133382797241, -0.007740000728517771, -0.005210747942328453, -0.011109826155006886, -0.012253652326762676, 0.013816331513226032, -0.013359994627535343, -0.009875270538032055, 0.004579581785947084, -0.01744203455746174, -0.005022481549531221, -0.04632972553372383, -0.015923399478197098, -0.015108800493180752, 0.01147958543151617, -0.012137875892221928, 0.01613457314670086, 0.014294730499386787, 0.026093963533639908, 0.005118226632475853, -0.015306081622838974, -0.00936148501932621, -0.017164321616292, -0.00891976710408926, 0.018198518082499504, 0.017201051115989685, 0.011289078742265701, -0.01795043610036373, 0.02235674113035202, -0.0141931576654315, -0.013119467534124851, -0.00786551833152771, -0.01222232822328806, -0.005350797437131405, -0.015239198692142963, -0.013193078339099884, 0.02300567924976349, 0.034731630235910416, 0.014536543749272823, 0.030558111146092415, 0.010390720330178738, -0.010090135037899017, 0.011652939021587372, -0.014752068556845188, -0.008167257532477379], [0.006518572103232145, -0.005863305646926165, 0.008876040577888489, 0.0114931995049119, 0.001913939486257732, 0.02798823080956936, -0.001107479678466916, 0.0005956344539299607, 0.003213205374777317, 0.025130394846200943, 0.023094436153769493, 0.014916123822331429, 0.008180931210517883, 0.010224085301160812, 0.014573021791875362, -0.002806177595630288, -0.005346058402210474, -0.0003538448363542557, -0.01580449566245079, 0.00747884064912796, 0.0016557542840018868, 0.015186739154160023, -0.010659840889275074, -0.012357550673186779, 0.03380708768963814, -0.013377551920711994, 0.008468762040138245, 0.019744250923395157, 0.010613540187478065, -0.013485241681337357, -0.012701461091637611, 0.021021174266934395, 0.0016455563018098474, -0.010134661570191383, 0.0038564784917980433, 0.006176157854497433, 0.015062959864735603, -0.006617318838834763, -0.01021485310047865, -0.005066409707069397, 0.01300611812621355, -0.005081420764327049, -0.00941591989248991, -0.0009733455954119563, 0.009253617376089096, 0.013083267956972122, 0.012116417288780212, 0.010199104435741901, -0.0014516799710690975, -0.013958380557596684, 0.016672465950250626, 0.007988698780536652, -0.003248736262321472, -0.014697968028485775, -0.013464624993503094, 0.007715493906289339, 0.0034806542098522186, 0.00940784439444542, 0.007167610805481672, 0.008482747711241245, 0.0017434876644983888, 0.014663347974419594, -0.01937319152057171, -0.010252829641103745], [1.0884530544281006, 0.003943067044019699, -0.04256054386496544, 0.6077316403388977, 0.02494966797530651, 1.7540894746780396, 0.8364896774291992, 0.034560427069664, -0.21317876875400543, 1.3095911741256714, 1.1928892135620117, 0.06463547796010971, -1.366246223449707, 0.32510465383529663, 1.587794303894043, -0.19290052354335785, 0.08705706149339676, 1.0103528499603271, 0.4084523320198059, -1.6484582424163818, -0.09219464659690857, -1.3072292804718018, -0.015114391222596169, 1.1985368728637695, 0.8226286172866821, -0.0007378297159448266, 0.07354460656642914, -1.175278663635254, 0.4439725875854492, 0.6066854000091553, 0.14681391417980194, 0.2499939203262329, -0.8991552591323853, 2.0450925827026367, -0.9881381392478943, 1.0079432725906372, 1.362178087234497, -0.5202612280845642, 2.216629981994629, 0.17994970083236694, -0.22121837735176086, 0.5092315673828125, -0.011477217078208923, 1.0578031539916992, 0.15921685099601746, 0.025025680661201477, -0.17622242867946625, -0.3603518009185791, 0.9015746712684631, -0.02256450057029724, 0.6329375505447388, -1.8736144304275513, -0.01913468725979328, 0.06121057644486427, 0.05989595502614975, -0.7437564134597778, 0.1481991857290268, 0.18349862098693848, -0.10525641590356827, 0.11199558526277542, -0.021524958312511444, 1.5662156343460083, -2.1675407886505127, -0.007508984766900539], [-0.8879333734512329, 0.8585202693939209, 0.9283748269081116, 0.2997593581676483, 0.8032344579696655, 0.35454049706459045, 0.1333848536014557, -0.015316497534513474, -0.06473290920257568, 1.0223816633224487, 1.0818288326263428, -2.1871464252471924, 0.44552507996559143, 0.6539204716682434, -0.04455389082431793, 0.11564359813928604, -0.10071033984422684, -2.3660964965820312, 0.7452515363693237, 0.01353449746966362, 0.2773894667625427, -0.04041692614555359, -9.494641562923789e-05, 0.29583194851875305, 0.17561575770378113, -0.007315746042877436, -0.8193122744560242, -0.44897523522377014, -0.8674159646034241, 0.2550569176673889, 0.36792486906051636, -1.275245189666748, -0.4132747948169708, -1.3470358848571777, 0.31964945793151855, -0.8505709171295166, -0.08450421690940857, 0.06739787757396698, -0.22791804373264313, 0.6620540022850037, -1.2835235595703125, 0.3991732895374298, -1.3424742221832275, 0.654434859752655, -0.0018927935743704438, 0.059086740016937256, -0.33102917671203613, -0.9651120901107788, 0.07776518166065216, -0.24581600725650787, -0.0927693098783493, 1.1346362829208374, 0.003952613100409508, 0.07167380303144455, 0.07660830020904541, 2.991062879562378, 1.5220571756362915, -0.18661540746688843, 0.08024851232767105, -0.35507458448410034, -0.15602700412273407, 0.2787805199623108, -0.2928220331668854, 0.017969314008951187], [-2.293766736984253, 0.1536678969860077, -0.03714447468519211, -2.3734002113342285, 0.2860881984233856, 1.029037356376648, -0.319598525762558, 0.045313309878110886, -0.1291607767343521, -0.4418630599975586, -0.3190927505493164, 0.07721542567014694, 3.4999306201934814, 1.1542294025421143, 0.12389703094959259, 0.6720756888389587, 0.02805597335100174, 0.08123201876878738, 0.7053693532943726, -0.001548359403386712, -1.0302674770355225, -0.019327325746417046, -0.9854583740234375, -3.332533597946167, -0.47692182660102844, 0.031066684052348137, 0.11862362921237946, -0.2955498695373535, -0.06440240889787674, 0.16813282668590546, -2.312863349914551, 0.21574212610721588, -0.1335436999797821, -0.17857705056667328, 2.3397910594940186, -2.1008012294769287, -0.035433944314718246, 0.9941645264625549, -3.163748264312744, 0.294442743062973, -0.23389218747615814, -1.4273298978805542, -0.03880973160266876, 0.13368715345859528, -1.3777601718902588, 0.05575438216328621, -0.9169552326202393, 0.21280711889266968, -0.3435421884059906, -0.05521510913968086, -0.8172485828399658, 2.2949206829071045, -0.10275193303823471, -0.10286194086074829, 0.07052480429410934, -0.03807960823178291, 0.4588856101036072, -0.7262076735496521, 0.7605363130569458, 0.266190767288208, 0.056571993976831436, 0.6543780565261841, -0.9854099750518799, 0.012490609660744667]], "b1": [0.5623109936714172, 0.0897834300994873, -1.0877875089645386, -0.6180149912834167, -1.0702606439590454, -3.0427019596099854, 0.053402550518512726, -0.20533740520477295, 0.11441358923912048, -2.40285062789917, -2.3661551475524902, -0.34756016731262207, -1.8222795724868774, -2.17421555519104, -1.4737188816070557, -0.3229890763759613, 1.0726323127746582, 0.8341574668884277, -0.7732446789741516, -0.003030151128768921, -0.15964674949645996, 1.7228604555130005, 1.9513018131256104, 1.0976260900497437, -0.7850213646888733, 1.2991797924041748, -0.1104801595211029, 0.9899120330810547, -0.1792258322238922, -0.28717777132987976, 1.2745431661605835, -0.7643302083015442, 1.4707026481628418, -0.34787672758102417, -1.160771369934082, 0.49145475029945374, -1.5814732313156128, -0.05147889256477356, 0.00959890615195036, 0.18650051951408386, 1.333508849143982, -0.09088844805955887, 2.1676995754241943, -1.8071542978286743, -0.3699745535850525, -0.7262690663337708, 0.8869161605834961, -0.5525673031806946, 0.04485491290688515, 1.4472829103469849, 0.6366270780563354, -1.279960036277771, 0.521872878074646, 1.5426368713378906, 1.1851651668548584, -1.9204357862472534, -2.0316922664642334, -0.6398040652275085, -0.8624544739723206, -1.3326032161712646, -0.11857357621192932, -1.5704095363616943, 2.0446364879608154, 0.8422942161560059], "W2": [[0.0627141073346138, 0.034653615206480026, -0.1201045885682106, 0.17546506226062775, -0.2059067189693451, 0.08822927623987198, 0.028725910931825638, -0.060193344950675964, -0.11317364126443863, 0.19695697724819183, 0.003076050663366914, -0.13689151406288147, 0.13219453394412994, 0.025176577270030975, 0.1878608614206314, 0.014110858552157879, -0.05041104182600975, 0.10757549852132797, -0.1530177742242813, 0.138316810131073, -0.0019067960092797875, -0.025760753080248833, -0.06016930565237999, 0.06492763012647629, -0.19324404001235962, -0.14640016853809357, -0.0029853919986635447, -0.09121018648147583], [-0.019325198605656624, -0.02660495415329933, -0.04798330366611481, 0.025953462347388268, -0.029554009437561035, -0.0027358965016901493, 0.0012365113943815231, -0.0394718311727047, 0.03060746006667614, 0.015100943855941296, -0.04863676801323891, 0.09998895972967148, -0.006319668143987656, 0.009404594078660011, -0.026773519814014435, 0.10990942269563675, 0.010787452571094036, -0.03134503588080406, -0.027048787102103233, -0.014690552838146687, 0.0038503254763782024, 0.0025379096623510122, 0.0037097970489412546, 0.05339166149497032, -0.07283437997102737, -0.06617028266191483, -0.04535578191280365, 0.004971969872713089], [-0.04357012361288071, -0.04559413343667984, 0.027319224551320076, -0.18160228431224823, 0.07092351466417313, 0.05838169530034065, 0.04760482534766197, -0.4696865975856781, 0.001428405987098813, -0.0030694776214659214, -0.041602615267038345, -0.14073878526687622, 3.016944720002357e-05, 0.004107526037842035, -0.01318934466689825, -0.08971893787384033, 0.006661048624664545, 0.02865932695567608, 0.0006648906273767352, -0.29040271043777466, 0.00010176854266319424, 0.024150602519512177, 0.006731993518769741, -0.23353224992752075, -0.02317771315574646, -0.012341874651610851, 0.013560551218688488, -0.19547520577907562], [-0.0015936887357383966, 0.07329495996236801, 0.006557791028171778, -0.021556807681918144, -0.010727283544838428, 0.012270098552107811, -0.01124083623290062, 0.009966828860342503, -0.009279385209083557, 0.06727536767721176, 0.03527578338980675, 0.007360596675425768, 0.007434351369738579, 0.027239130809903145, 0.009972498752176762, 0.006786996964365244, 0.03254852071404457, 0.04931675270199776, -0.0030619881581515074, -0.016026722267270088, -0.010853813029825687, 0.0199776291847229, -0.017666045576334, -0.01370408944785595, 0.016282107681035995, 0.03809288144111633, 0.0011325795203447342, -0.000943443737924099], [-0.009553030133247375, -0.04377735033631325, -0.10709870606660843, 0.027498917654156685, 0.2521670162677765, 0.04202025383710861, 0.07027212530374527, 0.15870369970798492, -0.03167221322655678, -0.34351474046707153, -0.0663214847445488, 0.06326014548540115, -0.10302482545375824, -0.13335150480270386, 0.05966869369149208, 0.09640578180551529, -0.0004849003453273326, 0.07190237194299698, 0.055174749344587326, 0.08037865906953812, -0.007665884681046009, -0.09799446165561676, -0.025439325720071793, 0.16089600324630737, -0.25981026887893677, -0.3439614474773407, 0.12773893773555756, 0.0638594925403595], [-0.007839621976017952, -0.022791527211666107, 0.03666010499000549, 0.004044220317155123, -0.0036920958664268255, -0.04400019347667694, 0.006564965005964041, 0.011417173780500889, 0.04162563011050224, -0.03142881020903587, -0.08806966245174408, 0.004261169582605362, 0.001598477247171104, -0.017699696123600006, -0.06878674775362015, -0.03489813581109047, -0.012174482457339764, -0.024034839123487473, -0.02815469354391098, -0.010709607042372227, -0.008657111786305904, -0.020137431100010872, -0.005222627893090248, -0.010640549473464489, -0.031916242092847824, -0.018100429326295853, -0.03116169199347496, -0.0028282443527132273], [0.05937842279672623, 0.15229205787181854, 0.2286614179611206, -0.018933631479740143, 0.24272744357585907, 0.08672071248292923, 0.07121360301971436, 0.14332950115203857, -0.09601346403360367, -0.02736375667154789, -0.009185254573822021, -0.09847617894411087, 0.05374228581786156, -0.06343723833560944, -0.07617100328207016, -0.015053735114634037, -0.07445661723613739, 0.12382081896066666, -0.03572377935051918, -0.12850558757781982, -0.03199251741170883, 0.0033206045627593994, -0.09655540436506271, -0.036742210388183594, -0.05531373620033264, 0.04191262274980545, -0.07931708544492722, 0.028815070167183876], [0.09042691439390182, 0.038646798580884933, 0.055637869983911514, -0.008399932645261288, 0.029795628041028976, 0.05051000043749809, 0.0026474199257791042, 0.05844191089272499, -0.031784746795892715, 0.022292833775281906, 0.038292452692985535, 0.027281826362013817, -0.05946235731244087, 0.02795940823853016, -0.019382189959287643, -0.022067420184612274, -0.19427292048931122, -0.08756249397993088, -0.008480614982545376, -0.03870532661676407, 0.03909370303153992, 0.06291317939758301, 0.09158118814229965, 0.0351809598505497, -0.013909392058849335, 0.053932782262563705, 0.023699823766946793, 0.005541585385799408], [-0.05308428779244423, 0.3667105734348297, -0.10502061247825623, 0.13159030675888062, -0.06464929133653641, -0.05581725016236305, 0.1755046248435974, 0.07330568134784698, 0.030303657054901123, 0.028590280562639236, 0.12032942473888397, 0.00030888195033185184, 0.05114385858178139, 0.0784299373626709, -0.032845571637153625, 0.024258628487586975, 0.008871028199791908, 0.17427054047584534, 0.15392625331878662, 0.16679945588111877, 0.13983841240406036, 0.06679660826921463, 0.16892701387405396, 0.10314957052469254, -0.19192472100257874, 0.09155450016260147, 0.05329401418566704, -0.008680210448801517], [-0.022437123581767082, 0.009870811365544796, -0.1206100806593895, 0.04741191864013672, 0.11723431944847107, 0.03960544988512993, -0.10325052589178085, 0.06561838090419769, 0.053447023034095764, 0.042082495987415314, 0.11071450263261795, 0.09710792452096939, 0.10652060806751251, 0.07318047434091568, -0.07744920253753662, -0.11161253601312637, 0.019805192947387695, 0.193258598446846, 0.016647111624479294, 0.11469800770282745, 0.050090108066797256, 0.15788017213344574, -0.05783689022064209, 0.08706612884998322, -0.10024744272232056, 0.1088356301188469, -0.006935266312211752, 0.019604165107011795], [0.0029806410893797874, -0.0026491801254451275, 0.10310161858797073, -0.07761063426733017, -0.11126288026571274, -0.0378364697098732, 0.06669563800096512, -0.08158165216445923, -0.036543697118759155, -0.027618952095508575, -0.13722334802150726, -0.15241290628910065, -0.11708028614521027, -0.08062539994716644, 0.08952421694993973, 0.05843037739396095, -0.023817915469408035, -0.17596767842769623, -0.022174490615725517, -0.13454954326152802, -0.009360375814139843, -0.13435272872447968, 0.04735838994383812, -0.13063129782676697, 0.07305204123258591, -0.1364532858133316, -0.010798205621540546, -0.07567960023880005], [0.005499787162989378, -0.0010811741231009364, -0.01730790175497532, 0.15878097712993622, 0.005535437725484371, -0.017492568120360374, -0.007896902970969677, 0.17708757519721985, -0.005746864248067141, -0.005728437565267086, -0.020425712689757347, 0.23168280720710754, -0.0018631884595379233, -0.001624719356186688, -0.002440657466650009, 0.15656684339046478, -0.007543142884969711, 0.011470514349639416, -0.012839457020163536, 0.16332067549228668, 0.019463570788502693, 0.018548352643847466, 0.001379310037009418, 0.19796347618103027, -0.028983697295188904, -0.026026831939816475, -0.013872729614377022, 0.17619037628173828], [0.03227819502353668, 0.01954231597483158, 0.020756488665938377, -0.04492992162704468, 0.05868888646364212, 0.04224759712815285, -0.040482182055711746, 0.013742497190833092, -0.01755412481725216, -0.060884419828653336, 0.11202770471572876, 0.028147349134087563, 0.008446975611150265, 0.052782487124204636, -0.015133251436054707, -0.004398445598781109, -0.028091000393033028, -0.05577223747968674, -0.04902058094739914, -0.005610876716673374, 0.03983626142144203, 0.03340127691626549, -0.04889841377735138, -0.02039029821753502, 0.012916871346533298, -0.06292633712291718, -0.00565214641392231, -0.043290503323078156], [-0.03318992629647255, -0.05300315096974373, -0.021168099716305733, -0.04097314178943634, -0.006788770202547312, -0.0611717626452446, -0.04131351038813591, -0.00023745885118842125, -0.011345047503709793, -0.0007870597182773054, 0.05416056513786316, 0.038404591381549835, 0.01402453612536192, -0.003084637923166156, 0.02840668149292469, 0.008051401004195213, 0.026840992271900177, -0.06306372582912445, -0.03353172168135643, -0.0721127837896347, -0.02422470599412918, -0.04101342335343361, -0.019933678209781647, -0.004237528424710035, -0.020061107352375984, -0.03279532119631767, -0.01421330589801073, -0.013337710872292519], [-0.021929755806922913, -0.02686513215303421, 0.010216413997113705, -0.016411595046520233, 0.006750406697392464, -0.003046320751309395, 0.09652857482433319, -0.013592246919870377, -0.014205589890480042, 0.011309033259749413, 0.04550178349018097, 0.01876024529337883, 0.0065263682045042515, -0.00836217775940895, -0.009679793380200863, 0.005911683198064566, 0.026537835597991943, 0.02001335471868515, -0.01551307737827301, 0.012722060084342957, 0.03892216831445694, -0.009239256381988525, 0.08635316789150238, 0.02161610685288906, 0.03035452961921692, 0.030128197744488716, 0.1669761687517166, -0.002413588110357523], [0.023509688675403595, 0.08072470873594284, 0.20433981716632843, -0.010745012201368809, -0.010077541694045067, -0.04733093082904816, 0.05895087122917175, 0.12328667938709259, -0.043792158365249634, 0.034693438559770584, 0.08375507593154907, -0.14029966294765472, 0.002736483933404088, 0.09335912019014359, -0.004815824329853058, -0.03190489485859871, -0.06338272988796234, -0.05970563367009163, 0.09074440598487854, 0.004123553168028593, 0.04694483429193497, 0.010819223709404469, 0.0809180736541748, -0.03450591117143631, 0.02718011476099491, 0.13191251456737518, 0.060352787375450134, 0.045174550265073776], [-0.10919730365276337, -0.03201964497566223, -0.02278912253677845, -0.13995492458343506, -0.0063353111036121845, -0.031231723725795746, -0.01810048706829548, -0.006736415438354015, 0.16409572958946228, 0.12006603181362152, 0.05791231244802475, 0.04868602007627487, 0.01167733408510685, -0.025994259864091873, -0.007181739900261164, -0.0236937515437603, 0.10916388779878616, 0.08811771124601364, 0.0679703876376152, 0.10745615512132645, 0.007850649766623974, -0.02124922350049019, -0.02221430279314518, -0.034989479929208755, -0.011388353072106838, -0.019456686452031136, -0.006399288773536682, -0.016279438510537148], [-0.005220011342316866, 0.05602389574050903, 0.045699600130319595, 0.023795315995812416, -0.029654305428266525, -0.032955169677734375, -0.06641409546136856, -0.01677721180021763, 0.024052660912275314, 0.024513043463230133, -0.014550302177667618, 0.018849395215511322, 0.0016885552322492003, 0.03686891496181488, 0.0028241267427802086, 0.09054472297430038, 0.019518179818987846, -0.009279054589569569, 0.0007521254592575133, 0.017778584733605385, -0.023031454533338547, -0.001364371506497264, -0.027671795338392258, 0.003399214241653681, -0.00034265697468072176, -0.00020078221859876066, 0.0021632048301398754, 0.010835387744009495], [0.027810946106910706, 0.01475441548973322, 0.11138559877872467, 0.027423229068517685, 0.025934778153896332, -0.0032196545507758856, 0.021127913147211075, 0.019507229328155518, -0.011478696949779987, 0.030527470633387566, 0.010337963700294495, -0.015474717132747173, 0.016255220398306847, 0.0752275288105011, 0.09304817020893097, 0.1067374050617218, -0.07302691042423248, 0.04121048003435135, -0.029915105551481247, 0.11710299551486969, 0.06474604457616806, 0.07495252788066864, 0.07297290861606598, 0.10060173273086548, -0.04161490127444267, 0.028873858973383904, 0.025672337040305138, 0.05320696905255318], [0.023791272193193436, -0.007476268336176872, 0.3336346745491028, -0.007184524554759264, -0.0017679804004728794, -0.02392805740237236, 0.26976123452186584, 0.007111588027328253, -0.006725691724568605, 0.009233572520315647, 0.20908980071544647, -0.0034607085399329662, -0.006359999068081379, 0.004054469522088766, 0.2629505693912506, -0.03424909710884094, 0.0028582680970430374, 0.007768903858959675, 0.22937817871570587, -0.025098273530602455, 0.0017366536194458604, -0.0023767941165715456, 0.27743202447891235, -0.007619436830282211, 0.009699304588139057, -0.00470134848728776, 0.2663208842277527, -0.008276942186057568], [0.015084306709468365, 0.05523864924907684, -0.03586149588227272, 0.013865029439330101, 0.046647895127534866, 0.042519934475421906, -0.004534786567091942, 0.006797162815928459, 0.030682135373353958, 0.0506497286260128, 0.10939975827932358, 0.10161930322647095, 0.030717287212610245, 0.11328019946813583, 0.053542815148830414, -0.09090477228164673, 0.011427756398916245, 0.11679328978061676, -0.015260579995810986, -0.043654847890138626, 0.003116325009614229, 0.01981545239686966, 0.017868557944893837, -0.038126442581415176, -0.002814562525600195, 0.0839710533618927, 0.0004531697486527264, -0.07954081892967224], [-0.02484085224568844, 0.10305735468864441, 0.1998855471611023, 0.02440684102475643, -0.005127716343849897, 0.062414783984422684, 0.22548237442970276, 0.025309935212135315, -0.0049762907437980175, -0.06236380338668823, 0.3278820216655731, -0.030504927039146423, -0.027402786538004875, -0.008904431015253067, 0.310274600982666, 0.129661425948143, 0.025113003328442574, -0.044541921466588974, 0.23561003804206848, 0.06932608038187027, -0.044029902666807175, -0.05661202222108841, 0.16748541593551636, 0.016436824575066566, -0.052420418709516525, -0.06491807848215103, 0.251548171043396, -0.0018219659104943275], [-0.015177593566477299, 0.32834592461586, 0.02220161259174347, 0.04157239571213722, 0.0018179873004555702, 0.2009187787771225, -0.013042998500168324, 0.03858800604939461, 0.04845459759235382, 0.4029928147792816, 0.10891629010438919, 0.06030959263443947, 0.03724607825279236, 0.45930016040802, 0.046957243233919144, 0.020793503150343895, -0.030567824840545654, 0.29748332500457764, -0.012470285408198833, 0.01460746955126524, 0.014704384841024876, 0.3405229151248932, 0.005696519743651152, 0.017267659306526184, 0.028099339455366135, 0.41842982172966003, 0.013452969491481781, 0.028624942526221275], [0.008057610131800175, -0.020740456879138947, 0.03293663635849953, 0.030733516439795494, -0.0036128454376012087, 0.00891748908907175, -0.0082017220556736, -0.0014649226795881987, -0.009211050346493721, -0.03607356548309326, -0.05727611482143402, 0.004678917117416859, -0.001691958517767489, -0.035322751849889755, 0.0235445536673069, 0.00036396668292582035, 0.0019014027202501893, -0.019401559606194496, 0.0034541329368948936, -0.007409597281366587, 0.00944091659039259, 0.005872086621820927, 0.009232338517904282, 0.017368663102388382, -0.0125382449477911, 0.005197322461754084, -0.006469864398241043, 0.0007717304979451001], [0.01767069101333618, 0.008842965587973595, 0.04486367478966713, 0.016276024281978607, 0.0018635995220392942, 0.0074350591748952866, -0.010533059015870094, 0.00021707605628762394, -0.023003652691841125, 0.03446253761649132, -0.048387277871370316, -0.00014212451060302556, 0.007679035421460867, 0.04522673413157463, -0.021266069263219833, 0.02418779768049717, 0.010796432383358479, 0.07073450088500977, -0.04123765975236893, 0.011014046147465706, -0.010899528861045837, 0.03725816681981087, -0.03257432579994202, 0.014000974595546722, -0.041784919798374176, -0.009602445177733898, -0.05565032362937927, -0.00046413985546678305], [-0.061957575380802155, -0.023771880194544792, -0.019885532557964325, -0.09106646478176117, 0.08358821272850037, 0.06758758425712585, 0.032729003578424454, -0.03357985243201256, 0.047412335872650146, 0.0002053791395155713, -0.11657582968473434, -0.08978916704654694, 0.7772626876831055, 0.21573232114315033, 0.18539577722549438, 0.04678826034069061, 0.11737007647752762, -0.011376777663826942, -0.012190624140202999, -0.13354967534542084, 0.24860858917236328, 0.06923065334558487, 0.045857515186071396, -0.043749697506427765, 0.2115316540002823, 0.03846332058310509, 0.072354257106781, -0.0456741563975811], [-0.1485404670238495, -0.031466610729694366, -0.01638239622116089, 0.09360072016716003, 0.13135606050491333, -0.0212497990578413, 0.017510585486888885, 0.0603458397090435, 0.02336939424276352, -0.028582723811268806, 0.18314674496650696, -0.02549782395362854, -0.020884402096271515, 0.039763905107975006, 0.09430798143148422, 0.07152017205953598, 0.006466096732765436, -0.01773478463292122, 0.017542051151394844, -0.04240996763110161, -0.006723152473568916, -0.002513014944270253, 0.01790238730609417, 0.00607877504080534, 0.051931459456682205, 0.05919934809207916, 0.07250475138425827, 0.00957350805401802], [0.024462126195430756, -0.04891533777117729, -0.0007290216162800789, -0.023926513269543648, -0.007563499268144369, -0.04735202714800835, -0.07891710847616196, -0.021509885787963867, 0.016583703458309174, 0.01686917059123516, -0.09364604204893112, -0.05376250669360161, 0.041704148054122925, 0.025229021906852722, -0.07517477124929428, -0.010210687294602394, -0.008380704559385777, -0.0477219894528389, -0.05311138927936554, 0.006219255737960339, -0.05879439413547516, -0.014518770389258862, -0.05982401221990585, -0.03566920757293701, 0.016044331714510918, -0.009467951022088528, -0.061720412224531174, 0.01218924205750227], [-0.06404095143079758, -0.025248924270272255, -0.04101838916540146, -0.05588072910904884, -0.041352007538080215, 0.03286226838827133, 0.0036029783077538013, -0.07258671522140503, 0.01870230957865715, 0.039379674941301346, -0.15163013339042664, 0.05748071148991585, 0.04032660275697708, 0.07749554514884949, 0.011526716873049736, 0.02606256678700447, -0.008280341513454914, 0.07594005763530731, -0.08105885237455368, 0.04029926657676697, -0.004724080674350262, 0.04672157019376755, -0.057094357907772064, -0.0007662078714929521, -0.0472944937646389, 0.014979568310081959, -0.04560820013284683, -0.010562918148934841], [-0.04106427729129791, 0.05855121836066246, -0.0067903026938438416, 0.048029642552137375, 0.04957681894302368, 0.13499663770198822, 0.14136762917041779, 0.04089294746518135, -0.03987913951277733, -0.012328580021858215, 0.15553297102451324, 0.16959910094738007, -0.06878335028886795, -0.06026889756321907, 0.04401572048664093, -0.007737483363598585, 0.02955085039138794, 0.11364882439374924, 0.16189761459827423, 0.005606934893876314, 0.0862186923623085, 0.024889446794986725, 0.14283616840839386, 0.07560832798480988, -0.0242900550365448, 0.02851192094385624, 0.11763307452201843, -0.006524267606437206], [0.009423961862921715, -0.011931817047297955, -0.009268060326576233, -0.0071770125068724155, -0.013873578980565071, -0.0076864901930093765, 0.005513821728527546, 0.014074665494263172, -0.015240601263940334, -0.006308059208095074, 0.02571113593876362, -0.033645108342170715, -0.015585562214255333, -0.012683405540883541, -0.049210529774427414, 0.04827743023633957, -0.009978272952139378, -0.055752601474523544, 0.0070938351564109325, 0.03328278660774231, -0.009785379283130169, -0.014046641997992992, 0.016543373465538025, 0.010012738406658173, 0.03021605871617794, 0.027006985619664192, 0.010257946327328682, 0.06541372835636139], [0.1054726094007492, 0.027417965233325958, 0.03938667103648186, 0.026052361354231834, -0.03372146561741829, -0.0007299073040485382, -0.01540173590183258, 0.012711764313280582, -0.023763665929436684, -0.018070582300424576, -0.022252807393670082, -0.0023150055203586817, -0.0023379770573228598, -0.0802721232175827, -0.05032987892627716, -0.021692343056201935, 0.0006405047024600208, -0.030750900506973267, 0.04019120708107948, 0.009138530120253563, 0.013028881512582302, -0.020638516172766685, 0.010822770185768604, 0.022522591054439545, -0.025510087609291077, -0.05242713540792465, -0.018617872148752213, 0.01607436127960682], [0.11407168209552765, -0.10566508024930954, 0.016422810032963753, 0.007583138532936573, 0.06537552922964096, 0.002149344189092517, -0.06070811301469803, 0.02094927616417408, -0.07951383292675018, 0.15165410935878754, -0.0851055383682251, 0.2862386405467987, -0.02024788036942482, 0.08239433914422989, -0.05874769389629364, -0.06913627684116364, -0.10035908967256546, 0.22012579441070557, -0.07959752529859543, 0.06425672024488449, 0.04528340697288513, 0.047648318111896515, 0.11352799832820892, 0.013761823065578938, 0.12015507370233536, 0.3062487244606018, 0.02118535339832306, 0.1198972687125206], [-0.003728852141648531, -0.0006912423996254802, -0.010561036877334118, 0.009056614711880684, -0.006506577134132385, 0.0018721061060205102, -0.014095792546868324, -0.002304344903677702, -0.0003937942092306912, 0.0004518929636105895, 0.034407392144203186, -0.025584090501070023, 0.0024564391933381557, -0.009733022190630436, 0.03727774694561958, -0.02794979326426983, -0.013304177671670914, -0.008568297140300274, -0.03415539115667343, 0.013886342756450176, -0.0029488264117389917, 0.011287950910627842, 0.012433347292244434, -0.007786786183714867, -0.030607495456933975, -0.020289303734898567, -0.01286028791218996, -0.006793687120079994], [-0.05667084828019142, -0.01635953225195408, -0.028024742379784584, 0.05515057221055031, -0.07582170516252518, -0.06800034642219543, 0.08103999495506287, -0.017733879387378693, 0.041377369314432144, 0.11261352151632309, -0.15120285749435425, -0.029712410643696785, -0.011640309356153011, -0.09227361530065536, 0.020089110359549522, 0.0053335679695010185, 0.01391441561281681, 0.041685666888952255, 0.05196435749530792, 0.06026135012507439, -0.046705372631549835, -0.04723222553730011, 0.06423526257276535, 0.039122264832258224, -0.02700020931661129, 0.05806751549243927, 0.0032226028852164745, 0.07408446818590164], [-0.040772002190351486, -0.002795369829982519, 0.14251598715782166, -0.1857302486896515, 0.2374413162469864, -0.013177626766264439, -0.05203946307301521, 0.0525660403072834, 0.10103799402713776, -0.19205832481384277, -0.03552081435918808, 0.14973138272762299, -0.14969496428966522, -0.05764474347233772, -0.1810811161994934, -0.02638988196849823, 0.0508267879486084, -0.04106295853853226, 0.16398932039737701, -0.1236959844827652, 0.02541685290634632, 0.044611070305109024, 0.06756717711687088, -0.06826557964086533, 0.19088764488697052, 0.14301744103431702, -0.008746561594307423, 0.07434544712305069], [0.046318426728248596, 0.021071726456284523, -0.2696833610534668, 0.07948152720928192, -0.016678690910339355, 0.01917642168700695, -0.2624383270740509, 0.032250918447971344, -0.0021849535405635834, -0.03294016793370247, -0.2219330370426178, 0.026847587898373604, -0.008362132124602795, -0.024558499455451965, -0.30949243903160095, 0.05633207783102989, -0.021244768053293228, -0.05586059018969536, -0.3059781789779663, 0.01282979641109705, -0.004413562826812267, -0.03200724720954895, -0.33002567291259766, 0.0641099140048027, 0.04804173856973648, -0.01424527820199728, -0.3331030607223511, 0.05370716005563736], [0.016515452414751053, -0.005767361726611853, -0.08009429275989532, 0.03528811037540436, 0.008816994726657867, 0.037016063928604126, -0.0018931031227111816, -0.01989789493381977, -0.011367562226951122, -0.008529605343937874, 0.048155952244997025, 0.0881582498550415, -0.007573878858238459, -0.005228897091001272, -0.001512062386609614, 0.018444500863552094, 0.01886550895869732, 0.007406577933579683, 0.00989648886024952, -0.00867445208132267, -0.023104548454284668, -0.016220418736338615, -0.0009998938767239451, 0.004038868937641382, -0.009936352260410786, -0.0013622607802972198, -0.018019799143075943, 0.0022957564797252417], [-0.0012811378110200167, -0.0050407955422997475, -0.03583398461341858, -0.004517357796430588, 0.008732731454074383, -0.0077202580869197845, 0.01967223733663559, -0.0039040870033204556, -0.001138793770223856, 0.011642133817076683, 0.043109092861413956, 0.02179575338959694, -0.00459603825584054, 0.014924000017344952, -0.02610904537141323, 0.013371288776397705, -0.010769069194793701, 0.010760493576526642, 0.004871188197284937, 0.002556832041591406, 0.002211469691246748, 0.020782163366675377, 0.009469382464885712, -0.0015203861985355616, -0.008149475790560246, -0.0011182163143530488, 0.0024004243314266205, 0.0012997292215004563], [0.1195543184876442, 0.19426023960113525, 0.09721183776855469, 0.2174057811498642, -0.03953789174556732, 0.04571029916405678, -0.03744497522711754, 0.032891131937503815, -0.01890679821372032, 0.05685683712363243, -0.01311162393540144, -0.01259605959057808, 0.006626825779676437, 0.08111293613910675, -0.011271449737250805, 0.05693197622895241, 0.005979176145046949, 0.01523290853947401, -0.07142622768878937, -0.01447209995239973, -0.042434874922037125, 0.03168971836566925, -0.06531382352113724, 0.051202740520238876, 0.09335660189390182, 0.10456042736768723, 0.012235145084559917, 0.10785439610481262], [0.013725982047617435, -0.019345229491591454, -0.04296689108014107, 0.052275098860263824, -0.021726910024881363, 0.0018290814477950335, 0.03365005552768707, 0.03184781223535538, -0.0018490318907424808, -0.0007796426070854068, -0.029873905703425407, -0.11376738548278809, -0.008211169391870499, -0.005137469153851271, -0.03655054420232773, -0.035245612263679504, -0.0015006554313004017, -0.016931286081671715, -0.013822413980960846, -0.09455946087837219, -0.0062178741209208965, 0.016932737082242966, -0.027752205729484558, -0.017946477979421616, -0.029980363324284554, -0.026983795687556267, -0.027700623497366905, -0.05138639360666275], [-0.01664876937866211, 0.003504007589071989, 0.07427588105201721, -0.041036318987607956, -0.03781009092926979, -0.041079673916101456, -0.020434066653251648, -0.0028691624756902456, 0.008111185394227505, -0.01463698223233223, -0.11814844608306885, -0.09853126108646393, 0.013975030742585659, -0.012980815023183823, 0.0014469728339463472, -0.010621258988976479, -0.016103748232126236, -0.04711860045790672, -0.022243499755859375, 0.018184788525104523, -0.027782924473285675, -0.019872087985277176, -0.04579665884375572, -0.00601885886862874, -0.023878516629338264, -0.04232661426067352, -0.01258441898971796, -0.00931645929813385], [-0.060738932341337204, 0.022038906812667847, 0.0263924952596426, 0.3671691417694092, 0.04456651955842972, 0.07495836913585663, 0.08479161560535431, 0.3700220584869385, 0.0016474553849548101, -0.007031002081930637, 0.07939893752336502, 0.3218962550163269, -0.007961825467646122, 0.0054342979565262794, 0.013492186553776264, 0.3383779227733612, 0.01951209269464016, -0.047354117035865784, 0.024355318397283554, 0.3534434139728546, 0.006843586917966604, -0.014374095015227795, 0.020818481221795082, 0.450730562210083, 0.029573004692792892, 0.023239294067025185, 0.025119589641690254, 0.4331512451171875], [-0.10564061999320984, 0.10175294429063797, -0.019744958728551865, -0.058681096881628036, -0.023318929597735405, -0.003995546605437994, -0.007030408829450607, -0.05547086521983147, 0.061192452907562256, -0.12485191226005554, 0.018577300012111664, -0.20760425925254822, 0.029638972133398056, -0.09095694869756699, 0.08206222206354141, 0.056954335421323776, 0.11671628057956696, -0.13542582094669342, 0.031071409583091736, -0.08271294832229614, -0.06954051554203033, -0.08421562612056732, -0.08899591863155365, -0.06295347958803177, -0.0396876223385334, -0.20279693603515625, 0.013860604725778103, -0.10786191374063492], [-0.020118819549679756, 0.06052026525139809, -0.041427526623010635, -0.04087095335125923, -0.11494294553995132, 0.13977743685245514, 0.014556665904819965, -0.05109832063317299, -0.005239714868366718, 0.048391733318567276, -0.06032966822385788, -0.049648821353912354, -0.004972257185727358, 0.13454671204090118, -0.04303222894668579, -0.039142489433288574, 0.030823461711406708, 0.16272982954978943, 0.013554860837757587, -0.06469496339559555, -0.08179490268230438, 0.09459741413593292, -0.02270718291401863, -0.054565880447626114, 0.023840803653001785, 0.09799524396657944, 0.018704915419220924, -0.01410667970776558], [-0.11624661833047867, -0.03860681131482124, -0.040099166333675385, -0.14198720455169678, -0.023405782878398895, -0.08879455178976059, -0.015293177217245102, -0.005201628431677818, 0.03110499680042267, -0.01314794085919857, 0.1561335027217865, -0.1301458477973938, -0.025813376531004906, -0.11069849878549576, 0.11016269773244858, -0.09640329331159592, -0.031616415828466415, -0.23151752352714539, -0.014040357433259487, -0.07313604652881622, 0.37952306866645813, 0.009884987957775593, 0.10071127861738205, -0.011091926135122776, 0.23131075501441956, 0.07203804701566696, 0.09256545454263687, -0.009012584574520588], [-0.0518946573138237, -0.0542914941906929, -0.09506802260875702, -0.034266483038663864, -0.03102213516831398, 0.0010844602948054671, 0.004568904638290405, -0.030051006004214287, 0.02004474215209484, -0.027726171538233757, -0.08011071383953094, 0.021069154143333435, -0.028907906264066696, -0.057276155799627304, -0.0956762358546257, -0.035136133432388306, 0.08690036833286285, -0.020345347002148628, -0.0008496586815454066, -0.06799644976854324, -0.004285502713173628, -0.04372920095920563, -0.06803704798221588, -0.02561456337571144, 0.050923772156238556, -0.06306996196508408, -0.037346404045820236, -0.026196738705039024], [-0.012620366178452969, -0.11418585479259491, -0.011473226360976696, 0.030595598742365837, -0.03280620276927948, -0.036006197333335876, 0.02691032364964485, 0.033361341804265976, -0.007681617047637701, -0.04120249301195145, 0.0688919872045517, 0.062455009669065475, 0.014155267737805843, -0.05706413462758064, 0.03566444292664528, 0.14508546888828278, -0.01734471134841442, -0.055887371301651, 0.05842895805835724, 0.11252762377262115, -0.03557689115405083, -0.06983985751867294, 0.04491409659385681, 0.056187644600868225, 0.018257537856698036, -0.023996304720640182, 0.03664194419980049, 0.09460324048995972], [-0.07349258661270142, -0.14925488829612732, -0.24181930720806122, -0.0021243905648589134, -0.19702287018299103, -0.07139968127012253, -0.02844075858592987, -0.11976960301399231, 0.09871882945299149, 0.030388599261641502, 0.04325473681092262, 0.08221372216939926, -0.05673041194677353, 0.06532993912696838, 0.08139275014400482, 0.013019734062254429, 0.051148075610399246, -0.14715854823589325, 0.02230595424771309, 0.07226525992155075, 0.014187813736498356, -0.010572697035968304, 0.09852849692106247, 0.010429979301989079, 0.06439398974180222, -0.024718409404158592, 0.09133540838956833, -0.037994589656591415], [0.5792485475540161, 0.13291530311107635, 0.10981830209493637, -0.12542390823364258, 0.021655485033988953, -0.1139713004231453, 0.055408693850040436, -0.08729410171508789, -0.012489072978496552, -0.11347273737192154, -0.06549429893493652, -0.08908083289861679, 0.00908163283020258, -0.021593380719423294, 0.019028283655643463, -0.10667327046394348, -0.043262284249067307, 0.0366843044757843, 0.042302969843149185, -0.04302545264363289, 0.14498232305049896, 0.01044424157589674, 0.08415883779525757, -0.11067993938922882, 0.07237621396780014, -0.02849959023296833, 0.03882932662963867, -0.1297241598367691], [0.007306467276066542, 0.037589181214571, -0.007145531941205263, -0.008861294016242027, 0.008161015808582306, -0.006519388873130083, -0.03917521610856056, -0.007914750836789608, 0.01161227934062481, -0.060073573142290115, 0.08680964261293411, 0.042075447738170624, -0.001309870625846088, -0.021740015596151352, 0.035112909972667694, -0.005596991628408432, -0.04716197028756142, -0.07484278827905655, 0.021180259063839912, 0.003378960769623518, -0.046326104551553726, -0.055510520935058594, -0.004792650230228901, -0.007372831925749779, 0.00976375862956047, -0.0010403067572042346, 0.01494353637099266, 0.016017772257328033], [-0.014588461257517338, -0.032991617918014526, -0.003291865112259984, -0.004570753779262304, -0.015110434032976627, -0.05104446783661842, 0.003591477172449231, 0.008556557819247246, 0.01462517399340868, -0.028311820700764656, 0.008575974963605404, -0.029395973309874535, 0.0060865567065775394, 0.012291833758354187, -0.009068305604159832, -0.0009081170428544283, 0.022168677300214767, -0.023753978312015533, 0.05119127407670021, -0.04622478783130646, -0.007101601455360651, -0.020276296883821487, 0.02008555270731449, -0.015729332342743874, 0.020575491711497307, 0.013184118084609509, 0.017136259004473686, 0.0016116100596264005], [-0.10564923286437988, -0.18843328952789307, -0.031175533309578896, -0.12463124096393585, -0.11917860060930252, -0.2427971512079239, 0.034068766981363297, -0.07624351978302002, 0.06163828819990158, -0.011004557833075523, 0.06189838796854019, 0.07290469110012054, 0.08846262097358704, 0.1544943004846573, 0.11559436470270157, 0.16947409510612488, 0.21088385581970215, 0.20814290642738342, 0.13095737993717194, 0.105455681681633, -0.07185008376836777, -0.07648840546607971, -0.009791706688702106, -0.029998866841197014, 0.09807105362415314, 0.0372282974421978, 0.08561141788959503, 0.04848366603255272], [0.10644666850566864, 0.030706539750099182, 0.03753434494137764, 0.07278357446193695, 0.5654058456420898, 0.2997133135795593, 0.19542309641838074, 0.21565353870391846, -0.020883750170469284, -0.03519322723150253, -0.04690782353281975, 0.010947003029286861, -0.009423738345503807, -0.09784981608390808, -0.054486483335494995, -0.013544371351599693, 0.17179404199123383, 0.12647564709186554, 0.06454017758369446, 0.07900457829236984, 0.10068599134683609, -0.0022674966603517532, -0.006738570053130388, 0.02151557058095932, 0.17151379585266113, 0.0260577704757452, 0.04305320233106613, 0.04558420926332474], [0.16306708753108978, 0.08733993768692017, 0.11667726933956146, 0.18074600398540497, 0.05219785124063492, 0.007715465500950813, 0.010590758174657822, -0.01172546111047268, 0.5932087302207947, 0.2362486869096756, 0.29788482189178467, 0.19594821333885193, -0.0015138881281018257, -0.02588251791894436, 0.04434288293123245, 0.06744690984487534, 0.025248967111110687, -0.0224226675927639, 0.022671423852443695, 0.03698074817657471, 0.17216190695762634, 0.04504773020744324, 0.041684381663799286, 0.1098145842552185, 0.2125125378370285, 0.03382284566760063, 0.0818648487329483, 0.08515769243240356], [-0.0023816681932657957, -0.0384172759950161, -0.020288970321416855, -0.07147341221570969, 0.01643674075603485, 0.030981915071606636, 0.03394732624292374, 0.040891360491514206, -0.01565450429916382, -0.010432178154587746, 0.024533316493034363, -0.058686256408691406, 0.0009764961432665586, -0.024968259036540985, -0.005705868825316429, -0.09974338114261627, -0.009756042622029781, 0.013744920492172241, 0.004909947048872709, -0.0005073425709269941, 0.007683046627789736, -0.005076853092759848, 0.013019490987062454, -0.02276543900370598, 0.012189171276986599, 0.01916242204606533, 0.00397593155503273, -0.027881333604454994], [0.061238691210746765, 0.04999518394470215, 0.07004962116479874, -0.017701836302876472, -0.16083978116512299, -0.048909854143857956, -0.0638967901468277, -0.10280907154083252, 0.004003678448498249, 0.1916140913963318, 0.09878750145435333, -0.057561613619327545, 0.0433041974902153, 0.04787752777338028, -0.047620512545108795, -0.14441654086112976, -0.016797952353954315, -0.08095549792051315, -0.004118109121918678, -0.028701236471533775, -0.022149493917822838, 0.021654590964317322, 0.031317491084337234, -0.11321476101875305, 0.18351402878761292, 0.20127859711647034, -0.06021551042795181, -0.06704901158809662], [-0.015159178525209427, -0.06975686550140381, 0.028202714398503304, 0.05157991871237755, 0.19810499250888824, -0.0895410105586052, 0.008458267897367477, 0.1333722621202469, 0.02311401627957821, 0.03789348527789116, 0.006983976811170578, 0.09542804211378098, -0.022159500047564507, 0.050226613879203796, 0.03731429949402809, 0.046682827174663544, -0.04708906635642052, -0.15417981147766113, 0.006998343858867884, 0.0877404734492302, 0.03944957256317139, -0.01779169961810112, 0.05212404951453209, 0.10261637717485428, 0.05494796112179756, 0.03689279407262802, 0.01677435263991356, 0.11286994069814682], [-0.041709765791893005, -0.04744165763258934, -0.09216497838497162, 0.006515405140817165, 0.052491623908281326, 0.02259174920618534, -0.0061361598782241344, -0.08888664841651917, 0.033785466104745865, -0.017455628141760826, -0.05274393409490585, 0.0934179276227951, 0.017048468813300133, -0.06995678693056107, 0.08323977142572403, -0.07463321834802628, 0.08086966723203659, 0.20804686844348907, -0.05593844875693321, -0.06196236610412598, -0.03563869744539261, 0.047052912414073944, -0.07586126029491425, -0.017340771853923798, 0.02557116001844406, -0.10660514235496521, 0.018568074330687523, -0.11130038648843765], [-0.005136909428983927, -0.058639854192733765, 0.03733503818511963, 0.053240999579429626, -0.0338277593255043, -0.019968638196587563, 0.06994173675775528, 0.018595632165670395, 0.010430953465402126, -0.04329516738653183, -0.10238143056631088, -0.011074364185333252, 0.009089750237762928, -0.0014455739874392748, -0.010987900197505951, -0.010543959215283394, 0.17357680201530457, 0.11435012519359589, 0.04419859126210213, 0.15266607701778412, 0.014184992760419846, -0.07655631005764008, -0.010374104604125023, 0.004904753062874079, 0.07849538326263428, 0.005421329289674759, 0.040777549147605896, 0.03696005791425705], [0.10949480533599854, -0.007220934145152569, 0.10405582189559937, 0.01696588657796383, 0.12694399058818817, 0.07337827980518341, 0.10509391874074936, 0.1362302452325821, -0.14712205529212952, -0.11378811299800873, 0.06866812705993652, -0.12376020103693008, 0.005522182676941156, -0.11981136351823807, 0.06991730630397797, -0.20275302231311798, -0.09547001868486404, 0.015723541378974915, 0.004666550550609827, 0.0397370420396328, 0.00438661128282547, -0.021981971338391304, -0.00325349485501647, -0.015512149780988693, 0.10033593326807022, 0.07508471608161926, 0.09098868817090988, 0.043549779802560806], [0.0422675684094429, -0.060714371502399445, -0.16759733855724335, -0.03984180465340614, -0.0004615131765604019, -0.024084316566586494, -0.12918250262737274, 0.022850191220641136, -0.07710297405719757, 0.019365856423974037, -0.08330076932907104, 0.033151183277368546, -0.008549422957003117, 0.06321385502815247, -0.04873742535710335, 0.01695026084780693, -0.017141342163085938, 0.04069865494966507, 0.007637526374310255, 0.046390350908041, -0.053368110209703445, -0.041237328201532364, -0.10647100955247879, -0.044271428138017654, 0.04614756628870964, 0.11672010272741318, -0.10953845828771591, 0.04916837438941002], [-0.03127947077155113, 0.04704128950834274, 0.07499406486749649, 0.028359804302453995, 0.005610295571386814, 0.04641137272119522, 0.04575251042842865, -0.021025873720645905, 0.03606465086340904, -0.008867413736879826, 0.07637804001569748, -0.03028658777475357, -0.002097566844895482, -0.04694228619337082, 0.0896042138338089, 0.003502210369333625, 0.007335117552429438, -0.03644140809774399, 0.07192656397819519, -0.035486143082380295, 0.028044678270816803, 0.05398281291127205, 0.04833219200372696, 0.02435239963233471, -0.04114609584212303, -0.0942699983716011, 0.04804140701889992, -0.03712007403373718], [0.056929949671030045, 0.003391668200492859, -0.023470014333724976, -0.007978209294378757, -0.08944956213235855, -0.0015243770321831107, -0.08195558190345764, -0.04943300783634186, 0.020699189975857735, -0.0042185308411717415, 0.117876797914505, -0.11339748650789261, -0.05962307006120682, 0.13072478771209717, 0.053144294768571854, 0.05464893579483032, 0.5750240683555603, 0.10175063461065292, 0.19059158861637115, 0.07055103033781052, 0.18576860427856445, 0.29116466641426086, 0.1925307959318161, 0.10256733000278473, 0.0112111521884799, 0.08234762400388718, -0.0006281381356529891, 0.018083605915308]], "b2": [0.07886160165071487, 0.1383485347032547, 0.3546462059020996, 0.3096400797367096, -0.016332469880580902, 0.19523897767066956, 0.3030989468097687, 0.245756134390831, -0.020175257697701454, 0.14220046997070312, 0.11405332386493683, 0.23431585729122162, 0.0019756134133785963, 0.02396339550614357, 0.260326087474823, 0.1308588981628418, -0.02339431457221508, 0.14075279235839844, 0.2825414538383484, 0.19907057285308838, -0.02049468457698822, 0.1616847813129425, 0.32213306427001953, 0.1758732944726944, -0.07144016027450562, 0.032995231449604034, 0.26872265338897705, 0.1673566848039627]}