{"W1":[[0.00046014,0.00057091,0.00043405,-0.00001413,-0.00090635,-0.00043609,0.00039592,-0.00030942,0.0011886,-0.00048032,0.0014928,0.00078748,0.00038758,0.00065648,-0.00029285,0.00048264,0.00017561,-0.00092676,0.00035213,0.00073588,0.00029712,-0.0011017,-0.00020432,-0.00036335,-0.0009517,0.00020929,0.0002653,0.00026696,0.00055789,0.00047374,-0.00071185,-0.00079062,0.00036302,0.0014886,-0.00015423,0.00018105,0.00060293,-0.00024572,0.00042216,0.00030002,-0.00077098,-0.0002338,-0.00015813,-0.00046063,0.00007651,-0.00038314,-0.00057509,0.00055613,-0.000058451,-0.000012309,0.00019339,-0.00085534,0.0012428,0.00051542,0.00068229,-0.00002991,0.0010162,0.0011282,0.00034512,-0.00039427,0.000075225,-0.00026658,0.00062876,-0.00024351],[-0.00029146,0.00036198,0.00046077,-0.00018297,-0.00075475,-0.00018727,0.00023922,-0.00063869,0.00026804,0.00095104,-0.00050562,0.00017802,-0.00067017,-0.00037833,0.000094855,0.00049498,-0.00081556,0.00078625,-0.00037961,-0.0001505,0.0002332,0.00038991,0.00037425,-0.00024369,-0.00074881,0.0016737,-0.00092387,0.0011294,-0.00058279,0.00010597,-0.00068871,-0.00058716,0.00076292,0.00044437,-0.00032466,0.000084892,-0.00029957,0.00073646,0.0011196,-0.0003945,-0.000031111,0.00059245,-0.00025321,0.00019459,0.00075906,0.00019466,0.00031765,-0.000060633,-0.00034432,0.00049996,0.00069539,0.0002609,-0.00012098,0.00043356,-0.00050381,-0.00024778,0.00007824,0.00045217,-0.00027214,-0.00007173,-0.00059337,0.00039298,0.00096958,0.00019997],[0.0004186,-0.00055855,0.00012754,0.00055784,0.00018348,0.00022294,0.00036829,0.0003969,-0.000067745,-0.000073503,0.00027764,0.00018779,0.000092693,-0.00051124,0.00070263,-0.00013639,0.0010077,0.00038382,-0.00038896,0.00037995,0.000062281,0.00024585,-0.00031941,-0.00024183,0.00049503,0.00057012,0.00072883,-0.00059303,-0.00034607,0.00064933,0.00066996,0.00064648,-0.00035031,-0.00029273,-0.00013235,-0.00024744,0.0003798,0.00042969,-0.00019316,0.00019284,0.00025987,0.00026783,-0.00010933,-0.000053189,0.00058401,0.00028686,0.00018652,0.00039284,0.00053911,-0.00017988,-0.00069595,-0.0002713,-0.0002623,0.00009929,0.000081624,0.000044314,-0.00015791,-0.00051954,-0.00004926,0.00020441,-0.00029566,0.00017553,0.00019148,-0.00040001],[0.00052332,0.0012388,0.00025488,-0.00024644,0.0004926,0.00016101,-0.00081032,0.0010153,-0.00075905,0.00068976,0.000093095,0.0000057312,0.00024793,-0.00098771,0.00022746,-0.00066778,-0.00032006,-0.00030262,-0.00094412,0.0012408,0.00060254,0.00099502,-0.00010536,0.00080132,0.0006252,0.00064849,0.00035278,-0.00014744,-0.0005308,-0.00029988,0.00053695,0.00056089,-0.00005601,0.00012292,-0.0010215,0.0012595,0.000074406,0.00019502,-0.00022513,0.00044027,0.00038291,-0.00015949,0.00004317,0.00030189,0.00035152,0.00010855,0.00026978,0.000084,0.00062943,-0.00010967,-0.000015785,0.00059023,0.0011265,-0.00055768,-0.00038227,-0.00021626,-0.00003552,-0.00048035,-0.00061009,-0.00072626,-0.00030072,0.00016403,-0.00013374,-0.00015618],[0.000058357,0.00051649,0.00043004,-0.00036351,0.000060044,-0.00073583,-0.00017118,-0.00051353,-0.000062635,-0.00076274,0.0004752,0.00049663,-0.00090372,0.0004169,-0.00032549,-0.00042739,0.0004911,-0.0009414,0.00046627,-0.00048482,0.00040582,0.00046448,0.00023685,0.00052783,0.00033297,-0.0003857,-0.00016793,-0.00067198,-0.00014824,0.00036306,0.00023757,-0.0004189,0.00068702,0.00028274,0.00053395,0.00083715,0.0010862,-0.00051947,0.0001454,0.00022688,-0.00028539,0.00013667,0.00020838,-0.000040746,-0.00023418,-0.00059448,-0.00051728,-0.001018,-0.00028612,0.0002279,0.000134,0.0000744,-0.00010899,-0.000053987,-0.0000017737,-0.000077266,0.00017435,0.00057332,-0.00080913,-0.00010939,0.00041833,0.00026006,-0.00076901,-0.00060999],[0.000097731,0.00034561,0.00014284,0.00062755,-0.00047353,-0.00072438,-0.00053312,0.0001923,-0.000993,0.000077726,0.0003848,0.00058522,-0.00054599,0.00074437,0.00039327,0.00071345,0.00022307,-0.00012303,-0.000034751,-0.000012861,-0.00079379,-0.000090754,0.00020978,0.00041892,0.000069244,0.00043982,-0.00058636,0.00024003,-0.00066868,-0.00022188,0.00028394,0.00097754,0.00010508,-0.00063108,-0.00040046,-0.00034178,-0.0002148,-0.00038758,0.00050069,0.00079754,-0.00076039,0.00041782,-0.00021385,-0.00016846,-0.0005135,-0.00040012,-0.00035273,-0.00031511,0.0001961,0.00012304,-0.00017055,0.0006992,0.000091658,-0.000040614,0.00050277,-0.00098247,-0.00058134,0.00068853,-0.00043125,-0.00031246,-0.000099992,0.00083409,-0.00024909,0.0010985],[-0.000045822,0.00033439,-0.00017625,0.00055184,-0.000246,-0.00094423,0.000090942,-0.00064366,0.00041951,-0.00086002,0.00044556,-0.0006825,0.00032314,0.00020743,0.000168,-0.00018584,-0.00037586,-0.00027126,-0.00016445,0.00094682,-0.00087128,-0.00050317,-0.00079328,0.00079831,0.00061403,0.00029901,0.00027241,-0.000012751,-0.00077372,0.000051836,-0.00066965,-0.0002601,-0.00049734,-0.000080387,-0.0002585,-0.0010286,-0.0000056082,-0.00065104,0.00015377,-0.000024529,0.00015237,-0.00020383,-0.00067994,0.00027595,0.000091476,-0.0006615,0.000067763,0.00064191,-0.00069089,0.0000068848,0.000062473,0.000098715,0.00022654,0.00061417,0.00038683,0.000032157,0.000064823,0.0011989,-0.00032414,-0.000079176,-0.00055062,0.00031193,0.00037041,-0.00012312],[0.0011758,0.0012182,-0.000065301,0.00076871,0.00043113,0.00028214,-0.00087566,-0.0003322,-0.00036506,0.00077817,0.00066827,-0.00036219,-0.00069788,-0.00054467,-0.00035308,0.000021491,-0.00077812,-0.00083667,-0.000010251,-0.00051714,0.00013994,-0.0005198,-0.00016668,-0.00067587,-0.00059934,-0.000052565,-0.0002172,-0.000037529,0.00040835,-0.00017958,-0.0000086063,0.00085229,-0.00056761,-0.000071442,0.0010142,-0.00071662,-0.00070623,0.00020148,0.00025084,-0.0017652,0.0002491,0.0007889,-0.00041976,-0.0001977,0.0011476,0.00084582,-0.0010121,-0.0003086,-0.00099104,0.00012277,0.00092385,0.000076519,-0.00084486,0.000078123,-0.00033356,-0.0010119,0.00066175,-0.00027749,0.00015753,-0.0011442,0.0012894,0.00036513,0.00044198,-0.00054098],[0.00059358,-0.00022485,-0.0001973,-0.00064195,0.0008392,-0.000025468,0.00032053,0.00057423,0.00015525,0.00045173,-0.0010714,0.00033675,-0.00042631,0.0013725,-0.00089931,0.00097097,0.00018388,0.0010401,-0.00032277,0.00014726,0.0018818,0.0011297,-0.00045991,0.00011188,0.00019462,0.00033762,0.00039899,-0.00013718,-0.00040685,-0.0007432,0.00013647,-0.00066951,0.00087827,0.0005727,0.00059447,0.00037033,-0.00055131,0.00064977,-0.00041761,0.0014758,-0.00060072,0.00011397,-0.0008846,0.0019247,-0.0018717,0.0024106,0.00031976,0.00031685,0.00041313,-0.000081836,-0.00070549,0.0015142,-0.00096632,0.0010296,0.00068715,-0.00051009,-0.00031827,-0.00067511,-0.00024526,-0.00019006,0.0023085,-0.0014379,-0.00072137,0.000048498],[0.00033441,-0.00094348,0.00023974,-0.00065756,0.00077261,0.00034554,0.000024411,0.0011985,-0.00017347,0.00070697,0.00020545,0.0012598,0.0019134,-0.0011881,0.0010575,0.000045173,-0.0012954,0.000021257,-0.0002408,0.0017509,0.00040801,0.0010548,0.00066391,0.00020224,0.0004026,-0.00019466,0.00089892,-0.00040006,-0.00075835,0.000003047,-0.00037024,-0.000017175,0.00060097,-0.0012249,-0.00045859,-0.0011398,0.0013301,0.0012371,-0.0010138,-0.0016593,0.0012214,-0.0000060033,0.00066632,0.00041284,0.00028299,0.00050715,-0.00042709,-0.00040491,0.0004099,-0.000066182,-0.00064133,0.00047181,-0.00035414,-0.0007706,-0.0010682,0.00026705,-0.0021122,-0.0004609,0.000036252,-0.0005747,0.0015693,-0.00041312,-0.0007697,-0.00065872]],"b1":[-2.0211,-3.4259,-1.8016,-1.1862,1.4105,2.9396,0.80216,0.36525,0.074452,-0.10683,-3.0414,-1.6813,1.155,-0.34012,-1.0469,-0.54449,-0.04263,1.7491,1.2147,-3.0173,-0.30179,-0.65,0.91387,-1.7989,-0.58602,-3.9494,-0.092328,0.19487,2.9782,-1.1978,0.3461,-0.61404,-1.018,-1.235,1.5638,-0.072881,-1.5919,0.10471,-2.1165,-1.1883,1.0086,-1.2252,1.7303,-0.51973,-1.402,0.52861,0.94109,-0.43187,0.55116,-0.67508,-0.2751,-1.2738,-1.6499,-1.3711,-0.50375,2.1118,-0.5296,-3.1797,2.576,2.4545,0.26369,-1.9504,-1.1593,0.77336],"W2":[[-0.15451,-0.10925,0.16851,0.2551,0.047918,-0.10463,-0.055079,0.0048086,0.29008,-0.34019,-0.043094,-0.19177,0.03251,-0.055935,-0.039212,-0.017673,0.11846,-0.14902,0.0059174,0.14596,-0.13856,0.029037,0.2529,0.0067002,-0.19075,-0.046533,0.032823,-0.34278],[-0.12258,0.16288,-0.12817,-0.18924,0.33071,0.25162,0.033006,-0.17473,-0.037367,0.18426,-0.2211,0.037049,-0.12011,0.086453,0.22832,0.37394,0.1347,0.038227,-0.16632,-0.05154,-0.18004,-0.1829,-0.10196,-0.00049268,0.099507,-0.10036,-0.21538,-0.020085],[-0.30479,0.009076,0.044476,0.074761,-0.081473,-0.050591,0.2204,0.12718,0.080249,-0.14449,-0.3794,-0.15368,-0.12802,0.00035354,0.16735,-0.29247,-0.0605,0.30017,0.090696,-0.019171,0.18483,0.22264,-0.098449,0.15207,-0.068819,0.049066,0.0081919,-0.27667],[0.10404,-0.12139,0.20655,0.10723,0.22761,-0.033452,-0.12101,-0.2168,0.086148,-0.20452,0.19537,0.21886,0.13626,-0.39583,-0.033087,0.013502,-0.034876,0.32306,0.073428,0.041083,-0.047837,-0.022366,-0.27613,0.034581,-0.11002,-0.14505,-0.1397,-0.52202],[0.066831,-0.29157,-0.06807,0.19402,0.2504,0.17037,0.22875,0.035032,0.15611,-0.015558,0.0071603,0.13173,-0.020394,-0.0027337,0.20087,0.073449,-0.0067691,-0.12034,-0.03638,0.14007,0.11916,0.099639,0.075413,0.032869,-0.27447,0.084396,-0.0052174,0.0065002],[-0.24082,-0.07171,0.13955,0.20925,-0.40854,0.014518,0.065534,0.16394,0.067011,0.15637,-0.013151,0.061966,0.16201,-0.12299,-0.092006,0.044065,0.23006,0.026697,0.065326,0.11157,-0.056865,-0.27895,0.097245,0.073083,-0.072445,0.12658,-0.0387,0.0051652],[0.00024571,-0.29569,-0.000064886,-0.14802,0.15233,0.046907,0.10818,0.026543,0.021565,0.073677,0.19404,0.042356,-0.16312,0.24695,0.15491,0.31381,0.1232,0.0026542,0.0033425,-0.24211,0.11445,0.10357,-0.15046,-0.063275,0.025334,0.036592,-0.13392,0.20675],[-0.26084,-0.013166,0.052364,0.13506,0.42243,0.074663,-0.14131,-0.0043812,-0.036433,-0.0662,-0.15971,0.006356,-0.28514,0.38736,-0.092819,-0.25369,-0.028631,-0.0090432,-0.022862,-0.22696,-0.017602,0.02403,0.01139,-0.0095266,0.01879,0.032788,0.071408,0.11226],[0.025329,0.11606,0.15279,-0.093297,-0.29856,-0.17063,-0.24299,0.065952,-0.18769,-0.23408,-0.092825,0.0067026,0.24225,-0.030485,-0.030331,-0.24285,0.17399,0.039494,-0.41152,0.097366,-0.14713,-0.21604,0.29167,0.062734,-0.1671,-0.20044,0.15244,-0.061736],[0.026589,0.16475,-0.09898,0.065808,-0.29198,0.048821,-0.2294,0.13372,-0.19672,-0.085099,-0.18984,0.0018245,-0.099419,-0.17406,0.11201,-0.054983,-0.11905,-0.10166,-0.3518,0.088686,-0.0020872,0.000073934,0.031484,0.045043,-0.1155,-0.046174,-0.025307,-0.014971],[-0.26888,0.038225,-0.0293,-0.089068,-0.17543,-0.48509,-0.20411,0.040152,0.0983,0.088126,0.051483,0.2069,0.022533,0.2279,-0.098818,-0.09457,-0.31356,-0.12773,-0.20951,-0.22069,0.15924,-0.14238,-0.046163,-0.12027,0.04802,0.16139,0.20867,0.19813],[0.072875,-0.094249,-0.22088,-0.033444,-0.12902,-0.027564,0.12217,0.020737,0.19052,0.064155,0.13917,-0.21688,-0.091526,0.17806,0.031815,0.16702,-0.13593,0.10833,0.25286,-0.027931,-0.27731,-0.082917,-0.025849,0.00012271,0.081391,0.12979,-0.10548,0.018495],[-0.055477,0.073109,-0.21315,0.05224,-0.039076,-0.073108,-0.39465,0.083812,0.11181,0.21216,-0.29596,0.025288,0.14148,-0.03989,-0.20783,-0.010873,-0.011565,-0.06282,-0.052616,0.063339,0.092312,-0.018011,0.0612,-0.036211,-0.062097,-0.01002,-0.15373,-0.11451],[0.18631,-0.16271,-0.25516,-0.11623,0.097256,0.21654,-0.0046298,0.088182,0.12602,0.0062873,0.11683,0.043015,-0.11779,-0.047228,0.06321,-0.064898,-0.14513,0.11878,0.044116,-0.0094252,0.051751,-0.2663,-0.28463,0.0032368,-0.1892,0.013596,-0.25469,-0.11765],[-0.26522,-0.35561,0.24292,0.030533,0.1792,0.093659,-0.13617,0.016169,-0.15031,-0.22283,-0.10761,-0.15548,0.10975,-0.0040399,-0.098167,-0.13029,0.094075,-0.1113,-0.070415,-0.25871,-0.17507,0.08202,-0.00067858,0.10084,-0.0053231,-0.10138,-0.2835,-0.095143],[-0.096213,-0.070879,0.2051,0.10183,0.056455,-0.20645,-0.18018,0.19457,0.14277,0.039211,-0.23195,0.24482,0.14166,-0.16408,0.47904,-0.024268,-0.1261,0.1381,0.16207,0.18896,0.14469,-0.060467,0.0085351,-0.00053918,-0.14487,0.0069828,-0.025294,-0.051348],[0.054009,-0.074488,0.014072,-0.26982,0.11155,-0.11684,0.095066,-0.23089,-0.15225,-0.15058,-0.075453,-0.16061,-0.13911,-0.12306,0.26331,0.17016,0.085337,-0.30825,-0.24425,0.04462,-0.072976,0.17973,-0.19988,-0.0071043,0.1154,0.034694,0.2398,-0.15649],[0.021502,0.25981,0.089477,0.087648,0.068137,0.10398,0.15018,-0.25084,-0.092421,-0.069206,0.27244,0.13995,-0.10928,-0.21384,0.14199,-0.051819,-0.35004,-0.17559,0.34867,0.25008,-0.13449,0.021104,0.11117,-0.033964,0.20453,-0.024163,0.33586,-0.1053],[-0.25745,-0.0018854,-0.18399,0.28357,-0.015498,0.17003,-0.078837,0.16184,0.18037,0.0080983,-0.32677,0.1907,0.005646,-0.0681,-0.073634,0.062486,0.018766,0.15934,-0.27333,-0.060103,0.096082,-0.22464,0.064261,0.03093,-0.22635,0.067764,-0.073732,0.20862],[-0.068019,-0.18511,-0.10114,0.014642,0.0083965,0.018194,0.29087,-0.088699,-0.016696,0.12157,0.26996,0.12454,-0.000055461,-0.28438,-0.15251,0.15054,-0.20992,-0.050627,-0.0097998,0.011899,0.1237,-0.080761,0.18382,0.3005,-0.31118,0.046105,-0.011121,-0.048282],[-0.013054,-0.23605,0.2182,-0.16281,-0.22177,0.26218,-0.035872,-0.11507,0.25482,0.17738,-0.12626,-0.51144,-0.28916,-0.13538,-0.20216,0.20678,0.21864,-0.23266,0.025172,-0.05663,-0.048715,-0.093249,-0.20113,-0.087528,0.29192,0.26073,0.30661,-0.21512],[0.43118,-0.1331,-0.042867,-0.37857,0.22001,0.11536,0.20552,0.031043,0.10065,-0.077286,0.11713,-0.019946,0.045904,0.0056526,-0.30095,0.25247,-0.38589,-0.32835,0.07879,0.041363,-0.027592,-0.083628,-0.004734,0.017039,-0.00016003,-0.053032,0.063229,0.035483],[0.11419,0.077534,0.3313,-0.0037498,0.19956,0.33764,0.0096859,-0.23968,0.048529,0.1815,0.15661,0.2652,0.071026,0.10763,0.45676,0.055125,0.099563,-0.032613,-0.10163,0.15383,-0.13406,0.15514,-0.052147,-0.038338,0.24137,0.23777,0.18066,0.0082255],[-0.16408,-0.090994,0.2325,-0.070493,0.0070681,0.052778,-0.13133,0.08821,-0.16878,-0.17721,-0.12219,-0.12399,0.14535,0.071981,-0.039567,-0.0025219,-0.11789,-0.022404,0.077307,-0.10152,0.10575,0.13459,-0.085185,-0.12561,-0.0010199,0.12332,-0.12012,0.33678],[0.28256,0.19559,0.14716,0.15476,-0.2967,-0.11414,0.21766,0.12268,-0.13875,-0.0053527,-0.13507,0.006094,-0.12477,-0.10601,-0.061037,-0.06044,0.099732,0.071392,-0.0651,-0.27112,0.13748,0.015815,-0.13838,-0.14105,0.060218,-0.178,0.25149,0.12383],[0.27812,-0.020096,0.0068796,-0.053243,-0.045054,-0.033505,-0.031999,0.21769,-0.30884,0.097915,0.17303,-0.054764,-0.048052,0.2763,0.016657,-0.12132,0.26452,0.0061073,-0.012905,0.0042949,-0.1232,0.13161,0.093194,-0.1271,0.29973,0.16778,0.18166,0.03704],[0.17277,0.20891,-0.062381,0.16761,-0.32672,0.5383,-0.030415,-0.24619,-0.068061,-0.039484,0.25181,-0.0034326,-0.015209,-0.28521,0.23826,-0.010757,0.055487,0.049374,-0.054126,0.072554,-0.19325,0.16252,-0.35935,-0.14345,0.027762,0.063346,-0.046279,0.20748],[-0.074628,-0.05388,-0.08036,0.24475,-0.30611,-0.059799,0.045937,-0.20423,0.089005,-0.10151,0.55197,-0.13387,-0.0060445,-0.12954,-0.20111,-0.14988,0.013507,0.11756,0.16126,0.13071,0.13875,-0.11907,-0.21694,0.067633,0.29693,0.0056124,0.25337,-0.11658],[0.096182,0.098509,0.035903,-0.30105,0.24504,-0.31185,-0.048003,-0.2288,0.28816,-0.031141,0.31274,0.09606,-0.12772,-0.0057265,-0.065168,0.098452,-0.086058,0.011311,-0.10806,-0.020394,0.24018,0.045777,-0.12095,0.064861,0.18844,-0.12605,-0.020744,0.0396],[0.073799,-0.27852,-0.20539,-0.022401,0.093902,0.047909,0.24539,0.0576,0.090391,0.021105,0.022689,0.021472,-0.14144,-0.20333,0.18827,0.22149,0.033419,0.16607,0.0098039,0.090034,0.07776,-0.2799,0.26877,0.15509,-0.12662,-0.056513,-0.027745,-0.049879],[0.053806,0.031422,-0.058526,0.31304,0.098857,0.16379,-0.04135,0.18572,0.1011,-0.035826,-0.20524,0.013114,-0.1508,0.027638,-0.24026,0.068628,-0.038776,0.33725,-0.26661,-0.094217,0.017136,0.16663,-0.10043,0.082437,0.017,-0.013108,-0.24864,-0.039451],[-0.040716,0.049556,0.10661,-0.076126,0.0031085,-0.033289,-0.17582,-0.19194,0.023075,0.11598,-0.12355,-0.20853,-0.00075741,-0.0029524,-0.17668,0.039305,-0.10339,-0.28768,0.054487,0.20513,-0.013904,0.06501,-0.29681,-0.11699,0.10973,0.13167,0.012783,0.16004],[0.050107,0.3677,0.11484,-0.073705,0.32837,-0.13888,0.22478,-0.017514,-0.27784,0.15258,0.046175,-0.0034008,-0.17934,-0.049723,0.035828,0.0028083,-0.027378,-0.0072163,-0.075863,-0.18455,-0.22816,0.16609,0.046481,-0.17421,0.030676,-0.1014,0.24285,0.22772],[-0.058172,-0.31729,-0.057719,0.070757,-0.090681,-0.29902,0.10767,-0.13073,0.14325,0.092431,0.10271,0.16004,0.24146,0.049364,-0.065262,-0.082045,0.0299,-0.11735,0.1509,0.12464,0.14125,-0.020788,-0.0093393,0.17712,0.3468,0.14464,0.28678,-0.27278],[0.10883,0.34357,0.12046,0.12746,-0.11461,0.081948,-0.23538,-0.079209,0.0033274,0.24334,-0.20699,-0.10077,0.16536,0.18471,0.192,-0.075521,0.32427,-0.064927,-0.090133,-0.080838,0.10223,-0.134,0.16599,-0.19214,0.22039,-0.028644,0.1143,-0.034269],[0.010221,0.021285,-0.065198,-0.13419,-0.20568,-0.20282,0.2777,-0.073233,-0.17769,0.21096,0.16555,0.175,0.099748,-0.080082,-0.22865,0.026475,-0.15142,-0.16106,0.025562,0.032707,-0.14695,-0.21409,0.013869,-0.13597,-0.037871,-0.019611,-0.098304,-0.17819],[0.040183,0.13863,0.022158,0.34208,-0.031615,0.095097,-0.26856,-0.005155,-0.095831,-0.021502,-0.054275,0.039773,0.066045,0.18228,-0.083615,0.074582,0.094677,0.14401,0.20539,0.089898,-0.045922,0.072386,-0.2842,-0.28428,0.22845,-0.081348,0.049883,-0.061156],[0.04819,0.18403,0.21342,-0.33387,-0.12036,-0.367,0.070592,-0.15891,0.069361,-0.039375,-0.1338,0.17571,0.014597,-0.18938,0.47097,0.32404,0.34378,-0.1,0.2715,0.081484,0.22884,0.099543,0.12357,-0.086793,0.051031,0.047477,-0.20963,-0.11042],[0.32258,-0.10597,0.29611,-0.28677,-0.12744,-0.059229,-0.19199,0.17423,0.17926,-0.090041,-0.039189,0.063664,-0.12948,-0.096262,-0.17345,0.17775,-0.051326,-0.18527,0.15729,-0.043949,-0.018995,-0.25818,0.16182,-0.093674,-0.19114,0.059516,0.1519,0.24666],[-0.12472,-0.10493,-0.24392,0.39811,-0.073433,-0.003493,0.1128,-0.064491,-0.069712,-0.014382,0.11409,-0.081292,-0.054723,0.027726,-0.045773,0.03986,0.017282,0.13531,-0.05628,-0.14851,-0.24083,0.20662,0.23896,-0.05473,0.086569,0.13121,-0.044919,-0.10775],[0.085781,0.083843,0.13758,-0.43415,-0.048253,-0.14268,0.11184,0.16569,-0.21283,-0.21946,0.0302,-0.093328,-0.11826,0.14064,-0.29356,-0.10155,-0.12988,-0.11397,0.14944,-0.22766,0.049657,-0.16949,-0.096164,0.033655,0.17013,-0.18729,0.21921,0.18146],[-0.14965,-0.25702,0.0147,-0.061742,-0.18887,-0.0095504,0.06242,0.095172,-0.15581,0.067957,0.30987,0.039881,-0.020449,0.063441,-0.070306,-0.2301,-0.26606,-0.001214,0.049325,-0.048969,-0.15701,-0.20433,-0.27261,-0.0841,0.17568,0.037445,0.13076,0.39406],[-0.047055,-0.091163,-0.030537,0.00048964,0.048705,-0.14728,0.18822,-0.013812,0.052025,-0.17622,-0.17549,-0.26665,-0.13956,0.15126,0.087172,-0.20327,0.043347,0.033918,0.093316,0.19018,-0.063029,-0.071606,0.0058323,-0.19992,-0.11981,-0.070234,0.23205,-0.012352],[-0.19438,0.37919,0.13029,-0.08762,-0.059743,-0.30965,-0.084392,-0.24864,0.083543,-0.087209,-0.093925,0.21332,-0.014205,0.022646,0.13994,-0.32954,-0.14703,0.13847,0.093955,-0.21558,-0.013897,-0.12115,0.224,-0.027133,-0.17309,-0.33771,-0.023539,-0.033223],[0.20009,0.13163,-0.0026549,0.061869,0.089625,0.044738,-0.0024864,-0.040591,0.20206,0.13214,-0.2082,0.039617,0.0027209,0.12133,0.18743,-0.016141,0.10451,0.0753,0.20581,0.13396,0.090554,0.092756,0.20039,0.030358,0.17531,0.016075,0.048385,0.13498],[0.10874,-0.41791,0.21801,-0.27137,-0.057162,-0.065164,0.0014811,-0.00050218,-0.33736,-0.057921,0.10093,0.0021213,0.040574,0.12593,-0.061696,0.1886,0.13555,0.35689,-0.22067,0.042722,0.01589,0.20878,-0.072068,0.024125,0.13095,0.14833,-0.048032,-0.061157],[-0.0055279,0.15199,0.18983,-0.03819,0.23396,0.021453,-0.0071362,0.15608,0.08335,-0.090828,-0.11941,-0.1504,0.16046,0.054227,-0.30958,0.11855,0.31005,-0.038712,-0.16407,0.051082,-0.082735,-0.15444,0.093836,0.18884,-0.024305,0.13223,-0.30539,0.25013],[0.16364,-0.080855,-0.10589,-0.28601,0.031704,0.12299,0.09605,0.12838,-0.12522,-0.18921,-0.075471,0.33213,0.13682,-0.11172,-0.041547,0.084966,0.38294,-0.19141,-0.082582,0.26828,-0.038605,-0.25719,-0.35031,0.078929,0.048516,-0.045897,-0.27549,-0.047665],[-0.016674,0.0092879,0.0043767,-0.017585,-0.17929,0.046248,0.40634,-0.17268,-0.032203,0.025984,0.11368,-0.14561,0.13447,-0.064361,-0.055674,-0.1301,0.23913,0.24537,0.01725,-0.095196,0.24474,-0.047213,-0.035327,-0.2187,0.2095,-0.010404,0.14721,-0.069136],[-0.17588,0.041677,-0.43136,0.062271,0.11619,0.15467,-0.15867,-0.021634,0.13875,-0.22223,0.028365,-0.26054,0.096648,-0.28962,-0.03471,-0.00025308,-0.049712,0.11497,0.0087569,0.28987,0.1446,0.42636,-0.070129,-0.092911,0.044542,0.030585,0.094661,-0.28336],[-0.10758,-0.31113,0.076712,-0.023786,0.3126,-0.043022,0.046199,0.22642,-0.15184,-0.25376,0.21753,0.019307,-0.0024965,0.076944,-0.21939,0.23059,-0.4195,-0.10098,0.085179,-0.31515,-0.022277,0.29991,-0.090233,-0.022983,-0.44602,0.095669,-0.41132,-0.16378],[-0.013091,0.17038,-0.25506,0.14501,0.075442,-0.037989,-0.00689,0.090491,-0.090338,-0.13367,-0.053076,0.16497,0.11443,-0.056339,0.11516,-0.19227,-0.022263,0.35,0.10937,0.3351,0.26694,0.14541,-0.10872,-0.03356,0.12929,-0.010084,0.088933,0.10647],[0.17439,0.061029,-0.012985,-0.14087,0.19842,0.11778,0.068572,0.073399,0.048556,-0.17831,0.0011602,-0.0032623,-0.016598,0.098348,0.062963,-0.025874,-0.038343,-0.065511,-0.01417,0.1584,-0.029404,0.010969,-0.11961,0.13283,0.02836,-0.16836,0.074782,0.067905],[-0.21192,0.17969,0.016232,0.16874,-0.27753,0.29173,-0.15969,-0.12267,-0.12717,0.24092,0.039276,-0.14875,0.16597,0.24051,0.060945,0.13455,0.059961,-0.31562,-0.065485,-0.38532,0.10432,0.08857,0.087621,-0.019048,-0.13696,-0.099398,-0.18825,0.16814],[-0.20292,-0.0071173,0.42656,0.076619,0.1377,-0.21906,-0.19327,0.23323,0.54397,0.0032481,-0.19693,0.11003,-0.041499,0.039246,0.0751,-0.012585,0.024088,-0.074601,0.25476,0.34498,0.29489,-0.15402,0.22212,0.50929,-0.23009,0.0081201,-0.15717,0.070757],[0.32159,0.035084,-0.20844,-0.10697,0.058703,-0.082736,0.14983,0.21553,0.040722,-0.048986,0.14252,0.026931,0.007099,-0.062265,-0.012193,0.25822,-0.19524,0.028117,0.11519,0.18048,0.12874,0.018038,-0.068009,0.29607,0.092011,0.11143,-0.18142,-0.10413],[-0.11033,-0.18383,-0.39048,0.15419,0.042946,-0.0075401,0.111,0.0046239,-0.081301,-0.17592,0.22603,-0.070904,0.1397,-0.17587,-0.16408,-0.20143,0.042529,0.13211,-0.22622,0.29799,-0.013636,0.08016,-0.031647,0.22903,0.14044,0.048627,-0.26049,0.26613],[0.2128,0.15418,0.08856,-0.020736,0.1483,0.33374,-0.23366,-0.2164,0.042832,-0.097218,-0.21358,-0.052514,0.057903,-0.29982,0.016837,-0.14361,0.14544,-0.002961,-0.19849,0.1568,0.032456,0.092864,-0.093522,-0.080435,-0.1093,-0.17984,-0.27084,-0.053386],[0.16884,-0.14886,-0.063747,0.18443,0.18778,0.13049,0.084294,-0.074892,-0.11256,-0.050329,0.085265,0.027225,-0.03326,-0.046899,0.068154,0.020544,0.046993,0.07704,0.19393,-0.061408,-0.20909,0.22728,0.17353,0.11208,-0.15872,-0.099592,0.1808,-0.023427],[-0.12813,-0.077563,0.18961,0.14219,-0.21508,0.044547,0.080803,0.19808,-0.28784,-0.081386,0.087157,-0.046014,0.24283,-0.05044,0.20933,-0.14813,-0.11911,-0.00026904,0.10119,-0.10855,-0.03847,0.27054,0.12285,0.040997,0.037164,-0.026269,0.019753,0.030901],[0.066737,0.18182,-0.19149,0.10844,0.29482,-0.14261,0.12878,0.33888,0.11519,-0.073181,-0.030469,-0.12066,0.0060571,0.19565,-0.0051996,-0.10383,-0.087714,-0.10513,0.049797,0.09961,-0.022705,0.051622,0.066762,-0.12476,-0.16592,-0.17203,-0.10861,0.19381],[-0.075404,0.26456,-0.12028,0.068569,-0.37083,0.035561,0.46019,-0.036133,-0.1105,0.09853,0.14627,0.092701,0.14463,-0.076639,0.12213,-0.13146,0.029621,-0.072067,0.028938,-0.015091,0.22781,0.058804,0.17973,0.2199,-0.15941,-0.049508,0.13301,-0.12031],[0.17873,0.084584,0.013494,0.15095,-0.20735,-0.075982,-0.052226,-0.013041,0.02035,0.23454,-0.0028267,-0.073316,-0.097987,0.13811,-0.28894,-0.023209,0.31887,0.11091,-0.017447,-0.22898,-0.077702,-0.10874,0.00089702,-0.14601,-0.12059,-0.22912,0.046534,0.093583],[0.035469,0.029483,0.29884,-0.10475,0.064271,-0.032679,0.0068481,0.11405,0.13037,0.11912,0.13162,0.10866,-0.05503,0.21594,0.26805,0.19241,0.1121,-0.17383,0.35497,-0.10611,-0.0017579,-0.059703,0.026177,-0.28463,-0.093458,-0.093982,0.41452,0.17324]],"b2":[-0.011964,0.024424,0.25364,-0.12445,0.034166,0.055997,0.12929,0.080307,-0.045827,0.045235,0.086699,-0.03656,-0.040889,0.0059089,0.31577,-0.047715,-0.010258,0.046479,0.15946,-0.1054,-0.068427,-0.082229,0.36697,0.02486,-0.13752,0.044717,0.076352,0.01753],"meta":{"arch":"10-64-28","params":2524,"trained":1600}}