{"W1":[[-0.0019072,0.000050133,-0.00032204,0.0036546,-0.0023918,0.0012643,0.0015364,0.0012753,-0.0012726,0.0021322,0.0012483,0.0020531,-0.00054025,-0.001637,-0.0012775,0.0026912,-0.00038953,0.00087679,0.0022841,0.0003553,-0.00069368,-0.00011438,-0.0041061,-0.0039941,0.0017719,-0.0008693,0.0010816,0.0015956,-0.0015875,0.00054414,-0.00010375,-0.00154,-0.00045674,0.0002778,-0.00094851,-0.0021919,-0.0016896,0.0021352,-0.0033249,-0.0013639,0.0010588,0.00019562,0.00075018,-0.00011215,0.0003981,0.00088073,0.00059054,0.00082054,-0.0017967,0.0022697,0.0020166,0.0021825,-0.002556,0.00094338,0.001285,0.00024584,-0.0012953,-0.001838,0.0017559,-0.0005503,-0.0011378,0.0010906,-0.00096341,-0.0022758],[-0.0015904,-0.00082046,-0.0010411,0.0010379,-0.00061785,-0.00055522,-0.00028419,0.0024942,0.00037118,-0.0020566,-0.001342,-0.0010037,-0.0010227,-0.00099246,-0.0017052,-0.0033143,-0.00083098,-0.0023435,-0.00066307,0.00055846,0.0002857,0.00091075,-0.00051553,-0.0019681,0.0028281,-0.00089618,0.00013495,-0.0010955,-0.0008227,-0.0011571,0.0012056,-0.00059327,0.00043436,0.00030514,-0.0026009,0.0027223,-0.000025399,-0.0015876,0.00084456,-0.00096853,0.0018141,0.0014716,-0.00026036,-0.00047595,-0.0011126,-0.0035628,-0.00014567,-0.0019327,0.003242,-0.000008005,0.0011964,0.0019092,-0.00084122,-0.00067597,-0.0017812,-0.00093265,0.0023581,0.00090217,-0.00030123,-0.0022334,0.0015236,0.0012237,-0.0022004,-0.0036972],[0.0000030935,0.0010392,-0.00022933,-0.0018878,-0.00056519,-0.00088333,-0.00091343,0.0011784,-0.00093349,-0.0024061,0.0014256,-0.00049753,-0.0016749,0.0021903,-0.0014937,-0.0037212,0.00037355,-0.0016658,0.000020337,0.00080343,0.0019055,-0.0029235,-0.00078589,0.00070673,0.00048656,0.00057513,0.00041249,0.00004996,0.00076255,0.0011857,-0.000094364,-0.0028963,0.0011056,0.0010872,0.0001851,0.0018167,-0.00027074,-0.0022453,-0.00087226,0.0003008,0.00033574,-0.0041866,-0.00024387,-0.0021981,-0.0012658,-0.0020454,0.00092778,-0.0012032,0.00020756,0.00054516,-0.00014691,0.00069575,0.0002818,0.001124,0.00020791,-0.0011744,0.00063666,-0.0022843,0.0024338,-0.00050618,0.0017428,-0.00042808,0.0024365,-0.00013117],[-0.0013068,0.00049871,-0.00031805,-0.00051989,-0.00059671,-0.00039654,0.0002184,-0.0020234,-0.00023875,0.00058683,0.00027046,-0.0007363,-0.00048107,0.00063636,-0.00095233,0.0021642,0.0014717,0.0012464,0.0010784,0.00095559,0.00091816,-0.0016026,-0.0005118,-0.00084252,0.00098718,-0.0014081,0.0017057,0.00036951,0.00081112,-0.0011481,-0.0015591,-0.0011634,0.00092448,-0.0019448,-0.0017761,-0.0016753,0.0017993,0.0031751,-0.00027183,-0.0019185,0.00083355,-0.0017404,0.0029534,-0.0019696,0.0011075,-0.0025337,0.00053037,0.000059088,0.001044,0.0032914,0.001129,-0.0036894,0.00027784,0.0010038,0.002575,-0.00032951,0.00023121,0.0011116,-0.000071872,-0.0023028,0.00076628,0.0018517,0.00029103,-0.00064765],[-0.0012259,-0.0044165,-0.0010394,-0.00092126,0.0018323,0.002086,-0.00182,-0.00044403,0.0016462,-0.001599,0.0034833,0.00030852,-0.00049082,0.0012098,-0.00040516,-0.0014055,0.00031968,0.00021106,-0.00062057,-0.00049722,0.0014911,-0.003214,-0.00060785,-0.0012426,0.00058473,-0.00015114,0.0010926,0.00064715,-0.0016234,0.00084696,-0.003924,0.001505,-0.0015102,0.00072011,0.0023177,-0.0011806,0.0018826,0.0011899,0.00075571,0.00063569,0.0019662,-0.00034547,-0.0013714,-0.0010977,0.0000023643,-0.001112,-0.00026924,0.0021388,0.00054759,-0.00037692,-0.00069081,-0.0021341,-0.0014717,-0.0010124,0.0000041974,-0.00091828,-0.0032386,-0.00085164,-0.00040854,-0.0014449,0.0015463,-0.00092149,-0.00032729,0.00031552],[-0.0010755,-0.0012928,0.00020993,-0.000017385,0.00010219,-0.00086855,0.00055201,-0.00072693,0.000067044,0.0010335,0.0014582,0.0033833,0.00026653,0.00028864,0.0019169,0.00030605,-0.000025833,0.0019655,0.000039095,-0.001563,0.0012943,-0.0016328,-0.0010909,-0.00065312,0.0016011,0.0018549,-0.0022631,-0.001387,0.0015076,-0.0019501,-0.000032948,0.003028,0.00099196,-0.0014129,0.00018906,0.00068721,-0.0011187,0.0025703,-0.001234,0.0002399,0.002126,0.00071329,-0.00028748,-0.0016195,0.00091887,0.00087564,-0.000067739,-0.00028732,-0.003246,-0.00094746,0.00027685,-0.00049626,-0.0015164,-0.00045426,0.0021031,-0.0016351,-0.0020386,0.0017034,0.00063809,-0.00012686,0.0025623,0.0012282,-0.0017452,-0.00034984],[0.0025106,0.00063336,-0.0012061,-0.0011701,0.00081892,0.00054428,0.002567,-0.001541,0.0018275,0.0013903,-0.00064365,-0.0025476,-0.0014256,-0.0013916,0.00099546,-0.0007923,-0.0014924,-0.0015326,0.0010454,0.00047843,0.00083759,0.00013526,0.0016755,0.0015362,0.00028769,-0.00045348,-0.0011327,-0.00036719,-0.0011322,-0.0019882,-0.00060666,-0.0021524,-0.0030532,0.0028511,0.0011428,0.0017304,0.00028164,-0.000082436,-0.001664,0.0030777,-0.00032361,0.00015296,0.000706,0.0025432,0.0010971,-0.00054905,0.0011567,-0.00032947,-0.0016199,0.000489,-0.00016328,0.0021871,0.0010801,0.0012316,-0.002597,0.00078231,-0.00033942,-0.0020449,0.0012163,0.0020564,0.00084826,-0.0025054,0.0026952,0.0008155],[-0.0038945,-0.000091143,-0.0014969,0.00026088,0.0010609,0.0036833,-0.0025397,-0.0018048,0.00066905,-0.0010034,0.00060431,-0.00055821,0.0021643,-0.0012167,0.0010695,0.003971,0.0010691,0.00043288,-0.00066929,0.00099911,-0.0018264,-0.0030021,0.00019203,-0.00073198,0.00055676,-0.000094369,-0.00038665,0.00099716,-0.0015737,-0.000086517,-0.0012456,0.0026513,0.0013346,-0.00081666,0.0033605,-0.0019351,-0.00087622,-0.0022682,-0.0024566,0.0017618,-0.000060019,0.0014061,-0.00092772,-0.0012398,0.00091671,0.0028414,0.0011674,0.0014164,-0.0003934,-0.00099713,-0.001673,-0.00020913,-0.0046052,-0.0018944,-0.00019407,-0.0022606,0.00013695,-0.00046791,0.000066643,-0.00029683,0.0019847,-0.00020442,-0.0006413,-0.001805],[0.000004613,-0.00032969,0.00053365,0.00055349,-0.000088786,-0.00054613,-0.0007018,-0.0004998,0.00043963,-0.00043984,-0.001242,0.00047841,0.0018282,-0.0016423,-0.0012667,0.0013455,-0.0023196,0.0053186,-0.0022921,0.002517,0.0014805,-0.0001643,-0.00022679,0.0011569,0.00026027,0.0024597,-0.0014,0.0019257,-0.0010297,0.000028408,0.0014947,0.00054336,0.0013749,-0.0023956,0.00014392,-0.0010027,0.002986,0.00019783,-0.00071111,-0.0020293,0.00075964,-0.00010459,0.0048987,0.00043033,0.0019299,0.0037037,-0.00036968,0.003582,-0.0016327,0.0012607,-0.0022472,-0.0045699,0.00019414,0.0029922,0.00015863,-0.0018686,0.00038193,0.00020326,0.0014644,-0.0017619,0.0035151,0.0022844,0.0025748,-0.00054781],[0.0005633,0.0024782,0.00011782,-0.00070307,0.0027128,-0.00071946,-0.00065731,-0.0042223,0.0014211,0.00037287,0.00098543,0.0027516,-0.0014236,0.0044751,-0.00071298,-0.001738,-0.000036534,-0.0010822,-0.000053869,-0.00114,0.00012825,-0.0020604,0.0075292,0.0044194,0.0015836,-0.0012044,0.0025592,0.0026966,0.0011635,0.00028316,-0.00088212,-0.0059715,-0.0031527,-0.0018514,0.0028665,0.0011601,-0.00053221,-0.00073065,-0.0025547,0.00031642,-0.00051358,-0.0035685,-0.00036718,-0.00005274,0.00063243,0.0013209,-0.0029116,0.0030297,0.000049651,0.0022516,-0.0013197,0.00011115,0.001351,-0.0015856,0.00054558,-0.00046697,-0.0030576,0.0027202,0.0032089,0.0042283,-0.00083417,-0.0037451,0.00013825,0.0027334]],"b1":[3.2806,2.2807,2.5929,-0.093714,0.75196,-1.4031,-0.74617,0.93887,-1.333,0.7368,-3.6245,-0.49545,2.6601,-0.057782,1.742,1.6435,0.43871,0.10352,-1.6185,-0.92924,-3.6129,5.7898,2.8346,3.3886,-5.5313,0.63213,-0.5716,-0.58737,1.6529,2.4135,3.2694,2.2499,1.134,-0.69024,0.22842,-0.45378,-0.69264,-2.7928,4.3005,-0.34553,-4.8067,2.3646,-1.5809,3.1604,-1.2161,3.7506,-1.6193,-0.43821,1.3633,-3.5188,-1.5806,-0.081851,3.5636,-1.0224,-1.0864,2.9581,2.4479,2.1784,-3.7662,2.8562,-5.5391,-0.77549,-0.47104,3.7193],"W2":[[-0.061798,0.10552,-0.18075,-0.14765,0.096337,0.012872,0.018955,-0.079772,0.038042,0.077853,-0.26495,-0.01892,-0.022489,-0.14523,-0.13557,0.047229,-0.11781,-0.0046863,0.19077,-0.067174,-0.022382,0.1389,0.059514,-0.18737,-0.17411,0.11035,0.0097288,0.05053],[-0.10208,-0.13304,-0.23579,0.40983,-0.21051,-0.046565,0.026498,-0.047926,-0.081799,0.27905,-0.10192,0.16924,-0.014298,0.031864,0.094992,-0.0050943,0.043494,-0.19185,0.036492,-0.19002,0.050879,-0.057386,-0.28351,0.028879,0.0036879,0.072218,0.02166,-0.13019],[0.2447,-0.26203,0.10464,0.043278,0.17464,-0.030302,0.047883,-0.013447,-0.017834,0.16953,-0.063343,0.22429,-0.15594,0.27455,-0.061431,0.33887,0.18995,-0.25228,-0.1088,-0.10219,-0.056434,-0.24881,-0.15492,0.040503,-0.18486,0.053311,-0.4059,-0.11807],[0.10966,-0.027048,0.10734,0.19241,-0.08295,-0.067248,-0.10546,0.20018,-0.064597,-0.12565,0.21779,0.12577,0.10927,-0.048235,0.051835,-0.15512,0.085477,-0.26237,0.015633,-0.0051234,0.16929,-0.011017,0.042191,0.090396,0.067402,0.0023948,0.054566,-0.19641],[0.33141,0.2389,0.071835,0.01511,0.36271,0.24321,0.26251,-0.088555,0.16444,-0.020949,0.25675,0.10292,0.032899,-0.012004,0.31991,-0.2313,0.16578,0.17277,0.076186,-0.069595,0.10516,-0.066136,0.081309,0.069045,-0.094237,-0.048751,0.10176,-0.13593],[-0.097292,0.2236,-0.039018,-0.057188,-0.20311,0.10602,-0.13708,-0.014394,0.18158,-0.032934,0.078765,0.0081859,0.060617,0.33665,-0.0092875,0.069793,-0.156,0.13924,-0.026915,-0.107,-0.063582,0.2712,-0.017742,-0.091836,0.047609,-0.056323,-0.27281,0.099126],[0.13303,-0.089524,-0.026036,-0.01826,0.18611,-0.26442,-0.23126,-0.098309,0.15406,0.071732,-0.11734,-0.041237,0.11697,0.22706,0.053602,-0.20541,0.16484,-0.18768,-0.1383,0.036227,-0.034991,-0.23052,-0.029757,0.061243,0.2308,-0.065524,-0.22154,-0.014073],[-0.085134,-0.26484,0.1639,0.16192,-0.069816,0.061104,0.26476,0.18133,0.16218,-0.34813,0.067153,-0.38178,0.29579,-0.14068,0.14131,0.026619,0.16497,0.013736,0.040807,0.075927,0.016463,-0.11256,0.015944,0.034054,0.10511,0.17425,0.29517,-0.16265],[0.080772,-0.051721,-0.2186,0.09748,0.30078,-0.24834,-0.11576,-0.037244,0.11412,0.092522,0.18679,0.037097,-0.068277,0.1311,-0.052362,-0.24793,0.04613,0.12226,-0.090435,-0.043311,0.088471,0.0051407,-0.24207,-0.079347,-0.031612,-0.086379,0.051083,-0.078613],[-0.1271,0.26412,0.092467,-0.14381,-0.050755,0.23544,0.15158,-0.0074213,-0.11245,-0.13365,0.078043,-0.090167,0.10207,-0.034091,-0.033883,-0.12538,0.26969,0.042088,0.30315,-0.019528,-0.053821,0.077021,-0.016436,0.057336,-0.20686,-0.021727,-0.031051,0.039241],[0.10469,0.23139,-0.077993,0.1477,0.16699,-0.20646,-0.075811,0.17746,0.12174,-0.1197,0.092303,-0.18963,-0.17049,0.05111,-0.10709,0.045067,-0.037963,0.025308,-0.03845,0.11041,-0.082512,0.0076062,-0.039173,0.19389,0.46045,-0.11793,-0.2563,0.01332],[0.091227,0.18798,0.075639,-0.0118,0.16599,-0.035453,0.023339,-0.1284,0.22721,0.17255,0.23618,0.025809,-0.19511,-0.0303,0.011119,0.039721,0.10054,0.004335,0.060263,0.18397,0.11994,0.10806,-0.044407,0.028831,-0.07991,-0.14785,-0.080286,-0.040277],[0.080822,0.03085,-0.13138,-0.0032283,0.10715,-0.22414,-0.18424,-0.04915,-0.20354,0.0054662,-0.10283,0.12361,0.037102,0.033247,-0.14685,0.16384,-0.055578,0.11323,-0.016992,-0.077481,-0.025948,-0.14303,-0.19765,0.10832,-0.094182,0.055315,-0.035241,-0.073025],[0.036961,-0.32275,0.28345,-0.03994,-0.18234,0.037015,-0.013847,-0.024529,0.10739,-0.018093,-0.057661,-0.16054,0.24034,-0.025919,0.22648,-0.10745,0.020063,0.041064,-0.018179,-0.2082,-0.13957,-0.02107,0.11665,-0.13181,-0.49236,0.047505,0.047753,0.09995],[0.026282,-0.085271,0.033473,0.036652,-0.0058544,-0.074887,0.10116,-0.098109,0.098553,-0.091898,0.099599,0.17957,0.016444,-0.21546,0.31509,0.10984,0.2361,0.2424,0.1761,0.12242,-0.0065207,0.028466,0.050246,-0.13243,-0.0013179,-0.15083,-0.18156,-0.077567],[0.007476,-0.16228,-0.053247,-0.20635,-0.33501,-0.030317,0.090213,-0.067886,0.14585,-0.18645,-0.1106,-0.30721,-0.040537,0.036202,-0.080422,-0.13885,0.16775,-0.13212,0.00064873,0.069423,-0.019014,-0.00069129,-0.036458,-0.12377,-0.008789,0.031178,-0.031964,0.0088157],[-0.17988,0.065518,0.097161,0.068924,0.23408,0.23411,-0.030528,-0.048424,-0.11609,-0.034438,0.21174,-0.073754,-0.039512,0.0080469,-0.18501,0.064489,-0.24496,-0.10175,-0.061059,0.20761,-0.0048834,-0.16671,-0.0010929,-0.014589,0.1441,-0.0038302,-0.25406,-0.19579],[-0.064506,-0.05026,-0.015301,0.085523,-0.016525,0.17186,0.066033,0.10017,-0.088134,-0.10855,0.090495,0.079758,-0.16198,0.0070733,0.034319,-0.06814,-0.1184,0.20611,-0.10132,0.092952,0.083393,-0.078383,-0.013187,0.09129,-0.33945,0.023576,0.090182,-0.067613],[0.18357,0.067189,0.16767,-0.16628,-0.10228,-0.067261,0.18027,-0.22444,0.16976,0.073242,0.032782,-0.026492,-0.11002,0.15771,0.17621,0.20817,0.0006516,-0.034797,-0.20262,-0.18065,0.0073108,-0.093312,0.076227,-0.030068,0.11503,0.073643,-0.1708,-0.1092],[-0.18969,-0.092517,0.094586,-0.03614,-0.3265,0.023399,0.047271,0.055936,0.0035475,-0.050379,0.093979,0.097424,0.02737,-0.090176,-0.086529,-0.065939,-0.52063,-0.053122,0.19368,-0.13464,-0.061396,-0.031245,0.19403,0.30202,0.18775,0.051948,0.21022,-0.033755],[-0.26967,0.02207,-0.18181,0.061599,-0.10915,0.14322,0.005917,-0.0038486,0.0024318,0.027601,-0.1058,0.10996,0.079762,0.12194,0.0127,0.020157,-0.038217,0.028332,-0.067713,-0.11057,0.11372,0.13557,-0.0036863,-0.037082,-0.029744,-0.20511,-0.21876,0.10982],[-0.15948,-0.029579,0.0056968,0.052352,-0.058876,0.11133,0.078119,-0.12829,0.24193,-0.0076377,-0.087633,-0.005637,0.13455,0.070688,-0.061564,-0.057887,-0.41298,-0.019581,-0.1787,0.047922,0.012736,0.25144,-0.0034236,-0.21377,0.17748,0.0057287,0.024476,0.053736],[-0.13853,0.10356,-0.056851,-0.012211,-0.036901,0.076194,0.054872,0.27055,-0.034081,-0.22322,0.10422,-0.1586,0.054892,0.035519,-0.22067,-0.023682,-0.041384,0.25361,-0.012638,0.16773,-0.070891,0.040419,0.16429,0.26362,0.090408,-0.14094,0.13302,0.0089779],[0.20986,-0.054098,0.063012,-0.19149,0.15468,0.04832,0.021604,-0.19241,0.013283,0.028887,0.082854,-0.053604,0.21688,0.029922,0.070526,-0.071564,-0.058119,-0.035571,-0.24432,-0.019233,-0.021401,0.05499,0.070698,0.065827,0.15579,-0.20137,-0.033194,0.26574],[-0.097569,0.10767,-0.014244,-0.0419,0.0033442,0.079456,-0.055919,0.051671,-0.071471,0.095389,-0.042707,-0.061571,0.13935,0.11061,0.072854,0.087684,-0.25759,0.0015881,0.17878,-0.047277,-0.010777,-0.052264,-0.10784,-0.28563,-0.032083,0.031418,0.15526,-0.13059],[-0.041363,0.097769,0.040018,0.081789,-0.00077971,-0.25748,-0.13167,0.015858,0.14246,-0.14627,0.11448,-0.11196,0.020088,0.16402,0.063447,0.038361,0.075915,-0.038733,-0.071255,-0.14631,0.0017239,0.080652,-0.076235,-0.018437,0.29744,0.025718,0.040885,-0.059401],[-0.16722,0.03547,0.0054175,-0.16098,0.086877,-0.18553,0.10324,0.19273,-0.0030001,0.18147,-0.22951,0.22808,0.10159,0.098347,-0.11125,0.068631,0.11086,0.003492,-0.10008,-0.22393,-0.065212,0.19448,0.10384,0.058025,0.11834,-0.31597,-0.16893,0.015959],[-0.13969,0.1423,-0.37876,0.094355,0.020918,-0.0068438,-0.25253,-0.10653,0.25399,-0.30001,-0.14753,-0.094322,-0.44421,-0.0035751,-0.13231,0.17275,0.10715,-0.14655,-0.076201,-0.31307,0.1066,-0.069152,0.044778,0.43615,-0.1402,0.019501,-0.29758,-0.077573],[0.20869,0.18533,0.10697,-0.014899,0.17953,0.011351,0.038229,0.2409,0.023124,0.043999,-0.05334,0.12683,-0.080712,-0.090782,-0.16156,0.053033,-0.028498,-0.17534,0.30918,0.14918,0.10241,0.2524,-0.042962,0.06601,0.011604,0.088538,0.17607,0.079563],[-0.064186,-0.079792,-0.043269,0.047127,-0.1829,-0.089189,-0.087869,-0.093508,0.2693,-0.10965,0.01314,-0.035707,0.10426,0.054528,-0.0077711,0.029782,-0.064138,-0.057276,0.50849,-0.23667,-0.10758,0.34853,-0.16758,-0.062784,0.00011314,-0.026196,0.097129,-0.022973],[-0.32363,-0.25681,-0.067294,-0.042451,-0.41675,0.0040999,0.086529,0.098204,0.095238,-0.23771,0.016057,-0.080002,0.043706,0.047175,0.26371,-0.26293,-0.12286,-0.12109,0.14527,0.059801,0.14114,-0.1945,-0.020756,-0.11413,0.11824,0.17862,0.13463,0.082511],[-0.058345,-0.02324,-0.16642,0.052384,-0.16169,0.20966,-0.11609,0.1199,-0.27499,0.063405,0.14904,-0.091595,0.067604,-0.033286,-0.0080578,0.031584,-0.045169,-0.16963,-0.15019,-0.063748,-0.11965,0.062806,0.071012,-0.094138,0.028681,0.070436,0.28621,0.10863],[0.046361,0.00050132,0.052101,-0.034044,0.087625,-0.13854,0.093566,0.1053,-0.055401,-0.08916,0.078101,0.21711,0.078084,0.11419,0.12013,0.22304,-0.045474,0.35434,0.27084,0.10988,0.15403,0.21552,-0.038267,0.016654,0.075341,0.047321,0.28156,-0.090464],[0.21314,0.097034,0.20169,-0.18874,-0.15979,0.0018796,-0.063704,-0.18405,-0.19684,0.10168,0.1599,0.35613,-0.014565,0.0053646,0.10599,0.017227,-0.25711,-0.076101,-0.043676,-0.15486,0.023562,-0.058273,0.073821,-0.29824,-0.29681,0.079641,0.27734,0.043608],[0.04997,-0.1524,0.26851,0.19415,-0.036054,-0.28025,0.088575,-0.037147,-0.25028,0.178,0.067826,0.23821,0.080204,-0.23124,-0.039361,0.19854,0.064899,0.0081641,0.27282,0.14399,0.12257,-0.059726,0.1412,0.093265,0.043875,-0.020801,0.0015717,0.065981],[-0.061938,0.014186,0.16572,0.0085072,-0.29446,0.12614,0.18774,0.078225,-0.15411,0.34099,0.11661,0.094859,0.039081,0.26475,0.26889,0.25996,-0.12389,0.049806,0.37369,-0.058754,-0.047283,0.063308,0.12075,0.08945,-0.09653,-0.013648,0.062542,0.074147],[0.043918,0.067599,-0.31112,0.053807,0.083957,0.084285,-0.044491,-0.1497,-0.24328,0.38756,0.17189,0.054996,0.1286,0.15622,-0.079762,0.13107,0.15868,-0.0025747,0.084452,0.1881,0.24261,0.084846,-0.11256,-0.036604,-0.040397,0.10681,-0.18064,-0.18487],[-0.25575,-0.036595,0.066638,-0.099943,-0.15695,-0.013749,-0.067446,0.021894,-0.13959,0.030448,0.053362,0.1753,0.080715,0.11118,-0.034525,0.13017,-0.24453,0.082038,-0.032458,-0.24141,0.009668,0.12171,0.063272,0.16012,0.078737,-0.085548,0.11216,-0.0058556],[0.18557,0.17204,0.15417,-0.058706,-0.087758,-0.08603,-0.039556,0.047385,0.098701,0.087865,-0.16225,-0.015929,-0.037538,0.1423,-0.04602,-0.27784,0.17743,-0.20553,-0.019824,0.053313,0.022334,-0.11042,0.14777,0.21671,-0.037255,-0.20821,-0.2937,0.1358],[0.040057,-0.032547,-0.18246,-0.021388,0.12327,-0.11854,0.097423,-0.18601,0.11623,-0.057219,-0.47094,-0.29465,-0.23424,-0.025805,0.019506,0.018603,0.12782,-0.2107,-0.24576,0.21629,0.11182,0.0081726,-0.15515,-0.27588,0.39854,0.059134,0.094985,0.010253],[0.058093,-0.27401,-0.051134,-0.23759,0.29993,0.057975,-0.044871,-0.062189,-0.074414,-0.056598,-0.10903,0.16408,-0.088917,-0.31551,0.21969,0.12467,0.14025,-0.067127,0.10611,0.20293,0.075967,0.054407,0.11834,0.24312,-0.10416,0.094152,0.030861,0.0094676],[-0.096088,0.031117,0.089271,-0.061499,0.30774,-0.026856,0.044531,-0.13325,-0.0017318,0.23369,0.023044,0.31331,-0.15691,-0.03101,0.0065601,0.19167,-0.0543,0.20779,0.14416,0.10582,-0.022474,-0.026654,0.017346,0.36355,-0.034778,-0.17129,-0.24957,-0.0018005],[-0.027131,0.03119,0.046165,-0.29224,0.19137,-0.097041,-0.19896,0.16498,-0.10244,0.015718,-0.19623,0.025701,-0.16844,0.027595,0.16414,-0.018559,-0.073439,0.11782,0.3257,-0.093238,-0.31684,0.2765,0.37503,-0.10553,0.12976,-0.015049,-0.03156,0.057267],[0.15522,0.072316,0.085832,-0.12082,-0.038492,0.14364,-0.041891,0.24057,-0.27459,-0.010001,0.37363,0.39902,-0.064735,0.25058,0.14767,0.12934,0.2851,-0.010681,0.28201,0.02917,0.14303,0.05066,-0.065883,0.017937,-0.1313,-0.025325,0.17086,-0.059319],[-0.033347,-0.12669,-0.055356,0.3344,0.04626,-0.027568,0.14399,-0.027309,-0.10973,-0.19396,0.34061,-0.039327,0.14687,0.17972,0.094134,0.34582,0.11226,-0.10882,-0.13125,0.33321,0.24673,-0.27532,0.10301,-0.03678,0.039021,-0.18008,0.17344,0.10221],[0.19252,0.18883,0.2112,0.13801,0.083015,-0.082032,-0.19436,-0.068958,-0.041019,0.22734,-0.085794,-0.19313,-0.049499,-0.19365,-0.086037,0.15445,0.36189,-0.0033452,-0.059973,0.014386,0.0064504,0.15147,-0.058533,-0.014462,-0.21286,0.15271,0.06546,-0.12033],[0.10709,-0.28756,-0.00024957,-0.0044123,-0.23108,0.022326,0.0078414,0.060882,0.12112,0.0346,-0.15191,-0.14592,-0.027539,-0.10718,0.14979,-0.14609,-0.14922,-0.097143,0.09353,0.054633,-0.030602,-0.23302,-0.1129,-0.032025,-0.35577,0.12664,0.17178,-0.022531],[0.13529,-0.21111,0.035321,-0.088612,-0.0054528,-0.31492,0.29672,0.088098,0.025078,0.24218,-0.028785,-0.022517,0.14413,-0.10976,0.2078,0.026116,-0.20538,-0.12535,0.032113,-0.10374,-0.064471,-0.003547,0.045372,-0.059487,0.25248,-0.0096022,-0.037351,0.23036],[0.038517,-0.17637,-0.049737,0.1251,0.14021,0.034101,0.049867,0.25738,-0.21129,-0.12562,-0.0098869,-0.073978,-0.037175,0.053664,0.03485,-0.092267,0.032442,-0.092057,-0.065131,-0.15597,0.12928,0.056174,-0.12776,-0.14401,-0.07987,0.21481,0.19715,0.083626],[0.15687,0.019761,-0.085473,0.12301,-0.22834,0.073588,-0.003509,-0.1573,0.098116,0.28955,-0.09499,-0.087299,0.021421,-0.19347,-0.21057,0.0073847,0.27466,0.19024,-0.08624,0.076446,0.1245,0.026506,-0.38545,-0.025776,-0.2729,0.080975,-0.12132,0.028023],[0.11395,-0.2844,-0.24028,0.48983,-0.066824,0.074626,0.25583,0.16914,-0.21301,-0.033743,-0.025595,-0.12731,-0.051317,-0.004932,-0.23134,-0.2731,0.14167,0.23548,0.22979,0.022289,-0.19229,-0.1457,-0.051175,-0.079835,-0.21179,0.09149,0.10425,0.040535],[-0.23547,0.064941,0.054559,-0.08346,-0.03846,-0.026672,-0.071182,-0.043058,0.093207,-0.077451,-0.14433,-0.021802,0.041115,-0.13772,-0.077955,-0.085392,-0.059152,-0.037209,-0.18407,0.076018,-0.073835,-0.052501,0.2172,0.048832,0.18833,0.011747,0.0076679,0.17737],[0.086522,-0.37279,0.081741,0.25285,0.13923,-0.11869,-0.056765,-0.093226,-0.29124,-0.089181,0.11396,0.14146,0.19258,-0.4149,-0.084806,0.010135,0.19743,0.11728,-0.114,0.051188,0.026932,-0.12866,0.1258,0.15803,0.072703,-0.26136,0.042274,0.0060671],[0.15318,0.19742,0.37972,0.072437,-0.19408,-0.031821,0.26729,-0.036863,0.35386,-0.13266,0.047457,-0.27274,0.090327,-0.19339,-0.14009,0.024219,-0.034441,-0.12898,0.010155,0.21541,-0.059802,-0.17927,-0.11736,-0.15254,-0.12669,0.22095,0.12857,-0.11254],[-0.051307,-0.022914,-0.17054,-0.084446,0.1409,-0.019444,-0.09073,0.069164,-0.048754,-0.070081,-0.0075803,0.18752,0.0063813,-0.058156,0.20401,-0.13589,-0.11753,-0.30947,0.055769,0.10838,0.062852,0.0025312,0.086231,-0.11466,0.0033542,0.13572,0.36988,0.026012],[0.12017,0.17499,-0.2263,0.35193,0.078003,-0.40741,-0.034028,0.057142,0.044708,0.26711,-0.15485,-0.058817,0.1263,0.020894,-0.12317,0.14683,-0.15455,0.19656,-0.29239,-0.13716,0.032135,-0.12788,-0.052291,0.039047,0.24637,-0.057599,0.063178,-0.0821],[-0.11275,0.16022,0.078865,-0.0040805,-0.0092468,0.14765,0.064314,-0.0062147,0.40489,0.051804,-0.07585,-0.065147,-0.027221,-0.14619,0.004343,-0.19952,-0.084449,-0.26237,-0.00064356,-0.088703,-0.078795,-0.18309,0.32749,-0.016893,-0.15229,-0.074383,-0.1779,0.087217],[0.23467,-0.070025,0.21314,-0.052232,0.025003,-0.068886,0.0037501,-0.10897,0.061675,-0.047815,0.16361,-0.060482,-0.010851,-0.059674,0.24236,-0.02958,0.039447,0.13069,0.1056,-0.26365,-0.19737,-0.084805,0.15935,-0.19057,0.059348,0.015478,0.32026,0.057571],[0.051618,-0.12296,0.023196,-0.0040992,0.11553,0.12445,0.0034308,-0.0093965,-0.24931,-0.43939,0.18852,0.038574,-0.021551,-0.055504,-0.10105,-0.22884,-0.2127,0.0081906,-0.13578,0.1451,0.017927,-0.03294,0.025285,-0.099147,0.25821,0.14145,0.25003,0.001627],[0.090035,0.086712,0.0098587,-0.24594,0.22739,-0.043385,-0.11855,-0.068149,-0.0421,-0.045526,-0.13054,0.061132,-0.11142,0.054276,0.1028,0.2453,-0.092039,-0.059572,0.1111,0.44148,0.046312,-0.061663,0.034572,-0.249,0.072509,0.11324,-0.23001,-0.09174],[-0.0043663,0.11173,0.14125,-0.017592,-0.10681,-0.045046,-0.0050219,-0.01769,0.082308,0.027878,-0.051813,-0.070614,0.02052,-0.030177,-0.19587,-0.15119,0.41115,-0.050764,-0.19596,-0.1954,-0.14707,-0.02233,0.074204,0.070171,-0.196,-0.030836,-0.11916,0.0032218],[0.33905,0.24814,0.15423,0.14515,0.048843,-0.1921,0.11317,-0.24933,0.074617,-0.075209,0.033912,-0.040778,-0.09742,-0.10527,-0.089874,-0.14921,-0.053288,0.031771,-0.30466,-0.051204,0.20051,-0.033706,-0.24737,-0.27866,0.40361,-0.085074,-0.28018,0.15097],[0.054647,-0.062365,-0.11786,0.14647,0.26905,0.16192,0.026434,0.049617,0.080331,-0.026118,-0.046932,0.090235,-0.082253,0.13213,0.23149,0.090107,0.13604,-0.033302,-0.036381,-0.018492,0.031064,-0.040898,-0.13235,0.11817,0.16123,-0.22799,-0.027274,0.043327],[-0.37437,0.16955,-0.029364,-0.14703,-0.10901,0.34677,0.20427,0.26373,-0.11452,-0.1407,0.33881,-0.17381,-0.35882,0.14154,0.18963,-0.075205,-0.034759,0.23229,-0.11277,0.030513,0.00017077,-0.11645,0.039044,0.21602,0.020875,0.25401,0.10885,0.0069011]],"b2":[-0.014438,-0.012191,0.18738,0.090683,0.10988,-0.025875,0.36344,0.028881,0.083438,-0.028317,0.33001,0.034685,0.016868,0.0087577,0.20117,0.016001,0.038501,-0.015987,0.16377,0.088788,0.087607,-0.046406,0.3454,0.056833,0.0072122,0.03795,0.32398,0.070057],"meta":{"arch":"10-64-28","params":2524,"trained":1600}}