{"W1":[[0.00071984,-0.00024666,-0.0005468,0.00048557,0.0000040805,-0.00035191,-0.00047778,-0.00015502,0.00018136,0.00023371,-0.0001507,-0.000014128,0.000044129,0.00021894,-0.00014344,-0.00041627,0.000042148,0.00072739,-0.00013397,-0.00030349,-0.0005265,-0.00017413,0.00086481,-0.00055497,0.00052646,-0.00005675,-0.00038809,0.00018164,0.00042614,0.00013076,-0.00016978,-0.00063499,-0.00048032,-0.000077328,0.0000044032,-0.00038407,0.0010117,-0.000065733,0.000037735,0.00028545,-0.00015312,-0.00031462,0.00017285,-0.00011687,-0.00039505,-0.0007287,-0.000069194,-0.0010407,-0.00005641,0.00030168,-0.00010738,-0.00035715,0.00013053,-0.00038087,0.00012038,0.000090056,0.00019569,0.00019192,0.000028309,-0.000014912,0.00016033,0.00020826,0.00040321,-0.00019326],[-0.00029925,0.00042159,-0.00019929,0.000080929,0.00039167,0.000080576,-0.00015297,0.00030359,-0.00013314,-0.00005278,0.0001371,0.00029874,-0.00014598,0.0001264,0.00054494,0.00034548,-0.00023264,-0.000053685,0.00026094,0.00031556,-0.000075051,0.00014948,-0.00013939,-0.00012277,0.00048651,-0.00018369,-0.00036981,-0.00022953,-0.0002776,-0.00021521,-0.0000097098,-0.00024447,-0.000037084,-0.0000011192,-0.00002631,0.00058078,-0.0002456,0.00033852,0.00023423,-0.00025206,0.00035452,0.00073454,0.000080667,-0.000052414,0.0000030678,0.00035708,-0.000030866,0.00062866,-0.000034051,-0.000054537,0.00032844,0.00026036,-0.00045458,-0.00019509,-0.00019678,-0.00086129,-0.000025923,-0.0000857,0.00028682,0.00012983,-0.00024555,-0.000027868,0.00024381,0.00035626],[0.00037351,0.00017645,0.0010079,0.00012775,-0.000054677,0.000061137,0.000081161,0.00028052,0.00018375,-0.000095701,-0.00018086,-0.0000025372,-0.00048777,0.0002679,0.00036304,-0.000060433,-0.00072204,0.000054373,0.00017467,-0.00014509,0.0001496,0.00025447,-0.00062912,-0.00020412,-0.00021255,0.00014756,-0.00037496,0.00022357,-0.00010193,0.00014229,0.000165,-0.0000050781,0.000010224,-0.00013533,0.00017829,0.00018495,-0.000079062,0.000078833,0.00014321,-0.0002353,-0.00013383,-0.0000089237,0.00019001,0.00066659,-0.00025375,0.00024152,0.000068803,-0.000086779,0.00020586,-0.000069818,0.00032834,-0.00035296,0.000565,0.0002878,-0.00014525,-0.00011727,0.0004901,-0.0001574,0.00044761,-0.000081598,0.00027714,-0.000018213,-0.000085686,-0.000356],[0.00010731,0.000013502,-0.00091038,-0.00088177,0.00014335,0.00037778,0.000065976,0.00012069,-0.00013134,-0.0001674,0.00033858,0.00060217,-0.00022587,0.0004253,-0.000145,0.00025339,-0.00015474,0.00025038,-0.000016624,0.000114,0.0001114,-0.00021445,-0.00039567,-0.000071116,-0.0005934,0.00027835,-0.00024883,-0.00041313,-0.000061403,-0.00019825,-0.00035037,0.00019088,-0.00037073,0.0001579,0.000010627,0.00028622,-0.0007344,0.000073061,0.00017488,0.000019563,-0.00010372,-0.000010466,-0.00010794,-0.0001937,0.00014562,0.000070443,0.0003769,0.00009542,0.000023817,-0.00023334,0.00033361,0.00058124,0.00051285,0.000082598,0.00028088,-0.00065166,-0.00063213,0.00009544,-0.0005311,0.00042959,0.000013299,-0.00026801,0.00028411,0.00032021],[-0.00021991,-0.00012133,0.00013706,0.00028247,-0.00020792,0.000067859,-0.000091147,-0.000077242,-0.000081093,0.00052767,-0.00011262,0.000043354,0.00031869,0.00012221,0.00012545,0.0001879,0.00043958,-0.00045911,-0.00039368,0.00039496,-0.0000074236,-0.00030248,-0.00023571,0.00045277,0.00010314,0.00026525,-0.00010034,0.0003653,0.0002976,0.0004662,-0.00021062,-0.00029358,-0.00025069,-0.000019376,0.00064353,-1.9892e-7,0.000091322,0.000093176,0.00026126,0.000071674,0.000030875,-0.000034125,0.00028737,0.000033002,0.0006355,0.00037884,0.00042393,-0.00043818,0.00014473,0.00027006,0.00040212,0.00046822,-0.000038125,0.00034838,0.000045213,-0.000037158,0.00035171,-0.00018378,0.00024812,-0.000034704,0.000036119,0.000029326,-0.0002597,-0.00059508],[0.00014365,0.00048461,0.00068002,-0.00042418,0.00015704,0.00003804,-0.00014858,0.00012216,0.000027962,0.000272,-0.00027628,-0.00043839,0.00030476,0.00014433,-0.00040152,-0.00057261,0.00033541,0.00034697,0.0005108,0.00033732,0.000085478,0.000069279,0.00070984,0.000022018,0.00056737,-0.00035868,0.000084924,-0.000050301,0.00014788,-0.000044926,-0.00017076,0.00064862,-0.000091481,0.000050821,-0.00023768,0.00031314,-0.00028814,-0.00023191,-0.00065256,-0.00025042,0.0002791,0.00015464,0.000090432,-0.00044749,-0.00074928,-0.00021343,-0.00028059,-0.000044444,-0.0001045,0.000016856,-0.00016575,0.00023425,0.000011007,-0.000092796,-0.00072107,0.00082049,0.00013581,0.00047058,-0.0008643,0.000044009,0.00041502,0.00005001,-0.00055049,0.00057483],[-0.000095018,-0.00022118,0.000010849,-0.00060138,0.0004471,0.0003251,0.00060399,0.000030833,0.0000060045,-0.00015575,-0.000020099,-0.00043197,0.00021639,0.00013042,-0.00007912,-0.00058276,-0.00029789,-0.00068476,-0.00023783,-0.0001347,0.00057801,0.00026205,-0.00031515,0.0010583,0.00040244,-0.000061627,0.000060863,-0.00073996,0.00029112,-0.00021065,-0.000072715,0.000012824,0.00011784,0.00012879,-0.0000079515,0.00022608,-0.00043553,-0.000023983,0.000016765,0.00017028,-0.00047103,0.00010841,-0.00019987,0.00020446,-0.00058788,0.000081993,0.00047714,0.00041812,0.000045421,0.000077156,-0.0003927,-0.00065935,-0.00051775,0.0001571,-0.00022487,0.0004053,-0.0003609,-0.000055789,0.00053233,-0.0002599,-0.0005283,0.00055566,0.00014857,-0.000037904],[0.33132,1.5481,0.20284,0.023799,-1.8322,0.54339,-0.086183,0.75309,-1.5738,0.39917,-0.34777,-2.0477,-0.24208,-0.67843,0.30302,-0.42698,-0.18767,-0.16386,-0.034961,0.92317,-1.0976,-0.24824,0.090502,-0.58873,0.83209,2.489,-0.63757,-0.11471,0.033171,1.2823,1.4454,0.41252,0.95056,2.2823,0.17703,-2.2716,-1.4041,1.5354,-0.23562,0.76916,-0.23097,-0.91962,0.7186,1.2183,0.65087,0.29661,-1.5979,0.58349,-2.3036,1.3469,2.0496,0.18449,1.9714,1.4539,1.2082,0.12076,1.2209,1.513,2.0364,1.7074,2.1878,-0.95377,1.5294,0.44383],[0.39936,-1.7595,-4.4959,1.4924,1.4705,-0.1332,-0.78017,0.42856,-0.48238,1.2949,2.5841,-1.3085,-0.41845,-0.44516,-1.5146,0.076159,1.8421,-2.3248,-0.16127,-1.0987,1.4508,1.4826,-0.75323,-0.73956,1.0422,-2.0593,1.9867,-0.79224,2.2437,-2.4696,-1.2222,-1.1347,0.97792,-0.72599,0.23414,1.8205,-0.49385,0.55431,-0.40193,-0.59183,3.0071,-0.96539,-0.23208,0.63576,1.0687,0.12,0.91326,-1.1189,1.5063,0.5195,1.7597,-0.14935,-0.37145,-0.39282,1.4153,-0.21655,0.085495,1.7727,1.487,-1.9208,-1.3401,1.8125,-0.096855,-1.3778],[-0.58821,4.1561,2.5309,-0.29581,-1.765,-3.436,1.4548,-0.73709,-2.0991,1.346,-1.9022,-1.1686,-0.63514,-2.0079,2.2724,0.96871,-0.22266,-0.29627,-0.64239,0.66209,0.51826,0.65736,-0.059161,1.9649,1.3401,-1.311,0.011819,0.23568,-1.2018,1.778,1.0159,-0.88656,-0.197,1.5697,2.2315,1.6844,-1.3484,-0.42679,-0.13028,2.9574,-2.6237,0.19123,-1.0552,3.0795,-0.5202,-0.65095,0.47461,2.3887,-0.57264,-0.28184,0.50529,-1.95,-0.83841,-1.8892,-0.00013593,2.2155,3.4406,-1.0385,1.2102,0.20767,0.19088,-0.56326,-0.069993,0.62525],[0.00002392,0.0047335,0.0050366,0.0013076,-0.0021287,0.00096488,0.00097116,0.0036982,0.0015595,0.00088155,-0.00071093,-0.00057092,0.0027365,-0.0012149,-0.0010302,0.00013522,-0.0013135,0.00083185,0.0028148,0.0027638,-0.0034299,-0.0016761,-0.00075876,-0.0021431,0.00021749,-0.0017925,0.0011971,-0.00090013,0.0020672,0.0012031,-0.0029254,-0.0014625,0.0025526,0.0037777,-0.00075148,0.00045811,-0.00063444,0.0030718,0.0020441,-0.00037971,-0.000075705,-0.00046215,0.0023748,0.00084591,-0.0012726,0.0021308,-0.0062756,0.00052259,0.0024468,0.00038314,0.0043014,0.00021265,-0.0021916,-0.00020666,0.00026243,0.0010762,0.0018795,0.00082953,0.002329,0.0016984,0.0019689,-0.0016429,-0.00056583,-0.0041903]],"b1":[-1.2608,-2.9517,-1.1171,1.0493,-0.28776,-1.1029,-0.24599,-2.3421,0.5712,-1.7987,0.41806,1.4209,-0.4063,-1.6119,-0.33339,1.3902,1.2145,0.39936,-0.94278,-1.9997,0.2269,-0.055871,0.68727,-0.46871,-2.921,-0.095218,1.865,1.5629,-2.2574,-0.69404,1.5864,1.1167,0.50388,-1.8857,-1.2817,-1.9653,2.4406,-2.0514,-0.53876,-0.079657,0.28608,-0.56907,-1.7211,-1.5002,1.9347,-1.0773,0.17295,0.12705,-0.34741,-1.2359,-3.6007,-0.14641,-0.40114,-0.75103,0.60297,0.028256,-1.7425,-1.7255,-2.3609,-1.0608,-1.3678,-0.47057,-0.80093,0.86248],"W2":[[0.10653,0.022041,-0.055427,-0.02123,0.034397,-0.067017,-0.23432,-0.041115,-0.043372,0.059134,-0.11858,-0.077545,-0.25163,-0.072849,0.22952,-0.056646,0.070918,0.19672,0.068008,-0.14236,0.013928,0.28487,0.043925,0.12308,-0.28432,0.23428,0.12162,0.11104,0.043224,-0.16641,-0.055511,-0.16013,0.22109,-0.079713,0.35719,-0.0089733,-0.054945,0.028359,0.35091,0.074523,0.11743,0.16754,-0.050095,0.079609,0.030759,-0.016042,-0.079572,-0.23654,-0.0406],[0.15486,-0.032052,0.035499,-0.13407,-0.14385,0.3211,0.065633,-0.17535,-0.10725,-0.077961,-0.016309,0.013813,-0.12471,-0.16464,-0.068026,0.044174,-0.17313,-0.15234,0.1983,0.041796,0.026362,0.0025803,-0.02947,-0.07489,-0.28706,0.16154,-0.087389,0.15468,0.10975,-0.00037995,-0.14169,-0.17899,0.18487,-0.076536,0.16397,-0.086849,0.076083,-0.15438,-0.094689,0.1916,-0.092167,-0.072239,-0.11206,-0.029779,0.18767,0.08106,0.04208,-0.095619,-0.18271],[-0.029554,0.022906,0.33088,0.0062926,0.083371,0.034405,-0.12354,0.071753,0.29628,0.12252,0.018254,-0.026543,-0.013881,-0.0063698,0.059277,0.11445,0.12073,0.068739,-0.057514,0.13301,0.088322,-0.020038,-0.066601,0.12204,0.085363,-0.093579,0.34209,-0.015915,0.052879,0.0070483,0.0073038,0.10802,-0.21912,-0.049432,0.020847,0.088516,0.0058305,0.0096736,0.016586,0.11836,0.16367,0.0010599,0.091618,0.02135,0.087376,-0.34034,-0.093289,0.21847,0.072624],[-0.02862,-0.00041534,0.27898,0.15502,-0.058505,-0.4285,0.022219,0.11533,-0.20697,0.13092,-0.0093437,-0.20774,-0.055486,0.35075,0.10648,-0.14709,0.3402,0.16755,0.12801,-0.1584,0.036401,0.089214,0.13347,0.023471,0.17739,-0.073755,-0.18005,-0.27955,0.010938,-0.037142,0.34552,0.19502,-0.61672,-0.050191,-0.054044,-0.039311,-0.031517,0.028971,-0.082619,-0.11785,-0.15216,-0.1312,0.12065,0.08404,0.22035,-0.027291,0.043476,-0.06623,0.13932],[0.14885,0.039787,0.17351,-0.024205,0.1177,-0.31844,-0.15491,-0.037409,-0.32567,0.0052506,-0.081312,0.054046,-0.045102,-0.014884,0.061452,-0.038926,0.061127,0.085966,0.1355,0.13964,0.038117,-0.11499,0.020502,0.10502,0.058523,-0.10921,-0.20006,0.1653,0.1756,-0.068474,0.19036,-0.057854,0.095263,-0.046406,0.12878,0.15157,0.044788,0.19528,0.25095,0.0099727,0.27014,0.12328,0.074253,0.31687,-0.17246,0.032852,-0.092569,-0.1565,0.21],[-0.17691,0.092807,0.31547,0.0056883,-0.12886,-0.048353,-0.085608,0.21211,0.14867,0.1766,-0.11989,0.14563,0.17354,0.057386,-0.014262,-0.11968,0.21064,0.060963,-0.1755,0.52925,-0.099968,0.029031,-0.071377,0.13469,0.04016,-0.056595,-0.00082092,-0.14006,0.11073,0.033883,0.019631,0.10906,0.044036,0.19891,0.11934,0.19246,-0.004251,0.069843,0.38424,0.34359,0.11742,-0.069196,0.0019397,0.16875,0.065423,0.012653,0.05564,0.035751,-0.12778],[-0.11582,-0.058995,-0.23778,0.068206,-0.01253,0.0046474,-0.35714,0.34504,-0.46832,0.017147,-0.054769,0.11827,0.43519,0.37286,0.068722,0.20158,0.21762,-0.11365,-0.14827,0.17899,0.10815,-0.050121,0.098245,0.0151,0.21739,0.22997,0.1868,0.19396,0.16458,-0.0236,0.35618,0.25711,0.22577,-0.26053,-0.11824,-0.22412,-0.20363,0.03295,-0.11027,0.09278,0.0079923,0.1085,-0.10044,0.39319,-0.30706,0.002284,0.13783,-0.2632,0.29011],[0.071224,-0.046862,0.048335,-0.096855,0.36184,0.22702,0.079406,0.12344,0.0018359,0.086338,-0.16485,0.097131,-0.07691,-0.19469,0.14879,-0.032351,-0.14616,-0.011991,-0.11955,-0.14324,0.085556,0.25125,-0.074173,-0.12256,-0.12981,0.037164,0.10845,-0.054357,-0.13867,-0.084337,-0.054899,0.047995,-0.32154,-0.11419,-0.20342,-0.13318,0.10255,0.3623,-0.46057,0.014748,0.0027323,-0.067023,-0.11078,0.018017,0.038494,0.22029,-0.11997,-0.29045,0.11367],[0.24607,-0.033516,-0.052533,0.039302,0.22383,0.10676,0.15958,-0.083756,-0.07735,0.16485,-0.13244,0.04329,0.20028,0.36664,-0.10734,-0.099026,-0.029141,-0.16531,0.11329,0.080653,-0.14046,0.28035,-0.0073503,-0.23323,-0.075876,0.019097,0.019111,0.1491,0.13547,-0.21235,-0.011118,-0.014561,0.24367,-0.031273,-0.16082,-0.15828,0.1572,-0.3012,0.081699,-0.20343,-0.03611,0.12331,0.18988,-0.31764,0.26421,-0.23938,0.34239,0.19676,0.075081],[0.031712,-0.027043,0.18109,0.13957,0.31341,-0.074482,-0.0061172,0.023527,-0.024104,-0.22186,-0.13683,0.027361,0.09835,0.026025,0.20103,0.061886,-0.22608,0.083389,0.053678,0.02942,-0.10792,-0.25687,0.31704,-0.046756,0.013593,-0.022315,0.14306,-0.12486,-0.079455,-0.1419,-0.03023,-0.053095,0.0085093,0.26043,0.097456,-0.072859,0.031648,0.00085143,-0.14894,-0.11495,-0.258,-0.057073,0.047898,-0.017184,-0.071487,0.18545,-0.5134,-0.3279,0.12419],[-0.17693,0.30395,-0.43913,-0.012292,-0.10291,-0.23347,-0.093993,-0.13392,0.3214,-0.0533,0.11112,0.091772,-0.13317,-0.013617,0.094589,-0.05607,-0.20956,0.037439,-0.12213,0.024856,-0.12771,0.082124,0.11845,-0.19593,0.2084,-0.18017,-0.09077,-0.11043,0.093127,-0.1121,-0.018004,-0.11038,-0.13173,0.12718,0.15065,0.19891,0.16245,-0.20726,0.012608,-0.10519,0.13076,-0.082173,-0.080602,0.093861,-0.052858,0.20328,0.22163,0.0051264,-0.075407],[-0.19786,0.12383,-0.064067,-0.089377,-0.041746,0.14482,0.001278,0.030385,0.18984,-0.11266,-0.14301,0.2056,0.20836,-0.22058,0.066115,-0.13851,-0.18892,-0.093649,0.19121,0.17051,0.090225,0.08052,0.013607,-0.13129,0.08789,0.30498,0.21491,-0.053749,-0.06629,-0.16718,-0.20555,-0.085033,-0.12676,-0.056176,-0.010242,0.02404,-0.16851,-0.1382,-0.24097,0.13347,0.14429,0.088667,0.11847,0.16354,-0.29665,-0.043988,0.29982,-0.003221,-0.037806],[-0.095826,-0.10942,-0.13416,0.069332,-0.26014,0.28526,0.037201,-0.094758,0.073102,-0.082836,-0.071365,0.22478,0.13671,-0.052059,0.076412,-0.13319,0.010498,0.30659,0.12242,0.13899,-0.00037465,0.06372,-0.016468,0.42551,0.010419,0.084345,0.048906,0.06123,0.19667,-0.10573,0.24348,-0.23542,-0.01514,-0.12687,0.28596,-0.025081,0.020695,0.36857,-0.02961,0.14399,0.2197,0.12978,-0.083734,-0.13842,0.018982,0.44839,0.050968,0.10881,-0.13303],[-0.051901,-0.13582,-0.017426,0.13908,-0.083338,-0.025669,0.23608,-0.10667,0.12424,-0.067252,0.14075,-0.024868,-0.012647,0.0030056,-0.052394,0.24076,0.033716,-0.12955,-0.081642,0.088846,0.14509,-0.030002,0.21449,0.083802,0.11959,-0.047457,-0.025285,0.094701,-0.1726,0.13124,0.062644,0.013706,-0.036797,-0.2171,-0.063213,0.0066721,0.055885,0.10429,-0.077093,-0.037564,-0.037667,-0.19119,-0.07288,-0.28697,-0.16231,-0.12338,0.025134,0.25517,-0.10883],[0.20182,-0.32877,-0.065736,0.12454,0.10111,0.085119,0.21646,-0.26633,-0.28229,-0.043144,-0.086966,0.07142,0.14907,0.092615,0.20084,0.13214,-0.30475,0.19672,-0.16201,0.14879,-0.074864,-0.095315,0.28718,0.31286,-0.015307,0.037312,-0.051874,0.065157,-0.08904,-0.029803,0.018109,-0.27759,0.012862,-0.16365,-0.060972,0.092618,-0.078756,-0.014091,0.051907,-0.034306,-0.14991,0.067864,-0.038105,0.18047,-0.18423,0.047343,-0.08615,0.065485,-0.22409],[0.023319,-0.097739,-0.29563,0.01176,0.0069858,-0.01791,-0.016992,0.037782,0.068476,0.07553,-0.085363,0.12279,-0.14317,0.14176,0.15366,0.10051,0.22198,-0.093696,0.1847,0.022153,-0.15445,-0.071084,-0.091663,0.041027,-0.082395,-0.0036906,-0.075027,0.012819,-0.022818,-0.023852,0.11016,0.1453,-0.084137,0.069356,-0.2043,-0.15525,-0.01744,0.22249,0.015139,-0.35555,0.19012,0.043474,0.1282,0.11421,0.26608,0.069653,0.064234,-0.02952,-0.13357],[-0.071444,-0.057451,-0.13967,-0.19624,-0.30894,-0.0035892,-0.11599,-0.16702,-0.10598,0.11712,-0.085125,0.11468,-0.086551,0.10311,0.13633,-0.13393,0.064357,-0.17567,0.1086,0.017466,-0.18505,0.1712,-0.0682,-0.091924,0.10162,-0.033039,0.32633,0.12169,-0.26096,-0.0011561,0.035881,-0.04845,0.041757,-0.28871,-0.10691,-0.080816,0.082458,-0.030101,0.14879,0.020348,0.14505,-0.017389,-0.11474,0.092557,-0.11694,-0.0024348,-0.10948,-0.01392,0.023372],[-0.06407,-0.051515,-0.14526,-0.19052,0.29478,0.17314,0.063968,0.12861,-0.26031,-0.1075,0.12593,0.15837,0.4265,0.17468,0.058734,0.022294,-0.10749,0.19493,-0.039618,0.066744,-0.11716,-0.15972,-0.022374,-0.088649,0.073256,0.061176,0.3066,-0.091417,-0.027366,0.00093127,-0.11049,0.16216,-0.056754,0.3383,-0.1518,-0.14111,-0.046781,0.11197,-0.084374,-0.047773,0.049923,0.011138,0.069236,-0.085404,-0.15898,0.12873,0.092738,-0.071054,0.088955],[0.025796,0.015009,-0.12384,0.033498,-0.20038,-0.43334,-0.033253,-0.057085,0.11693,0.21957,0.16313,-0.095941,-0.090788,0.29617,0.031724,0.0024472,0.24416,0.016132,-0.11757,0.11111,-0.24239,0.037384,-0.12694,0.15025,0.034961,0.029634,-0.29843,-0.15405,0.022891,0.15197,0.043408,0.025647,0.12965,0.10292,0.02823,0.31552,0.15011,0.044756,0.47516,0.029415,-0.27533,-0.18336,0.070118,-0.0045392,-0.027788,0.20456,0.3272,-0.10869,-0.012877],[0.35576,0.14646,-0.25121,0.1138,-0.042931,0.0096627,-0.043674,-0.076458,0.1216,-0.014129,0.1099,-0.085972,0.10762,-0.010029,0.093531,-0.068997,0.012707,0.21908,0.17442,-0.2715,0.42116,-0.094443,-0.23975,0.17226,0.034465,-0.41951,-0.28322,-0.21632,-0.044273,-0.063379,-0.0091716,0.11987,0.16087,-0.16193,-0.042855,-0.11403,-0.16903,-0.30402,-0.32073,-0.042436,0.16814,0.10794,0.14405,0.13838,0.25712,-0.080364,0.020518,-0.083408,-0.3276],[0.16564,-0.35011,-0.14136,-0.11478,-0.04632,0.26163,0.27975,-0.023174,-0.18965,-0.058246,-0.13844,-0.041209,-0.011417,0.17594,-0.17813,-0.043118,0.23596,0.039618,0.10819,0.05562,-0.1611,-0.18179,0.082902,0.13727,-0.062329,0.37368,0.23322,0.061146,-0.12403,-0.091914,-0.028094,-0.14412,-0.0068356,0.11347,-0.063698,-0.15103,0.15442,0.082128,0.061195,-0.14125,-0.29942,0.13975,0.081385,-0.070354,-0.19476,-0.0014318,0.087171,-0.026412,0.20316],[0.16265,0.21566,0.25238,0.2255,0.018387,0.0032451,-0.21938,0.11963,-0.13298,-0.12168,0.21551,0.26463,0.1349,-0.28994,0.134,-0.0073742,0.049834,-0.0059643,0.018241,0.20962,0.15268,-0.084852,-0.085869,0.18167,-0.13851,0.098024,-0.049232,-0.104,-0.011411,-0.10008,0.031693,0.038133,0.18242,-0.19907,0.14928,0.23736,-0.19469,-0.058789,-0.027411,0.17228,0.04461,-0.23039,0.076545,0.08092,0.33982,0.014223,0.30934,-0.24905,-0.24788],[0.13685,-0.043001,-0.02286,-0.0087717,-0.27004,0.11582,0.059369,0.011464,0.051973,-0.23966,-0.092482,-0.38649,-0.0070722,-0.17476,0.1088,0.052511,0.32535,-0.11287,0.24217,0.12403,0.025816,-0.043334,-0.024159,0.038174,0.12311,0.044968,-0.0072912,-0.039024,0.041564,0.12897,0.16841,-0.157,-0.15075,0.070057,0.43241,-0.054931,-0.052481,-0.095077,0.020497,-0.34992,0.13056,-0.033789,0.31963,0.22342,0.17956,-0.30156,-0.093881,0.18473,0.032189],[0.037047,-0.3225,0.11291,-0.15853,-0.2464,-0.036192,-0.29635,-0.17369,0.24839,-0.076919,-0.29701,0.04669,-0.073685,-0.07377,0.34087,-0.053348,-0.17128,0.14456,0.10844,-0.21071,-0.15405,0.030008,-0.081254,-0.1379,0.13089,0.081687,0.33628,-0.20844,0.1156,0.069418,-0.21614,-0.090488,0.20779,0.071564,0.017375,0.095761,0.097857,-0.14043,0.070041,-0.083532,0.16154,-0.14711,0.17292,-0.0081344,0.10077,0.1565,-0.057257,0.021514,0.047571],[0.012203,0.12801,-0.074075,0.019318,-0.29349,0.12656,-0.096658,0.35523,0.035644,0.095559,0.045308,-0.02341,0.0036213,0.070432,-0.00076869,0.049716,0.089247,0.05167,0.23854,0.18149,0.21315,0.17594,-0.25739,-0.060608,0.22332,0.24521,-0.0011548,0.23633,0.12551,-0.087151,0.27692,-0.018031,-0.15372,0.13584,-0.2263,0.22422,-0.017621,-0.0046838,0.13922,-0.11261,-0.014654,-0.1382,0.046139,0.081341,0.016569,0.074256,0.22691,0.28268,0.12146],[-0.030159,-0.19925,0.078946,-0.086322,-0.083948,-0.30852,-0.039037,-0.073889,0.2395,0.19455,0.035339,0.067117,0.036148,-0.13337,0.031061,0.055985,0.11481,0.041643,-0.00052342,0.26046,0.11676,0.22905,0.18821,-0.051657,0.15167,-0.25297,0.22168,0.078808,0.23459,-0.011104,0.25887,-0.072444,0.065443,-0.035055,0.10993,0.079342,-0.16309,0.28029,-0.11799,-0.142,0.067682,0.035559,0.27004,-0.027664,-0.040865,-0.3256,0.32312,0.1667,-0.068405],[-0.12787,-0.22105,0.10307,0.028638,0.32138,0.089688,-0.0045731,0.05291,0.095762,0.079501,0.078052,0.10662,-0.129,-0.17815,-0.158,0.056697,-0.081736,0.024729,-0.078014,-0.027229,0.057052,-0.14543,0.090335,-0.030584,-0.0089579,0.25479,-0.041182,0.18379,0.36329,0.11678,0.020524,-0.045846,0.30731,0.16832,0.13709,0.14101,-0.021966,0.040889,-0.012234,0.11835,-0.051384,-0.061238,-0.015073,-0.079364,-0.14711,-0.22233,0.04374,0.12587,-0.021542],[0.33491,-0.038093,0.183,0.17698,-0.084433,0.015982,0.0099862,0.040854,-0.097557,-0.0011316,0.20981,0.070596,0.20386,-0.26078,0.023678,-0.084714,-0.18076,0.13291,-0.13138,-0.082708,-0.061608,0.092029,-0.01685,-0.16101,0.2842,-0.05854,-0.015268,-0.0489,0.15812,-0.13851,-0.14213,-0.20064,0.13902,0.37188,0.16392,0.052768,-0.014972,0.2655,-0.14052,0.11707,0.14353,-0.020683,-0.060001,-0.086472,0.34204,0.29233,0.084217,0.19007,-0.15885],[0.091833,-0.14216,-0.43307,-0.054784,0.062271,0.19385,-0.090597,-0.36358,-0.020501,-0.089409,0.14551,-0.097292,-0.038894,0.2027,-0.038735,-0.083372,0.1399,-0.022649,-0.22073,0.27895,0.034578,0.18402,0.098956,-0.27312,-0.051634,0.16274,0.18664,0.24268,-0.16988,0.045823,-0.14041,-0.095228,-0.14762,0.013808,0.25892,-0.10461,-0.011232,-0.070235,-0.17035,-0.24514,0.043106,-0.11305,-0.016404,0.12652,-0.1077,-0.017502,0.093166,-0.040495,0.18631],[0.011465,0.15128,-0.24879,0.28139,0.30944,-0.090963,-0.024359,0.16238,0.078809,-0.11066,-0.063311,-0.018824,-0.14962,-0.12644,-0.18993,-0.088482,0.29678,-0.01696,0.10612,-0.31945,0.064353,0.024877,-0.053842,-0.069657,-0.033097,0.0553,0.045831,0.057203,-0.16267,0.10049,0.1477,-0.044465,0.39768,0.11715,-0.22335,0.42375,0.2647,0.12146,0.15302,-0.14626,0.17214,0.0019365,-0.19285,0.024269,-0.19322,0.15673,-0.074259,0.03935,0.15493],[-0.29966,0.024855,0.3668,-0.051918,0.06638,0.12353,0.12679,-0.074039,0.063908,0.2217,-0.10131,-0.16516,-0.0075963,0.076841,-0.12185,0.21155,0.091651,0.095796,0.066205,0.2631,0.14862,0.031784,0.094451,0.02192,-0.26215,-0.03426,0.11301,-0.072441,0.16958,0.10669,0.22413,0.15733,0.0012586,-0.15008,0.013031,-0.090377,0.020469,0.072587,0.0673,0.094527,0.0080676,0.017093,-0.059225,0.023359,0.068707,-0.07276,0.094396,0.11952,-0.16998],[0.1003,-0.10592,-0.006576,0.088436,0.10443,0.37561,-0.027021,-0.21765,-0.34101,-0.18581,-0.080365,0.23791,-0.11276,-0.073188,-0.022877,-0.19172,-0.33027,0.07188,0.2374,0.053273,-0.10621,-0.10258,0.035128,-0.27486,0.054041,0.11422,0.051641,-0.25594,-0.19825,0.23239,-0.23749,0.020569,0.062784,0.073109,0.079252,-0.20838,-0.0062295,-0.34567,0.032457,0.34644,0.087097,-0.22312,-0.054669,-0.14461,0.13283,-0.074139,0.079027,-0.035289,-0.1351],[0.10465,0.16417,0.093405,-0.081549,-0.18687,0.050536,0.049663,-0.14673,0.000023519,-0.006719,-0.06295,0.073767,-0.15088,-0.37589,-0.014537,-0.099057,0.097922,-0.17418,0.075054,-0.089181,-0.084679,0.020363,-0.05883,0.17745,-0.078159,-0.038566,0.062217,-0.024314,-0.28991,-0.083735,-0.03548,0.034088,0.052876,-0.24743,-0.12109,0.04575,0.20404,-0.055639,0.070939,0.013588,-0.009085,0.11885,-0.016745,0.14993,0.0020667,0.019432,-0.065646,-0.18022,0.066974],[0.0058449,-0.015485,0.084197,0.12672,-0.056099,0.14207,-0.20995,-0.15606,0.1242,-0.060594,-0.097697,-0.12724,0.18975,0.035174,-0.084098,-0.045072,-0.099976,-0.099346,-0.023615,0.33529,-0.17738,-0.24339,0.27791,-0.32206,0.18788,-0.19052,0.31272,0.088911,0.034708,-0.090623,-0.25271,-0.22324,-0.16398,0.15708,-0.16879,0.059796,-0.1127,-0.052331,-0.013263,-0.24723,0.065938,-0.035056,0.0563,0.15649,-0.15599,-0.13425,-0.27973,0.13503,-0.32086],[-0.021504,0.17651,0.29209,0.031474,0.082059,-0.070943,-0.091424,-0.048217,-0.5052,-0.1945,-0.063794,-0.1219,-0.067962,0.03949,-0.21939,0.059916,-0.22487,-0.2017,-0.18897,0.20809,-0.087248,-0.031398,0.093348,-0.49408,0.0053379,-0.30017,-0.39299,-0.055393,-0.026155,0.10713,0.071121,-0.072204,-0.13622,0.019223,0.17016,-0.072765,-0.09223,-0.16589,0.070107,-0.24004,-0.19687,0.042412,-0.0052016,0.18469,-0.25072,-0.077552,-0.097518,-0.01707,0.020813],[-0.19054,0.046547,-0.19279,0.0091509,0.03416,-0.37271,0.091542,0.15701,0.18393,0.15329,0.16756,0.05896,-0.053147,-0.018487,0.047067,-0.10503,0.11912,-0.0081776,-0.13313,-0.39075,-0.17037,-0.27382,-0.12097,0.08676,0.088787,-0.29157,-0.26049,-0.2814,0.10291,0.017997,-0.074272,0.1217,0.05422,-0.14894,-0.3092,0.061994,-0.074317,0.003347,-0.090478,0.11101,0.04275,0.11094,-0.18528,-0.152,0.11827,-0.019301,0.12301,-0.15046,-0.18027],[0.058963,0.16119,-0.010883,0.016823,-0.0063128,0.093251,-0.071123,0.064917,0.043498,0.3256,0.13959,-0.041917,0.10592,0.086846,-0.0035646,0.098118,0.3474,0.11805,0.14724,0.20486,0.067531,-0.039853,0.043301,0.26609,-0.082179,0.0035423,0.1047,-0.1081,-0.10506,0.053255,0.19141,0.11523,0.34536,0.1064,0.044242,0.17817,0.095092,0.21147,0.17588,0.2068,0.14266,0.21165,-0.15345,-0.043576,0.050414,0.16648,0.0038722,0.053141,0.11198],[-0.16862,-0.015364,0.050394,-0.072972,0.0038626,-0.19053,0.17818,0.28684,-0.019817,-0.28146,0.30583,0.018096,-0.1094,-0.13994,-0.14,0.37665,0.00094759,0.15173,-0.0053138,-0.037956,-0.1216,0.10591,-0.12514,-0.29673,-0.17014,0.11435,0.25615,-0.17501,-0.080919,0.049243,0.11266,0.089975,-0.12364,0.0050815,-0.017558,0.080196,0.035257,-0.20931,0.066762,-0.21709,-0.14415,-0.0020399,-0.36418,-0.31374,-0.12342,0.060911,0.14598,-0.095158,0.084283],[0.069126,-0.14262,0.19803,0.14907,0.022631,0.2874,0.16871,-0.03819,-0.32543,0.41372,0.13421,-0.24896,-0.19814,-0.17514,-0.021317,0.029719,0.24741,-0.40041,-0.19181,0.36188,-0.0043124,-0.12848,0.13932,0.13922,0.055091,0.016646,-0.15523,0.074935,0.056493,0.1206,0.21865,0.023535,0.026327,0.47228,0.2269,0.15136,-0.16383,0.29173,0.1388,-0.12178,0.11606,0.051331,0.074504,0.19894,0.22758,0.039334,0.22903,-0.0019735,-0.20479],[-0.088307,-0.053246,0.087116,-0.15131,0.077901,-0.030927,-0.10039,-0.054508,0.021599,-0.0023353,0.015444,0.09323,0.02006,-0.24694,-0.29706,0.086515,0.11863,0.27,0.21001,-0.031599,0.19964,0.076714,-0.049189,-0.058551,0.27197,-0.20782,0.013605,-0.1746,-0.04615,-0.13644,-0.053794,0.22889,0.043886,0.16968,-0.0094583,0.022151,-0.0018798,0.070577,-0.044128,-0.014226,-0.023458,0.063147,-0.0040303,-0.12178,0.019097,-0.012923,-0.1188,0.01996,0.13841],[0.041658,0.0078797,0.23596,0.059377,0.025616,0.11008,0.038003,0.0031199,0.11193,0.091932,-0.25205,-0.195,0.12638,-0.18819,-0.013419,0.12062,0.10284,0.093271,0.22428,0.14192,0.078815,0.087725,0.0025586,-0.10349,-0.06466,-0.091247,0.057323,-0.18087,0.03844,0.020197,-0.1484,0.031475,0.050932,0.13737,-0.22054,-0.19528,-0.13781,0.26971,-0.17021,-0.075777,0.19736,0.03637,0.07849,-0.37341,0.23111,-0.089545,-0.13602,0.055838,-0.15119],[-0.11969,0.19338,0.092147,-0.062075,0.018079,-0.091601,0.011728,-0.067909,0.4225,0.080856,-0.19085,-0.07943,-0.073424,-0.17062,-0.31399,-0.030082,0.07608,-0.20073,0.2091,-0.031958,-0.20199,0.29015,0.10533,-0.10599,-0.13045,0.17803,0.23334,-0.22604,-0.10453,0.041637,-0.40733,0.18668,0.14915,-0.16222,0.10124,-0.26335,0.063401,-0.093907,-0.062421,0.14578,-0.24943,0.1598,0.14053,-0.1343,0.047513,-0.098276,-0.1275,-0.14149,-0.10851],[-0.021839,0.0563,-0.16428,-0.16707,-0.071852,0.12141,0.11449,0.073574,-0.23781,-0.24483,-0.039913,-0.12038,0.33995,-0.094923,0.046439,0.028068,0.0051744,-0.19733,-0.21957,-0.099961,-0.26665,-0.19854,-0.07541,-0.14108,-0.22506,-0.012774,-0.11166,-0.048427,0.066382,-0.10256,-0.073201,0.01427,0.23147,0.42317,0.065282,-0.30713,0.020129,0.21766,0.20029,0.015424,0.038378,0.075481,0.016248,-0.16042,0.11359,-0.021428,-0.034556,-0.10373,0.16037],[-0.29263,0.03147,-0.15537,0.19373,-0.0053857,0.2562,0.20444,-0.036275,0.2534,-0.058928,0.22212,-0.13674,0.12237,0.093629,0.0022987,-0.0066076,0.093151,-0.12111,-0.23017,-0.05893,0.17211,0.045595,-0.22445,-0.11917,-0.17902,-0.1653,0.005131,0.10107,0.03379,-0.078584,0.28829,0.19199,-0.11854,0.15072,0.25499,-0.15696,0.21115,0.29678,0.0017216,-0.13657,0.069096,-0.064303,0.12174,0.058062,0.068774,0.14647,0.14291,0.39931,0.19827],[0.030956,0.014384,0.35702,0.034889,0.37485,0.11964,0.13641,0.035529,0.0097474,-0.21082,0.14478,0.2201,0.28303,0.12191,0.072931,0.0513,0.17764,0.090303,-0.22503,-0.034494,0.1516,0.081826,-0.043151,0.46477,0.024823,0.035366,0.023246,0.39158,-0.069386,0.00027129,0.025853,0.086159,-0.055549,0.20346,0.062366,0.01666,-0.098254,0.1371,0.21317,0.27853,0.051641,-0.1981,0.16863,0.032062,0.041594,0.18258,0.040345,0.081527,0.16361],[0.064999,-0.21601,-0.0061605,-0.17864,-0.15738,-0.060905,0.08212,-0.01648,-0.19347,0.070305,0.23065,0.15345,0.20997,0.10749,0.36312,-0.090095,-0.031041,0.25988,0.15598,-0.14712,0.021235,0.18539,0.37353,0.2409,0.35249,0.29914,-0.25109,0.42816,-0.10344,0.22794,0.28529,0.053192,0.079752,0.10219,-0.072116,-0.24948,-0.25984,0.21007,0.080453,-0.31476,-0.29205,-0.12126,-0.02368,0.088651,0.12386,0.031666,0.0094091,-0.04638,-0.055679],[-0.0073424,0.20899,0.066313,0.056507,0.19381,0.071694,-0.058496,0.069002,0.20167,0.062219,0.05828,-0.052561,-0.073969,0.10682,-0.14183,0.08775,-0.09074,0.026072,0.086616,-0.056681,0.092255,0.14321,-0.074177,-0.14734,-0.026382,-0.12561,-0.050976,0.042755,0.085879,0.049171,0.15603,0.14795,-0.20287,-0.021045,0.011506,0.059894,0.051143,-0.069026,-0.26408,0.037479,-0.010958,-0.07278,-0.024201,0.023736,0.30472,-0.18085,-0.11958,0.10373,-0.1077],[0.23281,0.37408,-0.076803,-0.078759,-0.25773,-0.0054338,-0.1867,0.37628,0.23023,-0.024952,0.086654,-0.08714,-0.03775,0.07941,0.36913,-0.27393,-0.1385,-0.11418,0.1438,-0.19076,-0.20987,0.016719,-0.29036,-0.045972,0.17257,0.30953,-0.16413,-0.21848,0.050585,-0.25106,-0.11752,-0.0053694,-0.29037,0.31298,0.047236,0.095219,-0.019034,-0.40157,0.070115,0.21934,-0.016638,-0.14044,0.14118,-0.18609,0.25115,-0.18821,-0.023473,0.011203,-0.13339],[-0.17449,0.088179,0.19657,-0.030331,0.21769,-0.087855,-0.020559,0.2583,-0.016494,-0.31795,0.066333,0.2758,-0.19696,-0.1482,-0.14569,0.29687,-0.30236,0.0537,0.2502,-0.22135,0.15467,-0.16936,-0.20619,0.028182,-0.074858,0.25169,-0.069895,0.086187,-0.054829,0.14161,-0.10425,-0.0028286,0.068288,-0.13312,0.012112,0.052519,-0.03371,-0.079914,-0.030708,0.24948,-0.25059,-0.23321,-0.15129,0.28936,-0.0073483,0.14335,-0.10854,0.037883,-0.068292],[-0.048994,-0.10101,-0.20334,-0.2558,-0.10401,0.18652,0.0094624,-0.021497,-0.14281,-0.063804,0.1221,-0.050284,0.12286,-0.2003,0.061736,-0.0047123,0.12751,0.059717,-0.0053479,-0.15849,-0.29353,-0.13152,0.19937,-0.16641,-0.041625,0.013366,0.050401,-0.072047,0.26878,-0.083494,-0.026904,0.092263,-0.25723,0.22247,-0.018499,0.12167,0.18189,-0.16033,0.025785,-0.052448,0.21426,-0.041142,0.18543,0.2542,-0.023891,-0.25995,-0.056101,-0.097677,-0.40792],[-0.2643,0.22821,0.24472,0.012066,0.13272,-0.1412,-0.16472,-0.18338,-0.15637,-0.0042021,-0.18873,0.16097,-0.1613,0.11687,-0.30496,-0.20058,-0.42915,0.023675,-0.008593,-0.15098,-0.039197,-0.24394,0.10074,0.0091874,0.07445,-0.10107,0.21795,-0.0063682,0.080638,-0.052279,-0.16212,-0.13773,-0.076631,-0.24237,-0.028205,0.090609,-0.036717,-0.41629,-0.030662,0.11926,0.006504,0.24956,0.20365,0.084361,-0.10421,-0.20642,-0.05593,0.099905,0.31874],[0.086563,0.030933,0.015394,0.15138,0.26704,0.2032,-0.12462,-0.27539,-0.062201,0.096692,0.32594,-0.051496,-0.073277,-0.17126,-0.028578,-0.095461,0.11133,0.093826,-0.081748,-0.10648,0.017328,-0.10691,-0.091585,0.041898,-0.1081,0.059816,0.14225,-0.018113,-0.053732,-0.025359,0.10175,-0.034185,0.11505,0.15202,-0.12703,0.13031,0.021767,-0.056372,0.033441,0.23022,-0.11656,-0.02241,-0.13975,-0.058352,-0.07382,0.092753,0.079804,0.35807,0.2424],[0.17595,0.23575,-0.35102,-0.066893,-0.22451,0.13188,-0.18421,0.1362,-0.04438,-0.2534,0.050276,-0.19655,0.023878,-0.13635,0.031722,0.051764,0.16732,0.035371,0.041443,-0.22701,-0.11204,-0.2071,0.035087,0.087274,-0.08061,0.080966,-0.13178,0.16578,-0.11712,-0.11122,-0.043152,-0.22278,-0.021811,0.25389,-0.1331,0.1308,0.11806,-0.16449,-0.029028,-0.27156,-0.047661,0.023854,-0.053762,0.020542,0.015173,0.24391,-0.26522,-0.021854,0.0054944],[0.22638,-0.058854,0.014342,0.1367,0.13658,0.02961,0.22189,0.10356,-0.10475,0.0012922,0.077158,0.0017067,0.060491,0.024979,-0.25964,-0.17583,0.080703,0.051257,0.31873,-0.026818,0.0077804,0.036626,-0.37795,-0.038625,0.063035,0.088838,-0.037809,-0.15132,0.39681,-0.10265,0.10889,0.019924,-0.05161,0.048629,-0.039856,-0.097384,0.0035544,0.087207,0.0082861,-0.14242,-0.13809,0.23569,-0.019852,-0.055188,0.11672,0.3301,0.044189,-0.31898,0.054356],[0.20101,-0.036958,-0.34879,0.021655,-0.077677,0.19401,0.013915,0.29133,-0.10502,0.18593,0.096124,-0.17539,0.22416,0.2595,0.0079777,-0.059673,-0.33706,0.066131,-0.084479,0.11139,0.061771,-0.084875,-0.20989,-0.11874,0.052344,0.099348,-0.016671,-0.094962,0.12888,-0.056846,-0.026789,-0.11666,0.049917,-0.19267,0.10375,0.064197,-0.078948,-0.086901,-0.21081,-0.15237,-0.2364,0.43881,-0.064721,0.045829,-0.035309,0.05884,0.10048,-0.081055,0.060403],[0.089507,0.33562,-0.051179,0.030346,0.18985,0.051336,0.26504,-0.16944,-0.043269,0.07082,-0.026038,0.20866,0.091069,-0.18606,0.081863,-0.080623,-0.15625,0.012946,0.11158,0.25221,0.063137,0.27094,0.20552,0.24493,-0.030726,0.020235,0.055137,0.4103,-0.035576,0.28502,-0.0035117,-0.22398,0.30366,-0.29225,-0.088535,-0.0719,-0.17199,0.059406,0.15341,0.14725,-0.073272,0.017662,0.093194,-0.22953,-0.040843,0.1985,0.21158,-0.2404,0.012443],[-0.087856,-0.25567,-0.1592,-0.13681,-0.068192,-0.3086,0.09869,-0.071654,-0.11717,0.026686,0.04135,0.11375,-0.038216,0.29447,-0.2123,-0.26753,0.078988,-0.026571,-0.16538,-0.035526,-0.16293,0.035923,0.13663,0.028724,-0.15454,0.068655,-0.092284,-0.13899,-0.23218,0.068196,-0.072854,0.0594,-0.19948,-0.0042624,0.013564,-0.12245,0.0066552,-0.052308,-0.10842,0.16511,0.19156,0.091919,-0.12773,-0.077028,-0.2642,-0.0017513,0.26458,-0.017311,0.066657],[0.16378,-0.30755,-0.072735,-0.15429,0.2225,0.48899,0.14634,0.11858,-0.040431,-0.36467,0.14461,0.055298,0.28414,0.20201,-0.10796,0.12818,-0.055987,-0.13091,-0.14829,-0.23374,0.12902,-0.026124,-0.015371,-0.046074,-0.076141,0.10241,0.13147,0.10412,-0.14216,0.068311,-0.019348,0.087874,0.18309,0.20526,0.35828,-0.085252,0.11645,-0.24347,-0.066313,0.13286,0.19586,0.17947,-0.0041048,0.20154,-0.056766,-0.030213,0.16345,0.17687,-0.2097],[0.0069429,0.11963,-0.5492,-0.036886,0.29926,-0.026394,-0.044033,-0.11647,-0.18224,0.013381,-0.20969,-0.20201,0.16613,0.045815,0.0082456,0.052597,0.31063,-0.14025,0.092395,0.20782,0.049218,-0.049428,-0.024369,0.05187,-0.20668,-0.2864,0.11292,0.017087,-0.41337,-0.0095881,-0.24987,-0.041333,0.22399,0.053741,-0.016968,0.181,0.047677,0.32002,-0.11435,0.13345,0.28269,-0.047654,-0.19644,-0.38023,-0.41457,0.0066551,-0.063924,0.028775,0.05771],[-0.28076,-0.19354,-0.079852,-0.20281,-0.055451,0.03165,0.1886,-0.024738,-0.17757,0.12488,-0.11605,-0.030782,0.017691,0.065238,0.070362,-0.079283,-0.13743,0.014412,-0.21816,0.011593,0.071268,0.20778,-0.0818,0.036288,-0.1163,-0.029619,0.0056322,0.035392,-0.15859,0.25228,0.029729,0.01737,0.09912,0.032657,0.085018,-0.35595,-0.14852,0.14393,0.11547,-0.021091,0.091775,-0.0096381,-0.14008,-0.21473,0.23083,0.28875,0.10798,0.099865,0.20159],[-0.12576,0.088259,0.018893,0.11063,-0.25985,0.12541,0.018342,-0.022464,0.051376,-0.006846,-0.062944,-0.019454,0.018844,0.086588,0.090523,0.22191,-0.25241,-0.21246,-0.096751,0.15701,0.06986,0.084699,0.054512,-0.016718,0.087785,0.29006,-0.29552,0.0030611,-0.024981,-0.11644,-0.24011,0.15183,-0.082752,-0.10927,-0.0080377,-0.058193,-0.018943,-0.19821,-0.083203,0.0018449,0.17982,-0.10552,0.020507,0.17628,-0.24385,0.1527,-0.16393,0.20128,0.093372],[0.0093754,-0.11267,0.21461,0.01805,-0.26061,0.19335,0.24642,-0.14567,-0.059814,0.14238,-0.02639,-0.080011,0.10826,-0.098411,0.057124,-0.17282,-0.16016,-0.22167,-0.1636,-0.26231,-0.058389,0.16345,0.074499,0.16862,-0.10082,0.088956,-0.1741,-0.18216,-0.16357,0.10195,-0.057666,0.10853,0.075719,-0.10395,-0.067202,-0.39748,-0.18015,-0.17059,0.12422,0.22969,-0.46505,0.20851,0.14131,-0.3032,-0.096994,-0.030046,0.14624,0.057958,-0.016133],[0.086172,-0.0066141,0.10232,0.12721,0.061005,-0.17572,-0.024903,-0.089568,-0.0044008,-0.16436,-0.1284,0.084741,-0.083686,0.42405,0.10828,-0.015881,0.018077,0.15415,-0.35266,-0.072276,-0.11218,-0.065203,0.10082,0.25094,-0.12671,-0.27061,-0.18812,0.030743,-0.21559,0.12121,-0.13582,0.16964,-0.25614,-0.14204,0.17831,-0.13343,0.24314,0.12866,0.070471,0.1249,-0.022111,-0.12411,-0.093627,-0.17946,-0.12228,-0.19154,-0.37421,-0.22964,0.29792],[-0.12095,0.096325,0.012623,0.1555,0.09408,-0.18993,-0.046786,0.081867,0.082061,0.28357,0.032468,0.059221,-0.042867,-0.024299,-0.0043941,-0.16652,0.16847,-0.27076,-0.050461,-0.07536,-0.14443,-0.10225,-0.015213,0.15245,-0.015247,0.10654,0.074868,0.0028129,-0.024802,-0.098349,-0.048716,0.021723,-0.052628,-0.028291,-0.29094,0.15436,0.035439,0.19721,-0.044758,-0.087243,0.076918,0.10422,-0.16777,-0.010892,-0.04054,0.064735,-0.047315,-0.025284,0.16992]],"b2":[0.032017,-0.030722,0.077892,0.025798,0.22318,0.095329,-0.050939,-0.035775,0.021413,0.0044288,-0.061559,0.16811,0.1741,0.04426,-0.0029551,0.12268,0.029623,-0.14375,0.11344,0.099756,0.014962,-0.017026,-0.0081189,0.11685,-0.10041,0.14187,0.13238,-0.033561,-0.042709,0.061467,0.14971,-0.0053036,0.32991,0.19263,-0.050683,-0.0020325,0.067702,0.0058184,-0.060608,0.19626,0.1317,-0.079148,-0.059758,0.063541,0.0041116,-0.082452,0.016465,0.18542,0.0007881],"meta":{"arch":"11-64-49","params":3953,"trained":1600}}