{"W1":[[-0.00015892,-0.00079412,-0.000029302,-0.00043408,0.000073923,-0.00064757,0.00004906,-0.00003602,0.00084531,-0.0011596,-0.00028273,-0.00038869,-0.00067892,0.00060748,-0.00045539,0.00017207,0.00045527,-0.0002671,-0.000070227,0.000018943,-0.00015382,0.000020938,0.000040376,-0.00037873,0.00050337,0.00005835,0.00044243,-0.00071883,0.00021727,-0.00048067,0.00043128,0.00048295,0.00085007,-0.00072228,-0.00049348,0.00078897,-0.0010333,0.0014196,-0.00057949,-0.00062317,-0.00024751,0.00023921,0.00027879,-0.000094207,0.0002945,-0.00082357,0.00055652,-0.00047883,-0.00063873,-0.000085148,0.00044813,0.0009653,-0.00053919,-0.0011091,-0.00035586,-0.000039913,-0.00087117,0.0011903,-0.0003311,0.00077068,-0.00083841,0.00048379,-0.00012077,-0.00071752],[0.00091102,-0.000070393,-0.00012189,-0.00050917,-0.000095469,-0.000014211,0.00065839,0.0013071,0.00085712,-0.000053522,0.00012313,-0.000045769,0.00050705,0.00068277,-0.0010057,0.00060357,-0.0013319,0.00035208,-0.00019814,0.0012085,0.00079215,-0.0013429,0.00067146,-0.00035276,-0.00021549,-0.000072289,0.000046059,0.0001648,-0.00057635,0.000039329,-0.00029,-0.00010978,0.00021492,0.00019127,-0.00022514,0.00043086,-0.00086403,-0.00024636,-0.00053717,0.00027272,0.000016258,0.00014765,0.00053531,0.00017902,-0.00016665,0.00071067,-0.0011425,-0.0010162,-0.000045119,0.000075958,0.00047503,0.00015906,0.00068044,0.00019863,0.0000053829,-0.00034883,-0.00073728,0.00040526,-0.00069168,-0.0010091,0.00072962,-0.00052549,-0.00045411,0.00037241],[0.00087839,0.000064496,0.000093653,-0.00059798,0.00087893,0.000050749,0.00050853,-0.00054994,0.0004035,0.00039208,0.00024626,0.00064231,0.000052513,0.0002723,-0.00098759,-0.00030097,0.0004993,0.000040356,0.00030642,-0.0010261,0.00022888,-0.00021223,0.00019812,-0.000036357,0.0001473,-0.00029832,-0.00014503,-0.00033978,0.00019833,0.00037413,0.00087864,0.00022827,0.00024493,-0.00014848,0.00050743,0.0010877,0.00079104,-0.00060854,-0.00020361,-0.000091332,0.00011221,-0.00047273,0.000072671,-0.0001935,0.00029637,-0.00004929,0.00011548,0.00067399,-0.00073287,0.00041954,-0.00060548,0.00043931,-0.00013297,0.000066052,-0.00038476,-0.00052322,-0.00030898,0.00013666,-0.00049779,0.00033142,-0.00060484,0.00062944,0.00059552,0.0000052061],[0.00063542,-0.00012494,-0.0012699,-0.00081032,-0.00064236,-0.00023788,-0.00062513,0.00027874,-0.00015135,-0.000015862,0.0002116,0.00013274,0.00040002,0.000067867,0.00027652,0.00014993,0.00086636,-0.00032566,-0.0011688,-0.00049131,-0.00084611,0.00014174,-0.0012896,-0.0017344,-0.00070048,-0.00004002,-0.0005949,-0.00010986,-0.000075481,-0.00097516,-0.00088543,-0.00032818,-0.00029043,0.00042745,-0.0010278,0.00001505,-0.00028498,-0.00019759,0.00017941,-0.000024011,-0.00014084,-0.00035736,0.00048255,0.00085824,-0.00042451,-0.00037454,0.00044726,0.000059915,0.00037187,-0.00011923,0.0006905,-0.00040923,0.00024429,-0.00054483,0.00090995,-0.0000021913,-0.00092485,-0.0015234,0.00020271,0.00045077,-0.000033767,-0.0012932,-0.00072783,0.00043766],[-0.00081387,0.00030288,0.00037979,0.00010793,0.00053983,-0.00023193,0.00035418,0.000050172,0.00056669,0.00001951,-0.00093602,-0.00093955,0.0000068941,-0.00023418,-0.000090321,0.00016578,-0.00021387,-0.00036119,0.00029929,-0.0003912,0.00045944,0.00023999,-0.00026556,-0.00011546,-0.000050263,-0.00075508,0.0001173,-0.00036341,0.00013183,-0.00034833,0.00036524,0.00026725,0.00026745,-0.00041797,-0.00019404,0.00046014,0.00019659,0.000092391,0.00016352,-0.00015521,-0.00047888,0.00099887,0.00016589,-0.00047821,0.00016383,-0.00017769,-0.000092937,0.000085049,0.00095493,-0.00021741,-0.00023804,0.0016584,0.00081453,-0.00079722,0.0012178,-0.00023234,0.00044892,-0.00039045,-0.00033924,0.000012933,0.0007466,-0.0001843,0.00041176,0.0018873],[-0.00030128,-0.00074571,-0.00073186,0.00010678,0.00036449,0.00059965,-0.0001868,-0.0006419,0.000059618,-0.0005785,0.0012836,0.00036951,0.00025719,0.00039087,0.00090948,-0.00027565,0.0000018643,0.000032501,0.000236,0.00012773,0.00016897,-0.00036013,0.00031175,0.00050276,-0.00032445,0.00002552,-0.000060684,0.000085204,0.0004555,0.00011762,-0.00066751,-0.00047493,-0.00029717,-0.00023316,0.00028424,-0.0005752,-0.00023948,-0.00064265,0.00044845,0.00088673,0.0011643,0.00016281,-0.00014395,0.000072379,-0.00083529,-0.00019684,-0.00027362,-0.00020813,0.00057253,-0.00024188,0.00061625,0.00033933,-0.0000029681,-0.000099229,0.00097873,0.00081286,0.00087135,0.0011506,0.00039681,-0.0006722,-0.00073276,-0.00063264,0.0010182,-0.000212],[0.0010989,-0.00017243,-0.00012741,-0.00010812,-0.00030847,-0.00025635,-0.00053371,-0.00051601,-0.00063934,0.00010682,0.000022967,-0.00037143,-0.000027542,0.00030415,0.00026845,-0.0000076526,0.00046979,0.00036471,0.00087485,-0.00012017,0.00020488,0.00062052,-0.00013189,-0.00014428,-0.00032802,0.00031631,-0.0004153,-0.000010615,-0.00084814,-0.00018247,-0.00085276,-0.00042065,0.00013683,-0.00024356,-0.000013452,-0.00013598,0.00058945,0.00013224,0.00030548,0.00061283,-0.00073866,0.000053111,-0.00026429,-0.000017611,0.000077193,-0.00013575,-0.00066503,0.00058481,-0.00025282,-0.00046615,-0.00094238,-0.00089308,-0.00075493,0.00055816,0.00051509,-0.00055474,-0.00065188,0.000049702,0.00038764,0.00035559,-0.00028718,-0.00020001,-0.00050828,0.00034225],[0.00066992,-0.00083291,0.000015431,0.00077595,-0.00055997,0.00083893,0.00079683,-0.0014641,-0.000075221,-0.00016339,-0.00071559,0.0010108,0.000029201,-0.00042035,-0.0010625,0.00013065,0.00016877,-0.00016253,-0.00027711,0.00038132,-0.00031101,-0.00012746,0.000697,0.0012294,0.000031995,-0.00015412,-0.00013207,0.00021223,-0.00071778,-0.000078667,-0.00021829,-0.00025059,-0.00033535,0.00071468,-0.00045518,0.0012347,-0.0010145,-0.00024727,-0.00008782,-0.0001379,-0.0003696,-0.00038044,0.0003924,-0.00006323,0.001073,-0.00018551,0.0013297,-0.000062985,-0.00058546,0.00034105,0.00054412,-0.0014573,-0.00072985,-0.00010401,-0.0019598,-0.00041629,-0.00084818,0.00070467,0.00040898,0.00068569,-0.000036005,-0.000083122,0.0010013,0.00015002],[-0.00039945,0.000605,-0.00025948,-0.00053598,0.00067162,0.0012706,0.00022111,0.0001011,-0.00093661,0.0015977,0.000051381,0.0016174,-0.000054419,-0.0003009,-0.000024422,-0.000066048,-0.00072236,0.00027879,0.00048575,0.00047097,-0.0013439,0.000011006,0.0012986,-0.00068365,-0.0011983,-0.00074723,0.00010995,-0.00098664,-0.00062453,0.00064973,0.00070611,-0.00045459,-0.00085942,0.0010073,-0.00090673,-0.00026469,-0.000031939,-0.00029307,0.00067569,-0.00084653,0.00046367,0.000037376,-0.00008663,0.00054576,0.000094441,0.00098502,-0.00013928,-0.00066323,-0.00069869,-0.00055554,0.00023208,-0.0014189,-0.00023149,-0.0010515,-0.0012676,0.000091484,-0.00023619,0.00075407,-0.000067867,-0.000076966,-0.00081574,-0.00045319,-0.00065457,-0.00041072],[-0.0011171,0.00043492,0.00019013,0.00052958,-0.0017772,0.00040703,0.00057378,-0.0010357,0.000047266,0.00095053,-0.0011651,-0.0011028,-0.00045715,-0.00021117,0.00016704,-0.00010967,-0.00096702,-0.0012471,-0.00061394,-0.00027556,-0.0002266,-0.00064709,-0.00024857,-0.00047242,-0.0013462,0.00012733,0.00066928,0.0002115,0.0013385,0.0006267,0.001142,0.0015355,0.00061775,0.00062516,0.000078609,0.00095539,-0.00085014,0.00045331,0.00033073,-0.00030017,-0.0010119,0.00064626,0.00029539,0.000064045,0.00053139,0.00050571,-0.00040777,-0.00060129,-0.00099307,-0.00087502,-0.000015602,-0.000188,-0.00091671,-0.00028661,0.0013278,0.0017223,0.00048059,-0.00015168,-0.00036221,-0.00097389,0.00031779,-0.00036503,-0.0024366,0.0019088]],"b1":[-2.8755,1.7517,2.0318,2.276,-0.92422,-0.16528,-0.73662,1.0122,-1.7644,0.72344,-0.53058,-0.2436,-0.58018,-2.0999,1.7665,-0.57454,-0.47333,0.25055,-0.37114,0.68057,-0.51557,1.1335,-0.21585,2.2257,1.6948,1.3607,0.76397,1.7881,0.77163,1.1666,0.73823,0.35094,-0.94041,0.64955,1.7508,-2.8542,1.2113,0.32979,-0.1275,-0.82016,0.56043,-0.54104,-1.3878,-0.40444,0.059994,0.946,0.91006,0.43566,0.27783,0.82621,-0.71161,-1.29,0.28584,2.1775,-2.3855,0.91565,2.7203,-1.7882,0.70944,-0.51482,1.4394,2.2158,-0.21654,-2.6742],"W2":[[-0.0066399,0.16399,-0.10709,-0.12617,0.28669,-0.073419,-0.03655,-0.020248,0.083367,0.040319,0.28531,-0.12246,0.040797,0.09962,0.11997,-0.049007,0.22052,0.056373,0.12982,-0.14754,-0.19099,0.010031,0.043006,-0.059467,-0.031119,-0.12726,-0.13642,0.1438],[-0.071609,-0.12426,-0.15599,0.037662,0.41848,-0.21449,-0.038212,-0.21235,-0.0049864,-0.1086,0.16959,-0.17368,0.052974,-0.041898,0.091229,0.060071,-0.16609,-0.1609,0.19231,0.14392,0.14729,0.090905,0.05496,-0.036386,-0.26659,0.0081047,-0.34351,0.016791],[-0.01235,-0.33737,0.16532,0.12045,-0.022492,0.04718,0.051746,0.055544,-0.09546,0.16188,0.0071474,0.059577,-0.067038,0.030837,-0.15296,0.088227,0.14811,-0.21309,-0.074502,0.18429,0.116,-0.11668,-0.26016,0.33885,0.010934,0.2195,-0.17556,0.022087],[-0.063914,0.22872,0.092803,-0.055774,0.0090008,-0.18734,0.0027394,0.019354,0.039389,-0.17249,-0.11009,-0.02366,-0.021629,0.16416,-0.16074,-0.024638,-0.021813,-0.36528,0.21971,0.014161,0.067205,-0.11708,0.092224,-0.22942,-0.14404,0.23341,-0.012377,0.20975],[-0.0011358,0.080853,0.2327,0.35344,-0.13501,-0.032694,-0.036778,0.0093317,-0.10536,0.29572,-0.1166,0.05401,0.24965,0.088039,-0.010702,-0.22836,-0.034092,-0.019927,-0.0038052,0.32714,-0.083436,-0.11049,-0.20454,0.25974,0.098286,-0.15918,-0.1763,-0.12357],[-0.076792,0.14706,-0.13893,0.069464,0.27057,0.45809,-0.11847,0.18176,-0.15592,0.027573,-0.15036,-0.15317,0.12112,0.078061,0.11251,-0.21733,0.047215,-0.42907,-0.15073,-0.0391,-0.020315,0.26916,0.027907,0.12812,-0.17391,0.062327,0.11271,-0.074666],[0.27976,-0.087544,-0.060986,0.18015,0.047646,0.099788,0.12697,-0.040741,-0.31844,0.37228,-0.092198,0.010707,-0.002612,0.26685,0.38575,-0.10649,-0.07825,-0.16734,0.026549,-0.21375,-0.045523,0.14941,0.043385,0.22524,0.025027,-0.23264,-0.054679,-0.43329],[0.023414,0.073048,-0.13894,-0.19345,0.077053,-0.12992,0.018907,-0.13237,0.31359,0.11002,0.24487,0.02292,0.097473,0.078726,0.028113,0.071821,0.037732,-0.19928,-0.11892,0.12854,-0.078641,0.08808,0.14733,-0.068199,0.092981,0.041974,0.1189,0.024423],[0.095785,-0.25292,-0.12881,-0.034435,0.061122,-0.044431,-0.11748,0.21028,0.20783,-0.24495,0.12111,-0.15543,0.097218,-0.11882,0.1255,0.069127,-0.30312,-0.25758,-0.17861,0.071123,-0.024135,-0.080441,0.05755,-0.30895,0.00073846,-0.058974,0.26077,-0.02237],[-0.15242,0.13901,0.16304,0.062318,-0.077055,-0.012592,-0.12294,-0.0080377,0.0018246,0.0040484,0.31219,0.19273,-0.024934,0.024947,0.26425,-0.06964,0.033129,-0.046974,0.081575,0.092759,0.028999,-0.045901,0.2161,0.18456,0.10226,0.099019,-0.053333,0.021983],[0.17975,0.0018019,-0.13613,0.22021,0.20495,0.12423,-0.012155,0.10748,0.19764,0.099102,0.044853,-0.016006,-0.33811,0.0056145,0.13504,0.084938,-0.22881,0.073817,0.080408,0.088641,0.14063,0.033125,-0.17222,0.0011356,-0.16382,0.29833,0.24095,0.14876],[-0.059471,-0.20726,0.13292,-0.15913,-0.031449,-0.13099,0.11744,-0.098759,-0.13003,-0.26942,-0.12937,0.18733,-0.17491,-0.14353,-0.13041,0.079606,-0.020846,0.24963,-0.18835,0.030047,0.25012,-0.0080323,-0.0029332,-0.081272,0.10708,-0.031027,0.20304,0.043053],[0.055604,-0.25474,-0.055227,-0.20277,0.18751,0.0020509,-0.37166,-0.031706,0.17573,0.18947,-0.32104,-0.081936,0.18846,0.1232,-0.14921,0.033739,0.13704,0.026378,-0.4256,0.051909,0.1303,-0.21521,-0.3899,-0.3814,0.14478,0.040931,0.11862,-0.3719],[0.048627,0.13921,0.030008,-0.027552,-0.33462,0.14642,-0.28873,-0.031653,0.12374,-0.012226,-0.025749,-0.10384,-0.056767,0.17612,0.21687,-0.18164,-0.046911,0.26024,0.048409,-0.12488,-0.16834,-0.1419,0.075658,0.00019761,-0.12128,0.16689,0.016747,0.14242],[0.088632,0.011511,0.22586,-0.12887,-0.052989,-0.078226,0.27659,-0.050246,-0.23484,-0.026274,0.24101,-0.070707,-0.012062,-0.082253,0.24265,-0.13254,0.11658,0.24373,-0.20212,-0.0059835,-0.049187,-0.032113,0.044851,0.23836,0.039747,0.066899,0.30275,0.055255],[0.059585,0.072266,-0.20766,-0.017047,-0.007617,0.093717,0.35955,0.13962,-0.005774,-0.022539,-0.074349,-0.038486,-0.052337,0.12756,-0.35877,0.074762,-0.35974,-0.12387,-0.20632,0.22652,0.03495,0.12402,-0.044825,0.4018,-0.037833,0.19277,-0.12574,-0.091717],[0.047263,-0.14615,0.029151,-0.287,-0.0067592,-0.075132,-0.079636,-0.049761,-0.0052014,0.061789,-0.21873,0.17668,-0.030326,-0.044288,-0.27752,0.12889,-0.13816,-0.10944,0.04062,0.22159,0.23335,-0.10563,0.059978,-0.12974,-0.038242,0.044776,0.18661,-0.015271],[0.05874,0.12698,0.091404,0.12917,-0.099543,-0.21804,-0.15313,-0.20529,0.083133,-0.16987,-0.014961,-0.13201,-0.053831,-0.048845,0.10188,-0.12326,-0.16245,0.070844,0.21244,-0.29202,0.094534,-0.13361,-0.039722,0.22298,0.21326,-0.27111,-0.10578,-0.1887],[0.23221,-0.46566,0.21926,-0.006031,0.14471,0.048696,0.0194,-0.083071,-0.023404,-0.20075,-0.20481,-0.062674,-0.19345,-0.1231,0.067862,0.13975,-0.031893,0.038518,-0.036065,0.26146,-0.08503,-0.14914,0.2774,-0.19473,-0.2249,-0.10077,0.020602,0.031961],[-0.023964,-0.080158,0.047998,0.1304,0.11846,0.045168,0.069182,0.04323,0.053419,-0.036935,0.10075,0.1724,-0.0011079,0.013208,-0.029987,-0.1218,0.14099,0.22685,0.034026,-0.045474,0.15769,0.050707,-0.10992,-0.16341,-0.090149,0.10578,-0.0031492,-0.0011714],[-0.15851,0.030802,0.024229,-0.43613,0.024834,0.31318,-0.25099,-0.1043,-0.53411,-0.10308,-0.18337,-0.018195,0.065688,0.0030955,-0.091528,0.11258,0.10217,0.044731,-0.049303,-0.057308,0.2054,-0.14646,0.13811,0.070612,0.030527,-0.11858,0.18376,-0.078567],[-0.17917,-0.1093,0.1265,0.04888,0.15404,0.36758,0.28363,0.23602,0.10779,0.042707,-0.039322,0.13242,0.064426,0.12291,-0.064729,0.23684,-0.15391,0.13293,0.18584,0.085392,-0.10487,-0.198,-0.24736,0.20959,0.013989,-0.12849,-0.35311,0.049477],[0.091257,0.075773,0.021505,-0.11502,-0.20091,-0.16251,0.21007,0.15277,-0.18139,0.22178,0.22693,-0.098212,0.050543,0.1125,-0.11193,0.04109,-0.44104,-0.16138,-0.11412,-0.296,0.072456,0.21027,-0.075547,-0.17777,0.041903,0.21272,-0.16817,0.002635],[0.007566,-0.17015,0.023867,0.077905,0.088459,0.1075,-0.22663,0.0067864,-0.10131,0.24478,-0.044359,-0.000089366,0.042426,-0.094127,0.10231,0.12916,0.034201,0.050666,-0.086021,0.014392,-0.086749,-0.23164,-0.20751,0.23299,0.12277,-0.065109,0.23147,0.056113],[-0.1608,0.086932,0.20171,0.3177,-0.057987,0.13076,-0.37481,-0.2118,0.072208,-0.19636,0.0061839,-0.18473,0.063662,0.058138,-0.052097,-0.097512,0.038527,0.056665,0.023383,-0.21913,0.017474,0.24155,-0.10969,0.10868,0.023004,0.10642,0.064016,0.088946],[-0.025804,-0.19219,-0.11331,-0.0070335,-0.10333,0.14152,0.0097958,0.12098,-0.044501,-0.10089,0.21357,0.11318,-0.1663,-0.063856,0.15877,-0.087698,-0.38546,-0.15818,0.58432,-0.28056,-0.02781,0.32096,0.21297,0.29272,0.20475,-0.02449,0.16266,0.2332],[0.14089,0.12159,-0.13513,-0.0019849,0.22593,-0.07435,-0.14848,-0.20733,-0.1455,0.25105,0.01022,-0.015953,0.41138,-0.022019,0.16946,0.13966,-0.26946,-0.11798,-0.050059,-0.22209,-0.20372,-0.13136,0.14477,0.018744,-0.075076,-0.31233,0.089644,0.07144],[-0.36569,-0.063433,0.18119,-0.21153,0.22351,-0.071299,0.37274,-0.0073463,0.14411,-0.2329,0.24031,-0.24352,-0.1695,-0.21954,-0.0067439,0.079442,0.1285,-0.11704,-0.12517,0.044399,-0.083013,-0.090297,0.229,-0.034655,-0.00092405,-0.064594,0.091712,-0.32311],[0.11461,-0.16494,-0.011795,-0.14982,0.19298,-0.10769,0.17444,-0.048033,0.16889,0.031434,-0.062199,0.0032844,-0.011939,-0.23802,-0.13288,-0.11908,0.2941,-0.083291,-0.045785,0.0035831,-0.044704,-0.04605,-0.11603,0.11846,-0.073323,-0.044447,-0.25205,-0.047686],[0.13854,-0.0087542,-0.0045493,0.19042,-0.15687,0.14736,-0.14089,0.12725,0.17429,0.21169,0.16184,0.055767,0.25465,0.15138,-0.13208,-0.034569,-0.31187,-0.32473,0.030918,-0.027726,0.19231,0.015141,-0.13439,0.28546,0.040151,-0.018283,0.16639,0.07293],[-0.0096111,-0.16415,-0.22005,-0.10374,-0.098777,0.11771,-0.27151,0.12276,-0.015414,0.014523,-0.051831,-0.039323,-0.0032406,-0.16583,-0.2137,0.32105,0.28375,0.05916,-0.13177,0.13217,0.066299,0.21408,0.29886,0.046363,0.16496,0.13207,-0.10036,0.28092],[-0.079244,0.19428,-0.098488,-0.011506,-0.28361,0.00082452,-0.04031,-0.081262,-0.17145,-0.091524,-0.18235,-0.045616,0.097408,0.26917,0.10656,0.020466,-0.11471,0.12851,-0.015519,-0.009679,-0.17586,-0.0049858,-0.27276,0.29925,0.033084,-0.072715,0.17919,-0.07837],[-0.0021064,-0.26389,0.021274,-0.097747,0.039549,0.11125,-0.24552,-0.11418,-0.27654,-0.03127,0.01323,-0.19346,-0.060336,0.042033,-0.0103,-0.059774,0.080756,-0.087304,0.11857,0.10408,-0.014566,0.13457,0.054732,0.021603,-0.14349,0.01183,-0.21819,0.13987],[-0.16081,-0.24718,0.43551,-0.059984,0.0066069,0.22923,-0.12156,0.087318,-0.014793,-0.14499,-0.29256,-0.31959,-0.1216,-0.075664,-0.057663,0.10789,0.19983,0.091973,0.29358,0.27942,-0.21337,0.23712,0.093732,0.066601,-0.035423,-0.0061403,-0.16863,0.11755],[0.15001,0.25314,0.20445,0.25682,0.018084,-0.2542,0.10462,0.2516,0.11208,-0.25102,0.094826,0.19332,0.14362,0.033396,0.26269,0.10284,-0.10975,-0.11295,0.25801,0.13887,-0.37009,-0.067721,0.50542,-0.22707,0.14391,-0.078203,0.15075,-0.15572],[-0.030151,-0.066171,0.27428,0.045217,0.062916,0.10803,0.35303,0.11597,0.017305,-0.10094,-0.077187,0.11067,0.016867,-0.21387,-0.019506,0.06715,-0.2626,0.04566,0.012002,0.042637,0.14878,-0.0078825,0.065885,0.17506,0.14462,0.082676,0.0066898,-0.11476],[0.017036,0.14151,-0.13416,0.10739,-0.029044,-0.13145,0.076415,0.013868,-0.07055,0.089904,-0.23542,0.028819,-0.05157,0.12431,-0.17974,-0.12098,0.016519,0.003019,-0.093042,-0.32769,-0.027892,0.090596,0.15393,-0.32179,-0.011237,0.098864,0.05479,-0.092351],[0.044621,-0.017936,0.20411,0.10355,-0.27488,0.17718,-0.21306,0.047198,-0.15491,0.13308,-0.15809,-0.028572,-0.12012,0.065117,0.008005,-0.0046941,-0.086529,-0.064511,0.11551,0.046071,-0.15662,-0.2592,-0.02858,-0.12022,-0.20177,-0.017688,-0.058038,-0.24021],[-0.083902,0.043492,-0.21204,-0.09661,-0.22683,-0.15008,0.32552,0.075751,0.15566,-0.031414,0.1891,0.083973,-0.099159,-0.14633,0.18688,0.042813,0.23001,-0.33251,0.15815,-0.030412,-0.22476,0.15504,-0.037341,-0.31646,-0.16393,0.089616,-0.25599,-0.15493],[-0.03321,0.032308,0.02558,0.25934,-0.29958,0.047926,-0.15638,-0.19348,-0.24825,-0.059664,-0.040489,0.17576,-0.10745,0.20125,-0.18463,-0.12053,0.50832,0.16409,0.29507,0.052023,-0.14336,-0.022302,0.24106,0.11529,0.26208,-0.063441,0.30601,0.088554],[-0.10575,0.010044,0.23858,-0.12905,-0.15726,-0.076876,-0.0048852,-0.1485,0.057402,0.0063302,0.025818,0.012709,-0.0057523,-0.096217,-0.072075,-0.020063,0.13474,0.042487,0.26998,-0.022959,-0.18971,-0.12754,0.083291,-0.0096493,0.033688,-0.14976,0.1012,-0.0032013],[-0.2079,0.23709,-0.1826,-0.064323,0.013836,0.18459,0.17661,-0.053068,0.12801,0.0036341,-0.02954,0.10905,-0.1562,-0.14683,0.21772,-0.1356,-0.020972,0.0021909,0.066198,-0.051962,0.024391,0.083406,-0.049096,-0.02271,0.19426,0.15227,-0.036522,-0.10325],[-0.065225,0.023416,0.13742,0.078706,-0.083182,-0.24778,-0.061381,-0.059781,-0.053306,0.17228,-0.12745,0.12998,0.27299,-0.2729,0.05613,-0.041598,0.14366,-0.13039,-0.25508,-0.1587,0.37445,-0.2035,0.14016,-0.11221,0.009132,0.053008,0.09208,0.2548],[-0.093148,0.15672,0.015234,0.20586,-0.1,-0.066705,0.15913,-0.023434,0.04536,0.050623,0.09223,0.065988,0.14881,0.026563,0.23998,0.025126,0.10982,-0.28416,-0.1042,-0.12372,0.10041,0.03839,0.084069,0.16708,0.099734,-0.051829,0.032011,0.2033],[0.015112,0.014472,-0.11248,-0.033676,0.039247,-0.12083,-0.14575,0.19701,0.034195,0.13374,0.10611,-0.11437,-0.077814,0.1508,0.030373,-0.037115,-0.050155,0.087834,0.34069,-0.081698,-0.096076,-0.054327,-0.12788,0.047578,-0.044213,0.19523,-0.29061,-0.1143],[0.18208,0.20723,0.20874,0.05575,0.0032061,0.078167,0.2481,0.22717,0.075419,0.078122,0.22537,0.028515,0.21541,-0.045396,0.24469,0.16964,0.16406,0.21352,0.2642,-0.028083,-0.15032,-0.071343,0.26483,-0.07386,0.073124,-0.1361,0.48392,-0.025205],[0.038209,0.15948,-0.22884,0.32965,-0.32693,-0.073884,0.12843,-0.1419,0.1274,0.067158,0.25235,0.16909,0.25083,0.0852,0.086783,0.061951,0.14493,-0.15066,-0.16153,-0.17683,-0.044193,0.037534,0.10398,-0.21949,-0.10227,-0.087473,-0.048277,-0.025151],[0.070059,-0.12349,0.27645,-0.027621,0.1035,0.31821,0.058019,-0.086459,-0.11219,0.34889,-0.2755,-0.52071,0.13542,0.092849,-0.1863,-0.092551,0.0015847,0.039839,-0.16999,0.12591,0.013875,0.10197,-0.23155,0.24506,0.0944,-0.15956,-0.058531,0.20747],[-0.3659,0.055224,-0.31102,0.15986,-0.26342,-0.010008,-0.0042913,0.25772,-0.16783,-0.118,-0.1522,-0.16814,0.0045299,-0.24157,-0.16616,0.19478,-0.089766,0.10173,0.014,0.17699,-0.1223,-0.030929,-0.12136,-0.108,-0.12408,0.074071,-0.14159,-0.12972],[0.19908,0.007673,-0.000082659,0.1161,0.31407,-0.07075,-0.20106,0.1383,-0.15823,-0.38745,0.041927,0.038365,-0.15148,-0.016441,-0.23058,-0.10329,-0.21919,0.12287,0.11437,0.29661,-0.053473,0.022282,-0.011121,0.022742,-0.18369,-0.13627,0.23256,0.3324],[0.079927,0.028224,-0.20139,0.083221,0.05046,-0.19953,-0.22178,-0.17654,0.023891,0.015331,0.14565,0.12234,-0.31842,-0.10834,-0.13075,-0.10515,0.18568,0.057627,-0.16858,0.45943,-0.2558,-0.089083,-0.25153,-0.044305,-0.014457,-0.15805,-0.23246,0.029168],[0.048118,0.18007,-0.038385,0.19345,0.11819,-0.3272,0.13343,-0.066179,0.2978,0.11365,0.18268,0.029272,-0.014556,-0.028279,0.18224,-0.09552,0.11864,0.11181,-0.21139,-0.29698,0.16362,0.10398,-0.14628,0.094722,0.030673,0.035519,-0.041129,0.29141],[0.18041,0.0052684,-0.082163,-0.12652,-0.070442,0.17245,-0.039987,0.12337,-0.049938,0.22512,0.22311,0.13855,0.082733,0.11415,0.19996,0.10503,-0.2036,-0.26875,-0.072093,0.13443,-0.15995,-0.11628,-0.12371,0.018666,-0.001091,-0.0027106,0.030105,-0.11956],[0.26009,0.22585,-0.066364,-0.13266,-0.065179,-0.043084,0.2773,-0.033284,-0.0035209,0.35743,-0.16175,0.27139,0.12662,-0.065094,0.15979,-0.011396,0.11529,0.29298,-0.24565,0.077291,0.12497,-0.1094,-0.1564,-0.070649,0.072504,-0.066174,-0.064439,-0.090718],[0.044372,-0.11871,-0.0058091,-0.24876,0.29376,-0.048586,0.17466,0.098855,-0.12467,-0.080807,-0.11617,0.10018,0.048737,0.12244,-0.10859,-0.021732,0.11394,0.001688,0.098941,-0.097287,0.025597,0.011255,0.1223,-0.17737,0.075822,0.0051336,-0.094103,-0.27415],[-0.14205,0.24841,-0.074524,0.25767,0.15991,-0.053608,0.011057,0.025061,0.24878,0.041736,0.15573,0.080379,-0.055515,0.1276,-0.24334,0.049832,0.067365,0.23061,0.072163,0.1894,0.2656,-0.016142,-0.11946,-0.34213,0.08566,0.10193,0.028128,0.10703],[-0.001156,-0.11187,0.0053398,0.049417,-0.11054,0.21297,0.11625,0.22866,0.00029874,-0.35425,-0.29477,-0.068128,-0.10999,0.2028,0.11165,0.063656,0.04795,0.045115,0.098996,-0.19711,-0.0025877,0.0097788,-0.1683,-0.0023702,0.021388,-0.17388,-0.0071693,-0.012285],[-0.14057,-0.16626,-0.029651,-0.2467,0.13346,0.11478,0.02197,-0.010387,-0.16387,-0.26864,0.053758,-0.20064,0.27287,0.016332,-0.21386,0.32633,0.0042604,0.12171,0.2511,-0.19866,0.1239,0.06143,0.12306,0.21818,0.0039526,-0.1546,0.071382,0.016268],[0.45989,0.21741,-0.28673,0.22188,0.049976,-0.060886,-0.12862,-0.11617,-0.11394,0.14467,-0.10557,0.11664,-0.1456,-0.034707,-0.13389,0.024761,0.055494,-0.16232,-0.30676,-0.0043776,0.087745,0.033766,0.14719,0.29576,0.24697,0.2987,0.05266,-0.025472],[-0.10149,0.0049611,-0.42961,0.13119,-0.0039995,-0.11161,-0.039421,0.013998,0.021558,-0.18941,0.074523,0.051967,-0.1439,-0.20559,0.079078,-0.28063,0.19761,0.05533,-0.22832,-0.16298,0.027266,0.069604,-0.056714,-0.061703,0.012642,0.095553,-0.33226,-0.076261],[0.15608,-0.057782,-0.1512,-0.25925,-0.18321,-0.0030754,-0.11556,-0.015135,0.038281,0.15962,0.42373,0.058692,0.13582,0.1362,0.055305,0.0055647,-0.14211,0.16877,-0.1098,-0.1102,0.15819,0.23583,0.35837,0.070053,0.15345,-0.25236,-0.088579,0.064827],[-0.010244,-0.053665,-0.075736,-0.24542,-0.0055521,-0.018806,0.056901,-0.13686,-0.015645,0.18011,-0.10052,0.14901,-0.16756,-0.28534,0.12747,-0.17803,0.13908,0.28026,-0.1282,0.27683,0.31049,0.20238,0.145,-0.30717,-0.13471,0.22978,0.12065,-0.11923],[-0.12018,0.13162,0.12772,-0.058937,-0.098107,-0.091754,0.098397,0.013249,0.2539,-0.27251,-0.037327,0.024519,-0.063061,0.036202,0.09232,0.025168,-0.097859,0.039764,0.060089,-0.13663,-0.094044,0.035058,-0.066074,-0.014929,-0.14037,0.25028,-0.39112,0.089175],[-0.0085402,0.1722,-0.076359,0.28264,-0.34126,-0.043485,-0.1324,-0.078347,0.10092,0.22972,0.092374,0.08872,-0.27649,-0.013408,-0.20301,0.082137,0.084345,-0.086474,0.03605,0.36139,-0.22607,0.17187,-0.20901,-0.026986,-0.13723,-0.021716,0.13396,0.06791]],"b2":[0.058384,-0.021176,0.27763,0.012066,-0.01055,0.0014507,0.17151,-0.067494,-0.046651,0.03655,0.22233,-0.076188,0.0099983,0.050465,0.15184,-0.082639,0.043414,-0.012931,0.33296,-0.0041728,0.037699,-0.087515,0.11476,-0.036483,-0.085661,-0.022365,0.18248,-0.021486],"meta":{"arch":"10-64-28","params":2524,"trained":1600}}