{"W1":[[0.00073377,-0.00027141,-0.00059432,0.00074303,-0.00013557,-0.00035988,-0.00045198,-0.0002555,0.00014632,0.00024621,-0.00008632,0.000065548,0.00011263,0.00019877,-0.0001864,-0.00050532,0.00011354,0.00075599,-0.00015321,-0.00031893,-0.00048609,-0.00021074,0.00086714,-0.00061108,0.00054986,-0.00008156,-0.00031655,0.00017908,0.00046888,0.00015355,-0.00019821,-0.0006386,-0.00045379,-0.00013527,0.000015561,-0.00037871,0.0010068,-0.00012465,0.000038377,0.0002838,-0.00020377,-0.00032708,0.00017421,-0.00029469,-0.00036866,-0.00076242,-0.00015799,-0.0010951,-0.00012429,0.00028473,-0.00010878,-0.00034405,0.000054349,-0.00034708,0.00010816,0.000091119,0.00019082,0.00010908,-0.000024892,0.000026271,0.000062319,0.00013215,0.00040581,-0.00021205],[-0.00031144,0.00040797,-0.00019986,0.00015213,0.00033912,0.000055953,-0.0001311,0.00027783,-0.00019329,-0.000056737,0.00015934,0.00032594,-0.000082375,0.00013831,0.00051364,0.00035405,-0.00021136,-0.000043578,0.00029633,0.00031993,-0.000062695,0.000095672,-0.00014288,-0.00019528,0.00050227,-0.00023111,-0.00036905,-0.00023857,-0.00029375,-0.00024606,-0.000046865,-0.00022464,0.0000032091,0.000023124,-0.000040314,0.00062072,-0.00026856,0.00032302,0.00018896,-0.00028047,0.00039324,0.00075979,0.000041466,-0.00011267,0.0000033501,0.00030053,-0.000055257,0.0005986,-0.00011624,-0.000048018,0.00033895,0.00026921,-0.00046429,-0.00021059,-0.00019946,-0.00085673,-0.000012604,-0.00017794,0.00017404,0.000069448,-0.00027141,-0.000025465,0.000257,0.00034786],[0.00039451,0.00016367,0.0010406,-0.00015146,-0.000063699,0.000045366,0.000037285,0.00029409,0.00025194,-0.000083913,-0.000185,0.000020469,-0.0004958,0.00027648,0.00032448,-0.000046232,-0.00062944,0.00018203,0.00017738,-0.00016409,0.00010031,0.0002351,-0.00062948,-0.00029009,-0.00016541,0.000063038,-0.0002779,0.00021381,-0.00011961,0.00015478,0.00011992,0.0000090317,0.000093299,-0.00018292,0.00013679,0.00019464,2.5133e-7,0.000065786,0.00010078,-0.00020965,-0.000071776,0.000018619,0.000090057,0.00068667,-0.00022073,0.00027276,0.00010399,-0.000061684,0.00020617,-0.000061458,0.0003337,-0.00033201,0.0005672,0.00033338,-0.00004569,-0.00010809,0.00052238,-0.00021432,0.00046867,-0.00014696,0.00030122,-0.00005784,-0.00013861,-0.00034549],[0.00009848,-0.000077795,-0.00084483,-0.00065312,-0.000091977,0.00039606,0.000069112,0.000077079,-0.00020193,-0.00018589,0.00025871,0.00060232,-0.00019655,0.00043755,-0.00015312,0.00022977,-0.000099157,0.00017183,-0.000041171,0.00011969,0.000091611,-0.00026035,-0.00039666,-0.000058169,-0.00055258,0.00015996,-0.00019358,-0.00039742,-0.000044883,-0.00020736,-0.00037735,0.00012754,-0.00034973,0.000025963,0.0000074057,0.00028775,-0.00065625,0.00003581,0.00015592,0.000015036,-0.0000028692,-0.0000041141,-0.00029113,-0.00017774,0.0001607,0.000082225,0.000363,0.000047651,-0.000046498,-0.00019053,0.00035771,0.00058345,0.00040763,0.00013574,0.00029275,-0.00065994,-0.00054854,0.000076586,-0.00054698,0.00049161,-0.00024189,-0.00046468,0.00028405,0.00031531],[-0.00019066,-0.00010491,0.00014702,0.00024595,-0.00022346,0.000048006,-0.000095106,-0.000084855,-0.000074075,0.00055532,-0.000062585,0.000089126,0.00031842,0.000096944,0.00012616,0.00013095,0.0004567,-0.00044395,-0.00040703,0.00039178,-0.000026026,-0.00032317,-0.00026377,0.00041724,0.000040366,0.00011282,-0.000048427,0.0003561,0.00027533,0.00040395,-0.00025793,-0.00024355,-0.00018911,0.000070187,0.00066607,0.000010509,0.00003357,0.000079999,0.00024516,0.000035662,-0.000013399,-0.000038971,0.0003206,-0.00012152,0.00065513,0.00034638,0.00037212,-0.00034302,0.00017431,0.00026225,0.00042117,0.0004857,-0.000054004,0.0004062,0.000085565,0.000012463,0.00032039,-0.00026112,0.00023376,-0.000070332,0.0001725,-0.000026529,-0.00024467,-0.00059012],[0.00014846,0.00043583,0.00071193,-0.00040369,0.000021648,0.000021204,-0.00014194,0.00012345,0.000013609,0.00026338,-0.00029869,-0.00040981,0.00027718,0.00014498,-0.00044723,-0.00057864,0.00030919,0.00038547,0.00050588,0.00033791,0.00010397,0.000016585,0.00068755,-0.000029723,0.00058412,-0.00045065,0.00013988,-0.000049311,0.00014087,-0.000068683,-0.00020098,0.00068072,-0.000026263,0.000020718,-0.00025294,0.00033279,-0.00027569,-0.00026475,-0.00068656,-0.00024913,0.00011529,0.00016783,0.00002027,-0.0004834,-0.0007343,-0.00026201,-0.00031661,-0.000057784,-0.00018977,0.000015205,-0.00015907,0.0002507,-0.000038212,-0.000035241,-0.00065401,0.00083449,0.00011605,0.00039042,-0.0008323,0.000020449,0.00041535,-0.000022655,-0.00055077,0.00056659],[-0.000086794,-0.00027712,0.000061533,-0.00048886,0.00033374,0.00031661,0.00061211,0.00003946,-0.000019292,-0.00014994,0.000024054,-0.00038771,0.00020814,0.00012575,-0.00012708,-0.00058256,-0.00015007,-0.00063706,-0.00021507,-0.00014275,0.00046315,0.00021024,-0.00030841,0.00096514,0.00042766,-0.00014118,0.00011595,-0.00074479,0.00029044,-0.00023603,-0.00010601,-0.0000068285,0.0001254,0.000092392,0.000022622,0.00024196,-0.00041578,-0.000032735,0.000012347,0.00016603,-0.0004498,0.00011775,-0.00026966,0.00017989,-0.00058295,0.000079797,0.00045098,0.00036813,0.0000045701,0.000082416,-0.00036785,-0.00064981,-0.00055414,0.00015893,-0.00019145,0.00041125,-0.00037616,-0.00014258,0.00053666,-0.00026928,-0.00060259,0.00046161,0.00014793,-0.000031281],[0.00015751,0.0004424,0.000092495,-0.000099294,-0.00073169,0.00041058,0.000042062,0.00029968,-0.00095269,0.00010616,-0.00016751,-0.00080751,-0.00010254,-0.00026655,0.00012268,-0.000089919,-0.000058233,0.000054597,-0.00013444,0.00037495,-0.00049224,-0.000098911,-0.00019309,-0.00033565,0.0002279,0.0009581,-0.00018255,4.3712e-7,0.000010175,0.00055705,0.00049485,0.0002477,0.00061486,0.00083975,0.000046956,-0.00082893,-0.00063684,0.00058096,-0.000052094,0.00023248,0.00023157,-0.00035494,0.0003494,0.0004915,0.00022463,0.00022043,-0.00060882,0.00017889,-0.0010457,0.00052374,0.00067343,0.000044346,0.00076329,0.00054527,0.00058838,-0.000046484,0.00050345,0.00057533,0.00059082,0.00060924,0.00068499,-0.00036317,0.00047936,0.00013252],[0.00030368,-0.00082676,-0.0026653,0.0010255,0.00091096,0.000087002,-0.00022654,0.00049849,-0.00019225,0.00059933,0.0017003,-0.0017635,-0.0012639,-0.00019625,-0.00056025,0.00040051,0.0012243,-0.0013152,0.000046979,-0.00037684,0.0007474,0.00089709,-0.0004957,-0.00011818,0.0005599,-0.00092109,0.0011403,-0.00041764,0.001349,-0.0014983,-0.00053392,-0.00083797,0.0004198,-0.0010323,0.00061019,0.001329,0.00037914,0.00023706,-0.00031624,-0.00021665,0.0018951,-0.00033853,-0.00048532,0.00043384,0.00039027,0.00020964,0.00052801,-0.00064987,0.00095157,0.00019691,0.0010804,-0.00014269,-0.00015132,-0.00026237,0.0011526,-0.0000081017,-0.00063556,0.0011576,0.0011512,-0.00050387,-0.00071575,0.0011814,-0.000024412,-0.00025674],[-0.00056287,0.0020078,0.0011413,0.000044445,-0.00047239,-0.0015738,0.00052349,-0.00036755,-0.00073407,0.00069216,-0.00093845,-0.0001742,0.000057424,-0.00094972,0.0010142,0.00055646,-0.00021087,-0.00023779,-0.00034744,0.00023207,0.00037933,0.00035912,-0.000054751,0.0010669,0.00071697,-0.00049608,0.00040381,0.000059669,-0.00054191,0.00087441,0.00044734,-0.00022622,-0.00011181,0.00071796,0.0010579,0.00089754,3.8026e-7,-0.00025578,0.00007997,0.0014139,-0.001273,0.00027223,-0.00044946,0.0013867,0.000096698,-0.00021074,0.00049599,0.001095,-0.00014031,0.000010325,-0.00018729,-0.00086066,-0.00032251,-0.00094758,-0.00004223,0.0010585,0.0014363,-0.00063755,0.00047177,0.0000073682,-0.000047965,-0.0002192,0.00031262,0.00022875],[0.00034075,0.0050397,0.0079517,0.0015514,-0.0029185,0.0013738,0.0014301,0.0049502,0.0018578,0.0020083,-0.0017326,-0.0010912,0.0039435,-0.0010885,-0.0013616,-0.0013768,-0.0021207,0.00069064,0.0035281,0.0036678,-0.0053834,-0.0027168,-0.0011118,-0.0034767,0.0013432,-0.002729,0.00020155,-0.0013469,0.0024488,0.0010505,-0.0047552,-0.0022874,0.0050562,0.0050525,-0.00046695,0.00041212,-0.002298,0.0036152,0.0027323,-0.00062325,-0.00050416,-0.0004088,0.0037992,0.00022267,-0.0026062,0.0025241,-0.0094212,-0.00077544,0.0014667,-0.0000089979,0.0053613,0.00044362,-0.0038511,0.00063211,-0.00074023,0.00075525,0.0019777,0.00089356,0.0019264,0.0015603,0.0032434,-0.0038164,-0.00082108,-0.0071882]],"b1":[-1.3318,-2.1799,-1.9382,0.48575,0.71432,-1.2681,-0.48578,-2.1781,0.78745,-1.8464,0.4446,1.1225,-0.61389,-1.7468,0.053873,1.6228,0.47022,0.044086,-0.98607,-2.013,0.94734,0.61263,0.9102,0.27786,-3.0195,1.1679,1.2178,1.5811,-2.1515,-0.35154,2.3699,0.94804,-0.44385,-1.204,-1.4167,-2.3727,1.7526,-1.4602,-0.4274,0.23895,-0.052704,-0.88429,-0.94961,-0.38416,1.9852,-1.0036,0.75583,0.67979,0.44077,-1.0465,-3.3441,-0.3731,0.4886,-1.1845,0.4335,0.15306,-1.3397,-0.56886,-1.4349,-0.88958,-0.68141,0.72375,-0.6428,1.3292],"W2":[[0.15918,-0.037796,-0.0064865,-0.1602,0.0038947,-0.078768,-0.27394,0.016184,-0.056843,-0.0058869,-0.20634,-0.11937,-0.27957,-0.081557,0.32469,0.038443,0.078552,0.16448,0.11736,-0.14774,0.0098208,0.28325,0.043556,0.17953,-0.28056,0.32563,0.11669,0.14904,-0.12838,-0.20793,-0.011652,-0.1459,0.21071,-0.016133,0.34017,-0.016445,0.057695,0.15254,0.40495,0.047401,0.13274,0.13187,-0.05337,0.038323,-0.047173,-0.10941,-0.084862,-0.18647,-0.021421],[0.19553,-0.020496,0.080289,-0.041712,-0.1611,0.30903,0.06536,-0.18011,-0.094864,0.0084271,0.013102,-0.084921,-0.18947,-0.16056,0.067376,0.011826,-0.13382,-0.15148,0.16236,0.01922,0.085835,0.00010536,0.016887,0.012858,-0.18568,0.21409,-0.012761,0.13634,0.14209,0.0013601,-0.1239,-0.19489,0.2133,-0.13738,0.16421,-0.063002,0.10161,-0.10948,-0.12651,0.12422,-0.11537,-0.028247,-0.091826,0.0319,0.24633,0.046709,0.027412,-0.11827,-0.18497],[-0.079712,0.0092629,0.26551,-0.10104,0.15366,0.053926,-0.15531,0.054521,0.25862,0.046312,0.0036731,-0.0033544,0.025624,0.037632,0.082478,0.082213,0.058565,0.078449,-0.10456,0.15612,0.10256,-0.028453,-0.060661,0.17485,0.0065708,-0.086194,0.30779,-0.015733,0.017291,0.062404,0.00043942,0.036327,-0.14859,0.00017329,0.0055073,0.068003,-0.012869,-0.071389,-0.027075,0.11365,0.17501,-0.0030574,0.050283,0.036666,0.028837,-0.37774,0.015137,0.23744,0.060507],[-0.16005,-0.0647,0.15728,-0.10094,-0.16029,-0.43486,-0.055848,0.12025,0.076064,0.0028096,-0.14067,-0.22831,-0.067465,0.29018,0.13771,-0.071681,0.043687,0.082106,0.50599,-0.099494,-0.04443,0.072288,-0.021496,0.054736,0.10016,-0.059642,-0.082396,-0.2396,-0.073053,0.021027,0.10428,0.2413,-0.73703,-0.10002,-0.28273,0.018112,0.13569,-0.047982,-0.16326,-0.15143,-0.16144,-0.13925,0.013466,0.098133,0.0048867,-0.27517,0.017869,-0.094877,0.087537],[0.16868,0.022796,0.26531,0.027906,0.040239,-0.39992,-0.1208,-0.024792,-0.27588,0.082802,-0.052124,0.04694,-0.05529,-0.047601,-0.0076671,-0.060709,0.072758,0.026774,0.13727,0.12365,0.010477,-0.13422,0.056528,0.043665,0.1274,-0.11542,-0.24992,0.20018,0.20663,-0.071655,0.13487,-0.025926,0.063659,-0.15873,0.023922,0.13746,0.034716,0.034492,0.23643,0.10025,0.2724,0.067565,-0.059477,0.39606,-0.055684,0.045983,-0.066512,-0.17927,0.078338],[-0.1673,0.072877,0.34543,-0.036389,-0.092295,-0.093984,-0.10297,0.17353,0.17058,0.11859,-0.14395,0.17341,0.15679,0.0055843,0.013845,-0.11405,0.25133,0.056239,-0.092399,0.5107,-0.15827,0.046182,-0.061311,0.12351,0.11576,-0.081971,-0.14065,-0.14917,0.14812,0.050026,0.0084199,0.099495,0.068703,0.15786,0.13968,0.20008,-0.00059985,0.061888,0.39995,0.38224,0.095086,-0.14137,0.033996,0.14425,0.081417,0.02694,0.077431,0.0021143,-0.1852],[-0.055273,-0.12607,-0.11988,0.028109,-0.06351,-0.010318,-0.42567,0.2194,-0.45347,-0.068891,-0.051049,0.14526,0.42171,0.35674,0.079923,0.051728,0.19393,-0.11233,-0.070894,0.15425,0.089138,0.0028125,0.15939,-0.09715,0.31362,0.12056,0.15785,0.10862,0.25718,-0.061924,0.21892,0.26879,0.094694,-0.33794,-0.049527,-0.24532,-0.22481,0.022564,-0.099467,0.12601,0.0037698,0.090513,-0.051508,0.39599,-0.26065,0.048242,0.082767,-0.29463,0.21037],[0.094999,-0.057077,0.052496,-0.098041,0.32551,0.23165,0.06999,0.11138,0.043185,0.05849,-0.15938,0.15934,-0.08122,-0.083432,0.20129,-0.022506,-0.18478,-0.04645,-0.1703,-0.13702,0.1016,0.24637,-0.048439,-0.19424,-0.12611,0.041334,0.12671,-0.052482,-0.083098,-0.049391,-0.12959,0.033887,-0.26381,-0.086145,-0.21799,-0.14033,0.12521,0.3643,-0.44588,0.042248,0.0047945,-0.11196,-0.10211,0.013986,0.036577,0.16036,-0.1199,-0.24769,0.089625],[0.22367,-0.006299,-0.14291,0.050923,0.3175,0.10084,0.12373,-0.229,0.055627,0.31782,-0.01271,0.16835,0.044493,0.36253,-0.065223,-0.23165,0.0047893,-0.12313,0.23096,0.070012,-0.17558,0.18977,0.043016,-0.20842,-0.031312,0.21131,-0.02593,-0.093775,0.052853,-0.23224,-0.0080415,0.0074388,0.49898,-0.042158,-0.019304,-0.095908,0.052516,-0.3087,0.060084,0.06903,-0.027395,0.14776,0.12773,-0.277,0.25427,-0.28292,0.46836,-0.056164,-0.028294],[0.067272,-0.033531,0.22618,0.17796,0.31179,-0.041896,0.025551,0.031502,-0.0516,-0.14976,-0.12636,0.043027,0.055323,-0.073312,0.1561,0.15569,-0.18425,0.084994,0.015672,0.020686,-0.083346,-0.27191,0.30315,0.070804,-0.016465,-0.0054085,0.10154,-0.10744,-0.11109,-0.13202,0.058782,-0.062038,0.060086,0.19949,0.11155,-0.079118,-0.0086096,0.065921,-0.11322,-0.12266,-0.2657,0.015738,0.056509,0.1105,0.026524,0.28238,-0.53954,-0.38254,0.13473],[-0.11066,0.35613,-0.36149,0.016063,-0.14134,-0.12677,-0.11678,-0.21634,0.30206,-0.072263,0.061411,-0.0050516,-0.075944,-0.026283,0.1637,-0.071935,-0.076962,0.042908,-0.11529,0.054421,-0.048624,0.15359,0.11441,-0.20296,0.24732,-0.21268,-0.077948,-0.1613,0.14881,-0.061719,0.015143,-0.10397,-0.16221,0.18625,0.08584,0.13463,0.16312,-0.16955,0.014972,-0.068742,0.12194,-0.12687,0.015841,0.06921,-0.0026282,0.21715,0.11815,0.031718,-0.037673],[-0.12801,0.18486,-0.058228,0.020536,-0.063089,0.32874,-0.01398,0.037537,0.114,-0.065474,-0.14266,0.22446,0.42798,-0.13983,0.04767,-0.02032,-0.14078,-0.10773,0.22788,0.32789,0.088616,0.063495,-0.02422,-0.034715,0.049222,0.31406,0.44789,-0.016744,0.094666,-0.093732,-0.020789,-0.0074958,-0.059258,0.25822,-0.091819,-0.015101,-0.061502,-0.17241,-0.17823,0.15239,0.30477,0.015564,0.13405,0.23473,-0.15045,0.021432,0.15262,0.29898,0.03242],[-0.14802,-0.11413,-0.25387,0.065311,-0.27009,0.35479,0.041922,-0.10988,0.0081595,-0.11987,-0.050789,0.070099,0.20204,-0.05266,-0.16485,-0.13266,-0.21453,0.29157,0.10669,0.22742,0.010373,0.074105,-0.11204,0.10918,-0.073341,-0.10749,0.22783,0.11868,0.14361,-0.023805,-0.0027451,-0.19112,-0.12716,-0.048568,0.21378,-0.051152,0.056076,0.24611,-0.011649,0.11161,0.29424,0.031329,-0.20273,-0.24125,0.010705,0.40077,-0.067695,0.32336,-0.10286],[-0.041126,-0.1558,0.038545,0.1012,-0.10327,-0.067303,0.21613,-0.11928,0.10239,-0.019499,0.10974,-0.0070408,-0.014947,-0.012513,-0.029004,0.28501,0.033443,-0.2044,-0.095575,0.061575,0.095046,-0.038032,0.2461,0.059634,0.1203,-0.035438,-0.1456,0.11049,-0.19975,0.12374,0.063789,0.016194,0.006446,-0.25514,-0.07013,-0.0095727,0.14311,0.1235,-0.059463,-0.011149,-0.053855,-0.24202,-0.081886,-0.25919,-0.14191,-0.13503,0.054062,0.24835,-0.1446],[0.16431,-0.32448,-0.12145,0.19,0.08954,0.057733,0.18256,-0.30197,-0.28409,-0.037471,-0.079104,-0.020004,0.14041,0.1139,0.21555,0.074909,-0.37122,0.11915,-0.14829,0.1296,-0.059457,-0.07039,0.31911,0.2494,0.041624,0.034398,-0.14556,0.048198,-0.048502,-0.049441,-0.012709,-0.29329,0.040838,-0.19533,-0.086277,0.075338,-0.084064,-0.038078,0.042167,-0.059381,-0.18579,-0.010709,-0.059896,0.14717,-0.17665,0.027502,-0.094202,0.089088,-0.2357],[0.095543,-0.11494,-0.11859,0.067901,-0.01028,-0.089034,-0.0066182,0.018816,0.0052435,0.10909,-0.15847,0.074187,-0.14806,0.15286,0.23726,0.013149,0.32128,-0.071421,0.019022,-0.063905,-0.19279,0.03743,-0.11813,0.064448,-0.075735,-0.10509,-0.072721,-0.0040028,-0.031233,-0.046052,0.20966,0.18074,-0.1197,-0.054466,-0.17573,-0.12451,-0.063617,0.425,0.054065,-0.35819,0.15789,0.047273,0.083691,0.090135,0.32562,0.18641,-0.080954,-0.14109,-0.074484],[-0.11669,0.061114,-0.094117,-0.23738,-0.27406,0.0020578,-0.052416,-0.19551,-0.087193,-0.01311,-0.048458,0.090859,-0.04502,0.087964,0.15164,0.029294,0.089377,0.048995,0.11903,0.00017753,-0.10719,0.20632,-0.088179,0.021161,-0.012675,-0.10824,0.3284,0.13374,-0.2974,0.063493,-0.034182,-0.090445,-0.026699,-0.28173,0.10611,-0.040443,0.084305,0.061271,0.14643,-0.138,0.095878,-0.056256,-0.20325,0.021327,-0.13206,-0.045867,-0.20443,-0.022882,0.057793],[-0.033958,-0.037791,-0.15232,-0.24034,0.25672,0.11328,0.052488,0.22547,-0.34723,-0.1843,0.13268,0.11697,0.34919,0.14532,0.12595,-0.013519,-0.032177,0.16755,-0.024165,0.036509,-0.097851,-0.16587,-0.012595,-0.014969,0.05509,0.060658,0.25084,-0.10145,-0.17817,0.018643,-0.040523,0.21636,-0.034023,0.36518,-0.17979,-0.093552,-0.052819,0.15128,-0.11901,-0.13052,0.057128,0.096581,0.073143,-0.059372,-0.21788,0.085644,0.13084,-0.082948,0.19696],[0.016162,0.0099397,-0.32603,0.19687,-0.060025,-0.40906,-0.034221,-0.01395,0.11016,0.067453,0.1503,-0.033313,-0.022095,0.52424,-0.015934,0.039974,0.079675,-0.032159,-0.19746,0.17241,-0.18077,0.00081938,-0.14342,0.029881,0.017923,0.042303,-0.058005,-0.16297,-0.11052,0.18278,-0.047471,-0.00036279,0.13087,0.11823,-0.0032151,0.33888,0.1069,0.10391,0.4488,0.050567,-0.23391,-0.11851,0.037247,-0.123,-0.28854,0.0031301,0.3821,-0.012789,-0.026665],[0.35733,0.14751,-0.257,0.11849,-0.037652,-0.01735,-0.042114,-0.10515,0.138,-0.042262,0.12764,-0.072264,0.10318,0.023193,0.24218,-0.083735,0.013246,0.20457,0.10279,-0.2847,0.442,-0.099674,-0.22226,0.15657,0.050655,-0.4331,-0.25596,-0.22066,-0.036877,-0.037229,-0.021337,0.08273,0.17873,-0.18666,-0.012294,-0.11035,-0.22677,-0.29346,-0.32145,-0.033893,0.13538,0.089025,0.14302,0.19479,0.27018,-0.094927,0.034828,-0.11621,-0.34225],[0.11268,-0.35914,-0.18068,-0.16383,0.089719,0.21207,0.25696,0.01832,-0.15362,-0.086498,-0.18358,0.082407,-0.0010498,0.18419,-0.20326,0.0083976,0.20836,0.03276,0.1079,0.063169,-0.19707,-0.18227,0.016862,0.12567,-0.041469,0.35081,0.20745,0.020155,-0.11347,-0.092755,0.02097,-0.13282,-0.025114,0.081708,-0.055103,-0.17427,0.12339,0.058451,0.049097,-0.081574,-0.31321,0.098422,0.076071,-0.087729,-0.20831,-0.021501,0.093645,-0.012427,0.14039],[0.21449,0.18605,0.057439,0.22213,0.032129,-0.081273,-0.23793,0.22177,-0.078443,-0.22703,0.26393,0.3067,0.10347,-0.28879,0.093538,-0.019479,-0.04769,-0.011543,0.024946,0.22708,0.17963,-0.061618,-0.1288,0.19731,-0.10881,0.1182,-0.057161,-0.054936,0.024349,-0.084255,0.093566,0.045589,0.14126,-0.20243,0.10062,0.22945,-0.23544,-0.11578,-0.034231,0.10206,0.011302,-0.27252,0.21862,0.020333,0.34112,-0.052169,0.32615,-0.22262,-0.27946],[0.1426,-0.063496,-0.10149,0.02732,-0.33453,0.1377,0.072285,0.062654,0.055415,-0.12282,-0.045188,-0.3865,-0.074566,0.019736,0.13422,0.15162,0.24815,-0.084393,0.11384,0.12033,0.053342,-0.032888,-0.016363,-0.030357,-0.06197,0.042611,0.011321,0.048447,0.011657,0.16421,0.1334,-0.11425,-0.1801,0.14817,0.38894,-0.091491,-0.043804,-0.26155,0.042812,-0.41109,0.13886,-0.032212,0.30347,0.098686,0.19692,-0.40955,-0.14474,0.20781,0.040978],[0.014703,-0.35511,0.14294,-0.24636,-0.21853,-0.014622,-0.28578,-0.21713,0.18832,-0.027689,-0.33191,0.20116,0.083481,-0.10932,0.35938,-0.04163,-0.071966,0.094802,0.071731,-0.18093,-0.28004,0.045315,-0.072458,-0.10163,0.186,0.070129,0.32567,-0.20434,0.206,0.076681,-0.17647,-0.10547,0.19248,0.16511,0.047859,0.068728,0.10534,-0.096858,0.051286,-0.054651,0.22776,-0.2599,0.15614,-0.072999,0.053936,0.23804,-0.0010213,0.040731,0.0168],[-0.0011188,0.12222,-0.090225,0.033929,-0.34048,0.11151,-0.094283,0.39114,0.04513,0.036435,0.045557,-0.044714,-0.049321,-0.029718,0.016365,-0.0013034,0.07335,0.0083448,0.28158,0.1541,0.24711,0.17204,-0.26061,-0.051369,0.21689,0.32101,-0.10002,0.24498,0.045512,-0.10761,0.30077,-0.033206,-0.16973,0.13718,-0.24421,0.24888,-0.041854,0.020468,0.1503,-0.12986,-0.048041,-0.14521,0.047877,-0.001761,-0.10826,0.089011,0.26292,0.26104,0.10447],[-0.049193,-0.20557,0.11654,-0.060459,-0.12422,-0.287,-0.069111,0.016922,0.23172,0.17774,-0.0096665,-0.011652,0.05525,-0.11741,-0.064839,0.17284,0.021917,0.083543,0.082,0.28436,0.13539,0.23081,0.036743,-0.085871,0.11405,-0.29819,0.20323,0.063153,0.22775,-0.01739,0.10317,-0.033743,0.10358,-0.10249,0.08067,0.061398,-0.099445,0.29642,-0.10958,-0.23901,0.068792,0.083903,0.28281,-0.17427,-0.10932,-0.30753,0.25615,0.27073,0.081881],[-0.16824,-0.22254,0.1622,-0.015797,0.23496,0.1061,-0.010985,0.052635,0.043948,0.13927,0.042778,0.078878,-0.13713,-0.18782,-0.050661,0.0073562,0.041511,0.073473,-0.18585,-0.060206,0.061607,-0.11008,0.093395,-0.0038829,0.082482,0.25027,-0.018711,0.18951,0.33627,0.10119,0.085483,-0.049985,0.23805,0.099919,0.18518,0.17146,-0.018137,0.17125,-0.072238,0.12579,-0.072494,-0.047971,0.02386,-0.11356,-0.15752,-0.14845,0.019336,0.11524,0.096732],[0.32138,-0.064116,0.079675,0.13714,-0.12463,0.018512,-0.09655,0.055299,-0.10196,-0.055771,0.22109,-0.025967,0.20186,-0.2892,0.035005,-0.14313,-0.13847,0.080867,-0.093473,-0.068183,-0.045229,0.083557,-0.01572,-0.11957,0.30335,-0.078464,-0.0071796,-0.069734,0.10676,-0.10045,-0.22111,-0.19365,0.096527,0.30809,0.024295,0.042749,0.043779,0.12151,-0.095997,0.12464,0.14838,-0.0022132,-0.19164,-0.023182,0.27715,0.32054,0.057752,0.19127,-0.20595],[0.18507,-0.17862,-0.38188,0.021165,0.010727,0.24617,-0.043153,-0.3697,-0.050242,-0.033523,0.17159,-0.082639,-0.021155,0.14104,-0.029683,-0.097165,0.14717,-0.045154,-0.26053,0.28427,0.050905,0.16731,0.11792,-0.24584,-0.11774,0.15074,0.1304,0.28106,-0.15041,0.091964,-0.14938,-0.085068,0.056425,0.067842,0.29103,-0.13387,-0.035436,-0.036937,-0.11889,-0.25729,0.078892,-0.056726,0.00086963,0.23555,-0.013504,0.05964,0.011672,0.012097,0.20842],[0.013109,0.16218,-0.18766,0.21303,0.34375,-0.09576,-0.022929,0.14464,0.04088,0.0087051,-0.072761,-0.0051918,-0.20485,-0.14264,-0.16456,-0.087968,0.35656,-0.1136,0.029792,-0.30373,0.070057,0.0066568,-0.034614,-0.029209,-0.15268,0.026243,-0.028545,0.02971,-0.23529,0.13194,0.15307,0.011398,0.45553,0.12587,-0.24775,0.41612,0.23693,0.15084,0.1994,-0.11591,0.16938,0.0031573,-0.23455,-0.021199,-0.057401,0.16352,-0.068526,0.004844,0.13103],[-0.25958,0.026895,0.40456,-0.089215,0.082147,0.1618,0.22959,-0.11719,0.036327,0.35138,-0.055523,-0.14781,-0.010344,0.052777,-0.18626,0.22755,0.084262,0.11907,0.0069238,0.27886,0.15679,0.032333,0.040868,0.098512,-0.27361,-0.093915,0.10799,-0.051649,0.1596,0.18415,0.35877,0.20164,-0.034165,-0.29341,0.025363,-0.11051,0.17811,0.093915,0.17927,0.079281,0.047,0.075525,-0.19685,0.041391,0.14641,-0.02079,0.010536,0.067427,-0.14453],[0.13185,-0.077549,0.163,0.20705,-0.01182,0.38433,0.17728,-0.17415,-0.38472,-0.097569,-0.011852,0.0037397,-0.17398,-0.063287,0.043283,-0.24388,-0.19211,0.20017,0.14877,0.035007,0.02939,-0.06759,0.1727,-0.13112,0.08142,-0.0050011,0.043516,-0.23783,-0.20587,0.27879,-0.13107,0.076245,-0.076702,0.10881,0.15984,-0.11487,0.1213,-0.11218,0.075491,0.31551,0.070165,-0.14071,-0.037804,-0.15276,0.21948,0.025629,0.006865,-0.16193,-0.11831],[-0.046611,0.13067,0.042181,-0.075108,-0.21346,0.077043,-0.0018299,-0.23847,-0.094685,-0.041315,-0.079532,-0.042306,-0.054673,-0.37682,-0.16386,-0.21015,0.14556,-0.1671,0.078897,0.0077227,0.041646,-0.080702,0.059798,0.19789,-0.18975,-0.074846,0.13398,-0.03279,-0.31471,-0.073064,-0.050366,-0.11204,-0.072883,-0.25104,-0.12707,-0.044175,0.08427,-0.20187,-0.045784,-0.0088399,0.074283,0.12649,-0.18143,0.081999,-0.15637,0.0086074,-0.081816,-0.081094,0.052139],[0.07177,0.0032056,0.12517,0.14573,-0.0018582,0.1422,-0.14802,-0.11713,0.14228,0.10321,-0.09471,-0.16652,0.1809,0.081425,-0.18054,-0.050509,0.068232,-0.11271,-0.11948,0.34588,-0.16472,-0.25403,0.35986,-0.20427,0.17422,-0.16316,0.35288,0.097232,0.032498,-0.10921,-0.15054,-0.14652,-0.1577,0.15666,-0.13307,0.097021,-0.098063,0.019167,0.01547,-0.20374,0.11881,0.017752,0.076956,0.14741,-0.11999,-0.13032,-0.28915,0.13631,-0.24974],[0.054615,0.14128,0.46915,0.029002,0.094746,-0.026505,-0.087947,-0.12071,-0.51171,-0.15711,-0.063449,-0.13116,-0.038014,0.13222,-0.17652,0.14635,-0.16091,-0.01803,-0.17858,0.18947,-0.12727,-0.014122,0.10195,-0.26963,-0.0058752,-0.31545,-0.076713,-0.054429,0.15386,0.12244,0.069732,-0.092873,-0.058546,-0.048299,0.21552,-0.093335,-0.028354,-0.1229,0.10936,-0.27861,-0.19696,0.06717,0.04233,0.20341,-0.096961,0.021139,-0.18883,-0.01626,0.11145],[-0.16518,0.0156,-0.14546,0.049844,-0.03365,-0.34647,0.15761,0.20297,0.21214,0.16168,0.1914,-0.042842,-0.0199,-0.058491,0.038486,-0.14509,0.10965,-0.0053647,-0.15204,-0.40117,-0.19611,-0.28922,-0.12115,0.13389,0.099819,-0.30227,-0.27241,-0.26792,0.14857,0.063349,-0.070912,0.15964,0.031302,-0.14622,-0.33386,0.080283,-0.10587,-0.012853,-0.048259,0.051163,0.048315,0.19075,-0.16942,-0.13022,0.13942,-0.0017091,0.080883,-0.13905,-0.17505],[0.012211,0.17147,-0.25502,0.14463,-0.013004,-0.010027,-0.17958,0.15648,-0.0093546,0.35805,0.2077,0.02001,-0.006401,0.045424,0.043519,0.033932,0.23392,0.062248,0.092677,0.058705,-0.021667,-0.10245,0.20472,0.18448,0.13077,0.024866,0.062807,-0.10341,-0.20237,0.0039247,0.12328,0.078308,0.49496,0.1076,-0.014144,0.26011,0.040745,0.36274,0.012556,0.24106,0.084288,0.25896,-0.092545,-0.066358,-0.12432,0.2333,0.14396,-0.045889,0.11914],[-0.12726,-0.019572,0.076838,-0.061501,-0.058608,-0.18901,0.20827,0.28608,0.029927,-0.2096,0.31844,0.077606,-0.10041,-0.11949,-0.08559,0.3976,0.028847,0.17212,-0.0013397,-0.034344,-0.13588,0.10999,-0.13707,-0.15783,-0.019455,0.10769,0.292,-0.19648,-0.019517,0.033004,0.19431,0.12813,-0.085487,0.016741,0.015424,0.11541,0.055162,-0.19288,0.077562,-0.21035,-0.12375,0.027866,-0.33223,-0.18155,-0.070208,0.073268,0.14802,-0.083335,0.082032],[0.066297,-0.18444,0.055791,-0.0021786,0.08444,0.29698,0.10534,-0.061896,-0.37487,0.18758,0.054781,-0.19484,-0.078256,-0.11811,0.072833,0.055296,0.08835,-0.17358,-0.037195,0.42314,0.043907,-0.096475,0.015151,0.0046979,-0.013747,-0.024243,0.000027431,0.035492,-0.014553,0.29496,0.050286,-0.026425,0.16126,0.56275,0.1772,0.12587,-0.17783,0.13209,0.11212,-0.15996,0.19962,0.045887,0.042216,0.090303,-0.0021724,-0.063004,0.30159,0.063797,-0.14627],[-0.079983,-0.078371,0.058164,-0.18944,0.092767,-0.063864,-0.11641,-0.02386,0.021893,-0.051465,0.040367,0.18027,0.12712,-0.25106,-0.30861,0.20218,0.069297,0.26801,0.18573,-0.045544,0.17667,0.094479,-0.10557,-0.21332,0.19512,-0.15279,-0.076709,-0.19429,0.057937,-0.1492,-0.10007,0.22396,0.14486,0.16142,-0.0083685,-0.0017854,-0.023624,0.059641,0.016714,-0.035065,-0.0053852,-0.020493,0.013072,-0.10163,0.021166,0.002002,-0.11472,0.032934,0.15424],[0.086979,-0.019732,0.24961,0.09696,-0.070151,0.18797,0.050523,-0.06057,0.049879,0.081403,-0.2417,-0.2273,0.19839,-0.20691,-0.068628,0.12465,0.033956,0.15632,0.29436,0.20817,0.076162,0.11238,0.035864,-0.11703,-0.034656,-0.054423,0.061715,-0.15813,0.14895,-0.031362,-0.13774,0.020656,0.087565,0.28876,-0.17166,-0.16711,-0.12619,0.25557,-0.12555,-0.17454,0.2188,0.027629,0.15747,-0.43877,0.19637,-0.049052,-0.18435,0.1383,-0.080892],[-0.16506,0.1991,0.096734,-0.0025264,-0.0056471,-0.14835,0.019944,-0.068097,0.42924,0.1355,-0.17061,-0.1545,-0.069894,-0.219,-0.3643,-0.10418,0.02108,-0.26141,0.28296,-0.075722,-0.19532,0.28722,0.13625,-0.1595,-0.10094,0.20308,0.18847,-0.21805,-0.14748,0.032811,-0.42015,0.18711,0.095016,-0.23268,0.10173,-0.24419,0.12796,-0.072354,-0.070803,0.17451,-0.30724,0.16327,0.11752,-0.1448,0.02624,-0.096952,-0.067577,-0.18109,-0.14035],[-0.015276,0.065635,-0.17346,-0.20292,0.027883,0.1694,0.11855,0.018206,-0.27951,-0.2927,-0.017462,-0.05901,0.35964,-0.022373,0.07092,0.09743,-0.0066306,-0.15961,-0.25323,-0.075617,-0.23908,-0.1843,-0.037565,-0.10923,-0.30204,-0.024436,-0.052055,-0.032627,0.087958,-0.046547,-0.16609,-0.0031083,0.23586,0.43852,0.13003,-0.32227,0.068779,0.17892,0.19566,0.028754,0.054175,0.021945,-0.0011266,-0.0562,0.084602,0.064166,-0.06734,-0.091717,0.13757],[-0.28008,0.010697,-0.17313,0.35268,-0.034136,0.2378,0.18578,-0.048116,0.28806,-0.042896,0.23737,-0.18276,0.098665,0.11565,-0.009002,-0.070119,-0.041381,-0.11434,-0.1513,-0.08464,0.18574,0.066933,-0.20584,-0.18445,-0.15801,-0.17387,0.00040726,0.064131,0.11994,-0.13934,0.25334,0.18126,-0.23922,0.10561,0.26582,-0.15914,0.20125,0.29321,0.011073,-0.10798,0.02767,-0.088823,0.16757,0.089684,0.1324,0.14459,0.11491,0.42537,0.047469],[0.071242,0.046917,0.34745,-0.074582,0.34203,0.16171,0.11236,0.025661,0.019976,-0.20723,0.11973,0.24565,0.29473,0.1006,0.13822,0.030866,0.29601,0.17823,-0.20983,-0.043469,0.18568,0.085651,-0.099019,0.56181,0.096189,0.032132,0.044577,0.37937,-0.14013,0.017462,-0.014921,0.081274,-0.13117,0.22978,0.085511,0.12674,-0.18115,0.17771,0.17296,0.25242,0.029981,-0.1698,0.19523,0.061282,0.024653,0.21137,-0.023746,0.013946,0.23055],[-0.017297,-0.25019,-0.20591,-0.15412,-0.037485,-0.036408,0.051419,-0.03221,-0.14204,-0.048388,0.28229,0.19368,0.17718,0.16251,0.42713,-0.13115,-0.17861,0.30024,0.15236,-0.12347,0.022097,0.17241,0.42288,0.14893,0.36938,0.37249,-0.12324,0.40017,-0.083974,0.32342,0.19736,0.013241,0.19293,0.14879,-0.12531,-0.232,-0.2397,0.11364,0.058129,-0.24428,-0.30773,-0.13434,-0.028884,0.10786,-0.015773,0.0084882,0.066281,0.0026035,-0.11244],[-0.065952,0.18798,0.038781,0.0054813,0.22771,0.055684,0.0028674,0.041836,0.14551,-0.052334,-0.003384,-0.088133,-0.056234,0.19006,-0.16178,0.089575,-0.21407,0.013603,0.095673,-0.053538,0.15142,0.1675,-0.08439,-0.1804,-0.12534,-0.13123,-0.058067,0.016951,0.00064957,0.022197,-0.015168,0.16486,-0.2301,-0.053119,0.091723,-0.00079861,0.015984,-0.10008,-0.26796,0.14402,0.012428,-0.044899,-0.022934,-0.005289,0.15237,-0.31838,-0.046394,0.0075844,-0.14417],[0.2848,0.38526,0.046461,0.088862,-0.17856,0.014017,-0.13209,0.24924,0.18603,-0.1523,0.0399,-0.15607,0.033768,0.32174,0.19646,-0.17534,-0.17887,-0.072129,0.02887,-0.2154,-0.22214,0.065732,-0.29894,0.034374,0.12034,0.17356,-0.20722,-0.20532,0.12147,-0.33307,-0.098729,0.031453,-0.29478,0.25592,0.11704,0.03616,-0.0011074,-0.39686,0.15596,0.10388,0.0021473,-0.15743,0.16316,-0.20534,0.27983,-0.10316,-0.31156,0.056984,-0.015538],[-0.17424,0.087582,0.29211,0.033605,0.42143,-0.13132,-0.04488,0.28228,0.022544,-0.28577,0.05199,0.46626,-0.24845,-0.18234,-0.20218,0.3674,-0.20264,0.087126,0.29244,-0.2466,0.14968,-0.24246,-0.21342,0.088084,-0.134,0.36487,-0.089421,-0.015809,0.02275,0.071071,-0.070749,-0.015448,0.16965,-0.19155,0.02897,-0.01978,-0.087578,0.072012,-0.0099715,0.30295,-0.2463,-0.22017,-0.078805,0.25718,0.041674,0.16078,0.0032317,0.075644,-0.088918],[-0.042534,-0.107,-0.13896,-0.26168,-0.15028,0.13884,0.024928,-0.037953,-0.11895,0.11101,0.13572,0.0044294,0.097175,-0.22948,0.093806,-0.016483,0.17575,0.022597,-0.011163,-0.19099,-0.30619,-0.13858,0.1566,0.10268,-0.08946,-0.019508,-0.17621,-0.080477,0.26773,-0.096179,0.081033,0.090554,-0.23442,0.16824,0.033795,0.11797,0.11159,-0.12118,0.053634,-0.049094,0.14686,-0.03967,0.20961,0.2572,0.074473,-0.23702,-0.047781,-0.1683,-0.37538],[-0.23687,0.21788,0.2651,0.020632,0.068645,-0.133,-0.16381,-0.19972,-0.11913,-0.02035,-0.20202,0.15177,-0.1755,0.1686,-0.28924,-0.15885,-0.40831,-0.024469,-0.057476,-0.16171,-0.026328,-0.2414,0.11203,0.13287,0.069394,-0.10952,0.26429,-0.0077092,0.13998,-0.034972,-0.13336,-0.14382,-0.055219,-0.23264,-0.021723,0.084435,-0.016244,-0.38635,-0.017621,0.12688,-0.0094849,0.19268,0.22144,0.064595,-0.056257,-0.22869,-0.064607,0.1128,0.29308],[0.11461,0.034872,0.057634,0.17158,0.30229,0.14072,-0.13176,-0.31534,-0.067521,0.26301,0.34276,-0.12696,-0.096772,-0.15104,-0.026564,-0.12649,0.12028,0.090922,-0.079387,-0.15481,0.006335,-0.075929,-0.058688,-0.015334,-0.054572,-0.042761,-0.06803,-0.023193,0.062405,-0.02439,0.12451,-0.04496,0.071863,0.0080105,-0.094133,0.11558,0.030855,-0.065178,0.040754,0.22968,-0.13445,-0.075735,-0.12115,-0.015455,-0.0002191,0.12976,0.055808,0.31327,0.16503],[0.16461,0.21097,-0.36664,-0.084728,-0.31455,0.082913,-0.24346,0.080757,-0.021832,-0.084029,0.044226,-0.18879,0.079325,-0.26623,-0.097543,0.10647,0.069571,-0.0023193,0.10531,-0.16972,-0.15329,-0.21229,0.028028,-0.00030916,-0.11763,0.063026,-0.21336,0.19111,-0.087926,-0.056421,-0.02621,-0.27119,0.018546,0.28986,-0.13779,0.0497,-0.043097,-0.20666,-0.08696,-0.31468,-0.096848,-0.044487,-0.049498,0.0052483,-0.06079,0.22936,-0.27274,0.026714,-0.063573],[0.20032,-0.084179,-0.012891,0.10931,0.096555,-0.015054,0.21332,0.1139,-0.076675,-0.11014,0.064715,0.042812,0.043754,-0.16163,-0.24604,-0.13403,0.1001,0.040408,0.40672,-0.037494,-0.050592,0.0414,-0.44223,-0.30556,0.056543,0.08753,-0.064431,-0.12082,0.41745,-0.12632,0.11412,0.0059997,-0.024587,0.068691,-0.030836,-0.083714,-0.051525,0.1282,0.0083908,-0.11586,-0.1845,0.23264,0.0051001,-0.11181,0.25177,0.31792,0.12547,-0.32371,0.066089],[0.27886,-0.0063139,0.026822,0.14415,-0.11688,0.21907,0.085942,0.31018,-0.092807,0.3037,0.25495,-0.32577,0.26277,0.25303,0.06016,0.099054,-0.22068,0.17476,-0.17698,0.15879,0.0078617,-0.087334,-0.14321,-0.065752,0.10551,0.16552,0.066472,-0.079697,0.093698,-0.016892,0.17707,-0.09353,-0.043421,-0.15217,0.057722,-0.10978,0.095416,-0.14475,-0.13032,-0.19738,-0.20494,0.45783,0.099632,0.2882,0.050526,0.033368,0.040334,-0.057727,0.18902],[0.015583,0.29227,-0.12477,-0.12409,0.20668,0.02242,0.21847,-0.26216,-0.074854,0.071248,-0.030624,0.41278,0.11534,-0.20179,-0.0013505,-0.17118,-0.10563,-0.075449,0.048552,0.2423,-0.089424,0.28216,0.027288,0.21497,-0.074571,-0.022637,0.018854,0.39582,-0.01602,0.2735,0.18621,-0.22438,0.24499,-0.30696,-0.096751,-0.21723,-0.22124,-0.05722,0.12968,0.28786,-0.055195,-0.021725,-0.020974,-0.15222,-0.063329,0.18334,0.32848,-0.23428,-0.034324],[-0.056822,-0.25931,-0.0069204,-0.14247,-0.062901,-0.2861,0.12396,-0.11102,-0.11737,0.14288,0.066543,0.12576,-0.10224,0.27635,-0.17442,-0.1275,0.1775,0.029815,-0.21274,-0.065248,-0.13314,0.056809,0.13179,-0.077507,-0.073537,0.069847,-0.10172,-0.15701,-0.22963,0.036417,-0.11767,0.12489,-0.17195,-0.052259,0.057016,-0.12762,0.0011992,0.037192,-0.040787,0.23603,0.15266,0.079969,-0.083484,-0.053315,-0.10303,0.02241,0.2432,-0.049879,0.050797],[0.11109,-0.32313,-0.023109,-0.18985,0.11346,0.51933,0.14712,0.087097,-0.033792,-0.33244,0.1908,-0.047989,0.3706,0.18424,-0.11089,0.083744,0.040545,-0.22718,-0.063784,-0.21024,0.060376,-0.0092372,-0.098141,-0.097887,-0.18813,0.019636,0.13251,0.086205,-0.11952,0.013666,0.082214,0.24157,0.077076,0.20554,0.38044,-0.15081,0.19129,-0.27885,-0.066327,0.28746,0.26272,0.14815,-0.053552,0.22828,0.06723,-0.064874,0.16099,0.21764,-0.33575],[0.045164,0.10186,-0.5196,-0.037348,0.24401,0.0010695,-0.022459,-0.12351,-0.12445,0.062346,-0.24612,-0.11641,0.11447,0.059226,0.03585,0.026918,0.34396,-0.09809,0.051174,0.20085,0.021677,-0.045142,-0.018319,0.1734,-0.18496,-0.27927,0.11573,0.033698,-0.41934,0.033879,-0.13252,-0.013492,0.19344,0.090199,0.020953,0.23324,0.034511,0.36757,-0.088276,0.13204,0.27022,-0.070319,-0.1793,-0.3823,-0.28171,0.0019606,-0.067814,0.023614,0.041907],[-0.25532,-0.1944,-0.047018,-0.19973,-0.049082,-0.040363,0.20021,-0.049937,-0.13136,0.11038,-0.14244,-0.035954,0.034316,0.051157,0.1079,-0.092209,-0.057486,-0.0023785,-0.21723,0.0038989,0.049349,0.22785,-0.018777,0.079998,-0.05914,-0.0036151,-0.077475,0.0085947,-0.15956,0.26289,0.089899,0.042965,0.13036,-0.0041979,0.093164,-0.34373,-0.15664,0.14924,0.083573,-0.0019887,0.067956,-0.021022,-0.11839,-0.20017,0.26197,0.23189,0.1364,0.079642,0.22337],[-0.13255,0.060343,-0.038036,0.10199,-0.21463,0.13605,0.073684,0.11179,0.052087,0.04905,-0.060426,0.024862,-0.01443,0.070133,0.0066614,0.30975,-0.23321,-0.17897,-0.061657,0.20625,0.017553,0.079391,-0.1166,-0.032816,0.084176,0.34786,-0.31789,0.066476,-0.043734,-0.17659,-0.11581,0.16879,-0.088612,-0.094191,-0.015759,-0.031558,-0.020727,-0.2142,-0.092181,-0.06146,0.16335,-0.096383,0.031028,0.11564,-0.26088,0.21859,-0.13274,0.19782,0.17142],[0.0083538,-0.17859,0.2068,0.0066954,-0.16956,0.17748,0.23365,-0.070151,-0.033319,0.19632,0.056854,0.018496,0.062198,-0.14762,0.021252,-0.19418,-0.11729,-0.27151,-0.21321,-0.27606,0.017102,0.10797,0.065195,0.16282,-0.082431,0.16144,-0.21779,-0.058352,-0.16052,0.000069645,-0.029211,0.091175,0.13307,0.011178,-0.18117,-0.36374,-0.23033,-0.17656,0.12463,0.24784,-0.45544,0.16347,0.093686,-0.31638,0.029963,-0.036957,0.21119,0.064453,-0.051524],[0.058175,0.0049777,0.081246,0.032456,0.18056,-0.31549,-0.10716,-0.077929,0.08334,-0.14717,-0.12525,0.19412,-0.090106,0.34764,0.22007,0.19454,-0.023084,0.11391,-0.2363,-0.031592,-0.099708,-0.033328,0.014783,0.33129,-0.12679,-0.17718,-0.10979,0.092932,-0.24718,0.21884,-0.080799,0.074272,-0.29918,-0.16401,0.21082,-0.13783,0.15716,0.12104,0.046803,0.16434,0.027823,-0.069649,0.0033535,-0.047961,-0.2241,-0.36546,-0.29343,-0.10783,0.3225],[-0.22456,0.083413,-0.14899,0.13112,0.10421,-0.24221,-0.10607,-0.03321,0.052877,0.081106,0.057725,-0.020559,-0.13203,0.012893,-0.0015335,-0.27035,0.096273,-0.2917,-0.045229,-0.083736,-0.13495,-0.1228,0.0023752,-0.064791,-0.0079298,0.050379,0.020807,-0.058287,-0.039691,-0.076789,-0.10364,-0.10717,0.015966,-0.0065702,-0.25828,0.089508,-0.011347,0.10516,-0.12861,-0.19831,0.086782,0.013178,-0.25051,0.064731,-0.10811,-0.0017663,-0.038151,0.050181,0.14457]],"b2":[-0.018718,-0.029181,-0.018782,0.0086813,0.23519,0.10033,-0.052007,0.02403,-0.012268,-0.065632,-0.046816,0.1541,0.17323,0.034443,-0.012159,0.054811,0.021337,-0.097497,0.087945,0.071435,0.031332,0.015446,0.061444,-0.0014151,-0.052225,0.071597,0.1293,0.021265,-0.05531,0.04871,0.064012,0.0019861,0.22495,0.183,0.0039165,0.061151,0.061306,-0.055653,-0.020091,0.21308,0.16157,-0.049765,-0.068873,-0.0045822,-0.054104,-0.0017983,0.017831,0.12902,-0.042679],"meta":{"arch":"11-64-49","params":3953,"trained":1600}}