{"W1":[[-0.00022848,-0.000181,-0.00012416,0.00079892,-0.00034925,0.00019999,-0.000082286,-0.00065999,-0.00015613,-0.00027635,0.00052489,-0.00017477,-0.000021892,-0.00062004,-0.00063939,-0.00032787,0.00010143,-0.000092502,0.00016546,0.000095039,0.00037037,0.000072807,0.000082435,0.00041109,-0.00061723,0.00039454,0.00020382,-0.00043613,-0.0011963,0.000098382,-0.00042078,0.00033674,-0.00028389,-0.00036169,0.00029129,-0.00039134,-0.00061892,-0.00016243,-0.00062229,-0.000077583,-0.00023196,0.00012735,-0.000088614,-0.00013815,-0.00026024,0.00023614,-0.00018485,0.00071811,-0.00022193,-0.00059556,0.000023859,-0.00075066,-0.00064923,0.000099993,0.00030337,-0.00046458,0.0001757,-0.00032172,-0.00055875,0.00013359,-0.000085957,0.00027595,-0.000011882,-0.00044922],[0.000016498,-0.00024804,0.0002462,-0.000047317,0.00018116,-0.00038805,0.000090053,-0.000024347,-0.00085453,-0.00024742,0.000052187,-0.00017672,0.00046409,-0.00024026,-0.00021143,0.00012245,0.00020822,-0.00085891,-0.00034751,-0.00028238,-0.00016733,-0.00056215,0.00042209,-0.00025852,0.00046226,0.0001739,-0.00078884,-0.00093129,0.00071745,0.000069334,0.00043734,0.00048542,-0.0010544,-0.00019612,0.00019317,-0.00037567,-0.00035452,0.00028644,0.00038894,-0.00028482,-0.00019317,-0.00069446,-0.00062464,0.00011829,0.00008038,0.000098214,0.00031079,0.0003222,-0.00022524,-0.00058225,-0.00025745,-0.0000059724,-0.00015027,-0.00034268,0.00024234,0.000011559,-0.0010466,0.000039164,-0.0002576,0.000227,-0.00011868,0.00033674,-0.0012109,-0.000076686],[0.000056517,-0.00039654,0.00034064,-0.0002037,0.00061561,-0.00020975,0.000063722,-0.00020969,0.0001482,-0.000041136,-0.000264,0.00042025,-0.00030317,-0.00035588,-0.00010553,-0.000072477,0.00010056,-0.00030172,-0.00041708,0.00049443,-0.00012638,0.00062812,-0.00025135,-0.00017776,0.00023939,0.00072497,-0.000098289,0.000042796,0.00034128,-0.00012876,-0.000014425,-0.00067881,-0.0000041107,-0.00015893,0.00030935,0.00021512,-0.00030374,-0.00026666,-0.00031504,0.000026263,-0.00076267,-0.00039371,0.000056879,-0.00017229,0.000070529,-0.00041469,0.00008997,-0.00038936,-0.00054257,0.00013991,-0.00072926,-0.00015707,-0.00016278,-0.000050773,0.00051235,0.00022616,-0.00012977,0.00028784,-0.00042614,0.00020236,-0.00033558,-0.00022103,-0.00023215,-0.00029618],[0.00055981,-0.00024986,-0.00010785,-0.00045186,-0.0002309,0.00064855,0.00029602,-0.00020023,0.00047894,0.00063307,0.0001433,0.00041853,0.00078097,-0.00039899,0.0002819,0.000081664,-0.00043844,0.00057335,-0.00017471,-0.00021384,-0.0002375,0.0004425,-0.00042731,0.00051249,0.00013166,-0.00044886,0.00038118,0.000028697,-0.00013213,-0.00065855,0.00057926,0.00030513,-0.00030465,0.00024208,-0.0012973,-0.00016192,-0.00028788,2.9097e-9,-0.00066453,-0.000082193,-0.00039825,0.00012354,-0.00018449,-0.00018526,0.00039565,-0.00014494,-0.00039367,-0.000042827,-0.00055071,-0.00062984,-0.000046717,0.00019687,0.00055556,0.00026843,-0.00092523,-0.00031804,0.0003435,-0.00040275,0.00037835,-0.00018973,-0.00082325,0.00051531,0.00064958,0.00023096],[0.00035795,0.00036642,-0.00062992,-0.00035954,-0.00079966,-0.000001289,-0.00023499,-0.00046605,0.000057826,-0.00036015,0.000021159,-0.00013847,0.00027476,0.00015886,0.00045759,0.00030957,-0.00013902,-0.000086271,0.0010816,0.00036383,-0.00017626,0.00029904,0.00020771,-0.00048804,0.00058137,-0.000032545,0.00021679,0.0002026,0.000027349,-0.00025748,-0.00052511,-0.00032637,0.00020025,0.00056207,0.00039078,-0.000097759,0.000095745,-0.00017274,-0.000047014,0.00043206,-0.0006202,0.00019766,-0.00022387,0.00024249,-0.00033719,-0.000041317,-0.00014865,-0.00024265,-0.00053664,-0.00048951,-0.000034369,0.00013791,-0.00009094,-0.000072362,-0.00049539,-0.00030734,0.00004896,-0.000078262,0.00047328,-0.00034203,0.00024889,-0.00092199,0.00019146,0.00080981],[0.00010312,-0.00017054,0.00036869,-0.00018221,-0.0003419,-0.00065843,0.00024638,0.0003137,-0.00082408,0.00016975,-0.00022704,-0.00023273,0.00025692,0.00059046,-0.00013707,-0.0004236,0.00019795,-0.00044289,-0.000038222,0.000097783,-0.00031376,0.00025468,-0.0000073555,-0.00042688,-0.00042843,0.000096939,0.00051783,-0.000098195,-0.00019544,-0.00017215,-0.00073444,-0.0003712,-0.00014486,-0.000030267,-0.00037977,0.00040489,0.00021388,0.00052838,-0.00038321,0.00043768,0.000031135,0.00038512,0.00017879,0.00040426,0.00045295,-0.00019669,0.00032169,0.00028685,-0.00042342,-0.00032658,-0.00020332,-0.0002942,-0.00011898,0.0005741,-0.0000045581,0.00046326,0.0000063209,0.00035344,0.00075107,-0.00021856,0.00057168,-0.00026445,0.000089712,-0.00049089],[-0.0002545,-0.00019868,0.00014118,0.00061026,-0.00043607,0.00041333,0.00031477,-0.0000189,-0.000085267,0.00011386,0.00032441,-0.00044145,-0.000021456,0.00024334,-0.00018864,0.0003398,0.00015551,0.00064305,0.000024367,0.00032234,-0.00037015,0.000066823,0.00059733,-0.00035714,0.00069005,-0.000035374,-0.00027132,0.00031012,0.00039312,0.00045526,-0.0000059507,-0.00012913,0.000062891,-0.00011207,0.00019532,-0.00039975,-0.00041207,0.00010203,0.00020163,-0.000084267,0.00014971,0.00010918,0.000077292,-0.00030643,-0.00018038,-0.00052442,0.00015525,-0.0004595,0.00013555,0.00071276,0.000016636,-0.00037384,0.0001473,0.00063304,-0.0003297,0.00022917,0.0000028266,-0.00082061,0.00023345,0.000041472,0.000073945,-0.0000037374,-0.00035402,-0.00002009],[0.00042804,-0.0011166,-0.00042978,0.00088012,-0.00002233,-0.00030362,-0.000047514,0.00053692,0.00016469,-0.00046741,-0.00063839,0.00047621,0.00073534,-0.00059379,0.000098566,-0.00044022,-0.000305,-0.00050406,0.00034861,-0.00012133,0.00017042,-0.00033151,-0.0011016,-0.0000074767,0.00028638,-0.00014723,-0.00038743,0.00053402,0.000088062,0.00061737,0.00060658,-0.00050864,0.00033612,-0.00012594,0.00099799,-0.00038456,-0.000057545,0.000025774,0.000396,-0.0008263,0.00062985,0.0005126,0.00068141,0.00037173,-0.00051011,-0.00016709,-0.00012122,-3.1868e-7,0.0000050903,-0.00038429,-0.00039217,0.00087358,0.000055748,-0.00036064,0.00041234,0.00024691,-0.0006916,-0.00034982,0.00059899,-0.00066014,-0.00039956,-0.00028249,0.000039668,0.00033482],[0.00027536,0.000672,0.00076609,0.00042324,-0.00052391,0.0034181,0.00010225,-0.00013804,0.00035298,0.00088257,-0.00024081,0.0011145,0.00053174,-0.00079018,-0.00098055,0.0003769,-0.00080283,-0.00087694,-0.00019504,0.00075439,-0.00046598,0.00095796,0.0013364,0.00040758,0.0016193,0.00072213,-0.00014168,0.00055483,-0.00018368,-0.001055,-0.00033011,0.000013887,0.00057378,-0.001078,0.000163,0.00083189,-0.00080941,0.0012148,-0.0002918,0.0004505,0.00094507,-0.00026181,0.000085749,-0.00076894,-0.000321,0.002494,-0.000037,0.00023317,0.0011156,0.00034131,0.0006909,0.00067356,-0.00062276,0.00034852,0.00070987,0.0005488,-0.00040031,-0.00019449,0.00054153,-0.00028355,0.00045782,0.0010486,-0.0011655,-0.000021642],[0.0002295,0.00039788,0.0012249,-0.00033287,-0.00031122,-0.0012011,-0.0012113,0.0006244,0.0010473,-0.00058503,-0.00017501,0.000046043,-0.0018638,-0.00073511,0.0012392,-0.00042039,0.00072865,0.0010707,-0.00080908,-0.0013839,0.00081926,-0.00004729,0.0015323,-0.00036321,-0.00060255,-0.00076941,-0.00008021,0.00028044,0.00025589,-0.0010251,-0.00036784,-0.00028849,0.0009107,-0.00014442,-0.00062825,0.00087704,0.00021057,0.00031645,0.00046558,-0.00048753,-0.00052152,-0.0016057,-0.00018755,-0.000066037,-0.0011846,0.0005043,0.00077988,-0.00061423,0.0021063,0.00057458,0.00039084,0.0005511,0.0010289,0.0015379,0.0010769,0.000073771,0.0013481,0.001006,-0.00079047,-0.00096231,0.00017975,-0.00040127,0.00082248,0.000006951]],"b1":[-1.2672,2.0662,-0.7435,-0.73571,2.1311,-0.52961,-0.91173,1.3702,1.4541,0.25737,-0.21804,-0.22146,-2.4035,1.5217,0.75481,0.079661,0.0023661,1.3346,-0.46614,-1.4718,1.4827,-1.8353,-0.93624,1.3908,-2.4079,-1.3831,0.15546,0.69343,-0.26646,0.94274,0.7889,1.0917,1.6564,0.46217,-0.39263,0.92528,2.7124,-0.92462,1.6196,-0.017528,2.4457,0.22225,0.73752,-0.11331,0.60526,0.86302,-0.48771,0.062397,2.8373,2.6084,1.9166,0.9108,0.69071,-1.8352,0.17301,-0.11155,1.3455,1.3702,-1.2659,0.78172,0.71836,0.48878,1.6736,0.20247],"W2":[[0.20329,0.044296,0.030012,0.073428,0.03342,-0.0050544,0.16134,-0.24312,0.10984,-0.24996,-0.051252,0.15473,-0.0017527,-0.27814,-0.01173,0.32386,-0.057388,-0.12225,0.102,0.14913,-0.030232,-0.12772,0.16252,-0.44147,-0.2832,0.098432,0.074727,-0.12296],[0.084453,-0.0022187,0.10709,0.22557,-0.091839,0.092008,-0.2522,-0.14851,0.15663,-0.05487,0.10685,-0.30917,0.045882,0.050356,0.23806,0.15921,0.082312,-0.10986,0.14581,-0.044174,-0.26701,0.054167,0.098226,0.134,-0.13884,0.056241,0.30091,0.073314],[-0.051924,0.13589,-0.13156,0.17797,-0.0027247,-0.21942,0.037653,-0.018555,-0.0033693,0.096578,-0.11402,0.61629,0.14972,0.092373,0.042394,-0.093665,0.22723,-0.018987,0.00935,0.085584,0.22045,-0.014185,-0.16038,0.081825,0.37694,-0.29431,0.1587,0.22858],[-0.23879,-0.082436,0.216,-0.092414,0.0015711,-0.036822,0.2477,-0.011947,-0.065118,0.08656,0.36166,-0.00081393,-0.025692,-0.16364,-0.23682,-0.13392,-0.2237,-0.16596,-0.067776,-0.098918,0.25691,-0.058943,0.096475,0.23552,-0.08129,0.242,0.085405,0.054628],[0.0050983,0.059967,0.025246,0.043702,0.11665,-0.13023,-0.049752,-0.049525,-0.073795,-0.091494,0.002757,-0.27547,0.10329,0.074495,-0.13915,0.19599,0.0067392,0.028676,-0.09664,0.12648,0.20286,0.092355,-0.078429,-0.093864,-0.10882,0.02104,0.2965,0.1307],[-0.12909,0.16128,0.023811,0.16227,0.11477,-0.050324,-0.17569,0.032838,0.048376,-0.061466,-0.082315,-0.0053233,-0.19096,-0.03237,0.13889,0.063667,-0.04065,0.11642,0.073404,0.051151,-0.046656,0.075199,0.11741,0.068585,-0.17011,0.030753,0.046495,-0.1101],[0.037736,-0.088224,-0.20442,0.15686,-0.15012,-0.049319,-0.038345,-0.04048,-0.32846,0.22414,0.16753,0.1241,0.10566,-0.047494,0.24088,-0.20365,-0.11607,-0.00088891,-0.17399,0.11144,-0.012378,0.33204,0.14086,0.1408,0.2032,0.059335,-0.089715,0.029522],[-0.12828,0.1228,0.10382,-0.42633,-0.0040099,0.016492,-0.14966,-0.26672,0.21528,0.13969,-0.045495,-0.25246,0.54318,0.082519,0.20455,0.02698,0.10442,-0.097337,0.04927,0.038359,-0.018926,0.020671,-0.038991,-0.11692,0.086662,-0.086866,0.020892,-0.090928],[-0.10256,-0.0023367,0.055702,0.12667,0.13906,0.04125,-0.14373,-0.0074513,-0.21547,0.27305,-0.13047,0.21755,0.21709,-0.21079,-0.060834,0.1465,0.20699,0.11226,0.11138,-0.031485,-0.017369,-0.20149,0.20088,0.027656,0.026318,0.044804,-0.18091,-0.035704],[0.11193,-0.35157,0.0066185,-0.049233,-0.027174,0.19082,0.30205,0.018734,0.082225,0.23605,-0.094504,-0.1419,0.1333,-0.102,-0.45285,0.323,-0.095441,-0.20333,0.058969,0.039901,-0.071738,0.010898,-0.065477,-0.12918,0.15561,0.072476,-0.17748,0.31477],[0.22699,0.47649,-0.15167,-0.20627,0.078114,0.073984,-0.016577,0.21291,-0.028517,0.054704,0.41362,0.05541,-0.2453,-0.0057108,-0.24531,0.021695,-0.056625,0.13464,-0.035822,0.087298,0.19805,0.061439,0.044575,-0.01427,0.016841,-0.047678,-0.22315,0.088206],[-0.40649,-0.11686,0.083708,0.054645,0.1141,-0.066535,-0.3702,-0.044991,-0.16145,0.18553,-0.20414,-0.20031,0.17596,0.23765,-0.066746,-0.022915,0.037289,0.22211,-0.030456,-0.10732,-0.2715,0.0059451,-0.17446,-0.1947,0.056425,0.10765,-0.3421,-0.32404],[0.083918,-0.031218,-0.21357,-0.0041169,0.054878,0.080474,-0.082967,0.062123,0.056958,0.079084,0.0023676,-0.063263,0.043959,0.19732,0.051973,-0.25431,0.066594,0.075022,0.21519,-0.050681,-0.29129,-0.15057,-0.057405,-0.12956,0.19119,0.0050448,-0.20106,-0.018095],[0.098263,-0.059315,0.010764,-0.10726,0.18834,0.030602,0.12334,0.02648,0.053148,0.068434,-0.021789,-0.022943,0.43273,0.030968,0.29271,0.068895,0.015728,-0.052919,-0.085832,0.069284,0.22633,0.063756,0.33958,-0.16858,0.16614,-0.296,-0.04814,-0.033247],[0.10077,-0.028875,0.079274,-0.24907,-0.095341,0.27166,-0.014177,-0.1501,-0.18156,0.34943,0.070632,0.41387,-0.31403,-0.084497,-0.20473,-0.027346,-0.25417,0.0052731,0.26732,0.0095248,0.11063,-0.01681,0.19948,-0.074654,0.02149,0.034586,0.11212,0.32662],[0.035738,-0.011097,0.058669,-0.19584,0.061083,0.01672,-0.042337,-0.079153,-0.29097,-0.0055345,0.23594,-0.031076,0.21802,0.17757,0.11329,0.10435,0.32323,0.016634,-0.010828,-0.36794,-0.18291,-0.13672,0.11572,-0.099076,0.22406,-0.26867,-0.29419,0.11588],[0.19774,0.0040421,-0.18091,-0.32782,-0.32801,0.084806,-0.078717,0.011333,-0.10246,0.07458,-0.23322,-0.12251,0.072898,-0.22415,0.21905,-0.064199,0.12213,-0.081102,0.020279,-0.16594,-0.12272,-0.037122,-0.012104,-0.26848,-0.31199,-0.036626,0.10182,-0.015448],[-0.11119,-0.23726,0.12717,0.0082666,0.027875,0.02687,0.23686,-0.043879,0.059285,-0.44812,0.16417,0.061586,-0.046828,0.047468,0.22106,0.056387,0.17849,-0.18177,0.037602,0.21539,-0.061992,0.13796,-0.34684,0.050703,-0.38389,0.098174,0.043203,0.0023272],[0.12285,-0.051257,0.12588,0.18245,0.2686,0.0036653,-0.11807,0.053949,0.20868,-0.15934,0.00099215,0.10634,-0.10769,0.19556,0.1822,0.13072,-0.023859,-0.27514,-0.10706,-0.28201,0.15336,0.1985,-0.11202,0.26503,-0.14871,-0.02017,-0.10619,0.12874],[0.15677,-0.084377,-0.059718,0.24178,-0.0050364,-0.1177,0.060073,-0.3868,-0.0060784,-0.12884,-0.045501,0.015094,0.08212,-0.1747,-0.08337,0.23706,-0.027646,-0.023709,-0.044539,0.11671,-0.062025,0.014726,-0.086989,-0.34976,0.20168,-0.2177,0.11392,0.25008],[-0.048651,0.0037751,0.13727,-0.073861,-0.073019,0.13191,-0.27286,0.18409,0.12546,-0.23969,0.35847,0.078157,-0.12797,-0.083918,0.13595,0.19205,-0.053555,0.11928,0.0041939,0.2806,0.053223,-0.23027,-0.097503,-0.042339,0.039784,-0.018158,-0.20648,0.060039],[-0.17849,-0.10056,0.0915,-0.13306,0.098833,0.17135,0.052733,0.1451,-0.10644,-0.21848,0.013892,-0.14478,-0.17512,0.040324,0.036496,0.030389,0.25544,-0.13482,0.29605,0.049335,0.11993,-0.089844,0.19166,0.42675,-0.11936,0.0045939,-0.028733,-0.19826],[-0.12079,-0.28591,0.10413,0.044292,-0.003489,0.17159,0.19083,-0.17015,-0.078438,-0.25896,-0.074585,-0.025495,0.20632,-0.13578,-0.12456,-0.074021,-0.13464,-0.11681,0.058759,0.17183,-0.17845,-0.19477,0.16344,-0.19688,0.080042,-0.049708,-0.14815,-0.058217],[-0.059285,-0.065708,-0.12476,0.093468,0.049313,-0.11923,0.28991,0.30061,-0.0325,0.012862,0.06718,0.22936,0.075759,-0.016769,0.072513,-0.3104,-0.10376,0.083529,-0.16318,-0.1533,0.29969,0.15892,-0.32231,-0.12254,0.18201,0.023016,0.15665,-0.12537],[-0.1257,0.10955,0.050268,-0.11859,0.0089567,-0.04803,0.074004,0.037528,0.15979,0.17562,-0.18726,0.026968,-0.044333,-0.19286,-0.073924,-0.15466,0.056685,0.029563,-0.027273,0.00054266,0.16906,-0.010307,-0.13788,-0.074336,-0.14673,0.14826,0.15295,-0.10389],[0.03271,0.084363,0.0097828,0.019215,-0.007615,-0.012314,0.088681,0.19561,-0.094204,-0.0039832,-0.12886,0.29654,0.097669,0.12995,0.2941,-0.0098852,-0.005364,0.076278,0.013372,-0.20873,-0.14662,0.014193,0.1477,0.23978,-0.12426,0.0028777,0.30353,0.27942],[-0.065731,0.12121,-0.021496,-0.029826,0.14452,0.20485,0.023761,-0.087357,-0.12786,-0.13998,-0.23417,0.059052,-0.30497,-0.25876,-0.1763,-0.1707,-0.15721,-0.036414,0.02221,-0.10478,-0.16659,0.042824,-0.20321,-0.14246,-0.093343,0.23132,-0.36899,0.28901],[-0.19051,-0.18854,-0.052993,0.23026,-0.17899,-0.041608,0.069392,-0.09872,0.080897,-0.05374,0.049018,-0.0019036,0.0077205,-0.016822,-0.017749,0.14194,-0.062989,0.37108,0.18129,0.073776,0.32261,0.026709,-0.0056029,0.37726,0.24311,0.1228,0.1627,-0.14608],[0.059632,-0.016238,0.29324,-0.052726,0.021161,-0.16598,-0.035499,0.186,-0.051749,-0.17024,-0.074271,-0.0039392,0.042557,-0.1112,-0.049032,0.018307,-0.23982,0.074581,-0.21627,-0.238,0.019153,-0.013496,-0.088384,0.14769,0.071326,0.15796,-0.12351,-0.12935],[0.17871,0.1232,0.068146,0.070034,-0.11257,-0.040373,0.092638,0.16626,0.0852,-0.038435,0.035226,-0.041031,0.010729,-0.061238,0.50991,-0.026594,0.15305,-0.056936,-0.029574,0.055605,-0.049719,-0.044267,-0.093811,-0.048897,-0.022296,0.046282,-0.040024,-0.12885],[0.25155,-0.21569,-0.077476,-0.045645,0.20115,0.13998,-0.075879,-0.06333,-0.15022,0.094719,-0.023807,0.12206,0.05688,0.14962,-0.1039,0.27436,-0.2732,0.030174,0.176,0.10052,-0.0039073,0.17848,-0.1429,0.0068795,-0.12962,-0.23126,-0.26561,-0.066103],[-0.047606,-0.050775,-0.20391,-0.19796,0.035186,0.037894,-0.24324,-0.10453,-0.23859,0.14011,-0.038611,-0.0839,-0.14766,-0.20638,-0.26574,0.02202,0.091987,0.17321,0.036903,-0.20953,0.19748,-0.0058532,-0.086826,0.021006,0.14093,0.12362,0.22238,0.0015157],[-0.14502,0.061784,0.36624,-0.00069896,-0.0094257,0.2833,0.18978,0.031959,0.055795,0.018765,-0.27783,-0.077949,-0.088669,-0.0035795,0.0057308,0.21087,-0.052792,0.1304,-0.041991,0.27219,0.12411,0.018706,-0.16171,0.061665,-0.031263,-0.028219,0.25213,-0.12905],[-0.14858,-0.011236,-0.079674,0.0088676,-0.053882,0.0049624,0.039593,0.16594,-0.0013312,-0.0024455,-0.17444,-0.32063,0.15471,0.011905,-0.016042,-0.20941,0.26353,0.073154,0.028009,-0.13718,-0.081165,-0.063232,0.08159,0.18422,0.15009,0.20855,-0.29818,-0.12739],[-0.15463,0.19941,-0.099944,0.010829,-0.03583,0.027355,-0.30479,-0.064756,-0.027229,0.40692,0.12607,-0.17487,0.13437,0.057488,0.028855,0.24707,-0.1289,0.23246,0.011918,0.58491,0.020669,0.25748,-0.14132,-0.095479,0.1244,-0.14208,-0.0032637,0.016055],[-0.068083,0.13083,-0.083435,-0.39066,0.043171,-0.13422,-0.060784,0.30168,0.05737,-0.03826,-0.42763,-0.096678,-0.12645,-0.12546,-0.19355,-0.027909,-0.034061,0.093399,0.11177,-0.094752,0.050623,-0.11517,-0.0084867,0.11256,0.12775,0.057809,0.42852,-0.14966],[-0.12632,-0.1185,-0.021738,0.21514,0.014656,0.062552,0.18051,-0.010917,0.026629,-0.031873,0.11969,0.41672,-0.081533,-0.06828,0.070058,-0.030013,-0.028052,-0.10783,-0.080996,-0.089071,-0.27337,-0.085933,-0.10356,0.11049,-0.086871,-0.12435,0.070951,0.0026362],[0.56865,0.085858,-0.18691,0.043088,-0.12072,-0.062688,-0.14525,0.22145,0.044458,-0.18743,0.31436,-0.17772,0.096442,0.10608,0.18442,0.19184,-0.029186,0.10165,-0.18487,0.020294,0.13411,0.34955,-0.21341,-0.085266,0.13687,-0.31777,0.089477,0.11329],[0.019912,0.070066,-0.078026,0.086958,0.070526,0.035975,-0.14443,-0.10293,0.0099843,0.13245,0.0034208,-0.0049324,-0.13088,0.10862,-0.10338,0.014782,-0.31969,0.10609,0.023028,-0.11997,0.12574,0.10097,0.2092,-0.019227,0.13019,0.34665,0.15595,0.25805],[-0.048303,-0.053721,0.045633,-0.1755,-0.23576,-0.24573,0.13443,-0.063586,-0.030827,0.14287,-0.0038146,-0.088593,0.032114,-0.051311,0.12584,-0.1463,-0.12085,0.1551,-0.070102,0.065713,-0.048889,-0.094911,-0.16178,-0.15639,0.071722,0.10501,-0.010301,-0.41995],[-0.019339,0.13928,-0.094896,-0.082259,-0.041367,0.065789,-0.080346,-0.066593,-0.054758,-0.11721,0.23703,0.093503,-0.17082,-0.069444,0.079564,0.010787,0.15816,0.041496,0.062997,0.096179,-0.16167,-0.17444,0.13627,-0.063921,-0.046534,-0.1055,0.026419,-0.031863],[-0.16655,-0.12475,-0.35167,-0.19854,0.065309,0.014302,0.18313,0.12244,0.019589,-0.084392,-0.12122,-0.19763,-0.16794,-0.25167,-0.40471,0.3356,0.14443,0.16362,0.088892,-0.001102,-0.093572,0.010576,-0.18844,-0.16264,-0.36932,-0.32341,-0.13335,0.17252],[0.28636,0.064037,0.23599,0.13115,0.11002,0.26631,0.066155,0.06442,0.13017,-0.25018,-0.021329,-0.050503,-0.24632,-0.17126,-0.03389,-0.36941,0.34302,-0.047596,-0.0016535,-0.061372,0.059075,0.22295,-0.0031675,-0.26125,0.061542,-0.11482,0.033591,0.41674],[-0.05745,-0.19406,-0.12907,0.15146,-0.12701,-0.039806,-0.016926,-0.11568,0.10051,-0.16935,0.15429,0.062651,-0.17085,-0.13181,-0.04313,-0.20632,-0.13538,0.14499,-0.09204,-0.050604,0.27645,-0.1496,-0.052843,0.013619,0.15526,-0.022372,0.063918,-0.05112],[-0.095911,0.31764,0.37239,0.15639,0.093959,0.095619,0.16583,-0.226,0.098438,0.072043,0.14498,0.063795,0.0092485,0.0046986,0.32328,-0.14205,-0.37585,0.038959,-0.095612,0.047597,0.2436,-0.15351,-0.013129,-0.027005,-0.11944,0.20278,0.10475,-0.012715],[0.2184,-0.15727,0.042731,-0.15657,0.066366,0.048419,0.24695,0.0093707,-0.0074146,0.16803,0.3838,-0.013654,-0.024292,0.10093,0.037138,-0.086623,-0.099602,-0.19729,0.055934,-0.19778,0.16871,0.22168,-0.10308,0.072067,-0.2353,0.047104,0.05677,0.13707],[-0.17819,-0.078077,0.21654,0.10017,0.10521,0.097493,0.1007,0.072849,-0.14057,0.33962,-0.2678,-0.20478,-0.14791,0.10977,-0.2294,0.15473,0.19041,-0.20861,-0.036169,-0.03467,0.059359,0.12706,-0.29232,0.0086694,-0.17973,-0.07729,0.21938,0.077313],[-0.2565,-0.028,-0.067514,0.13041,-0.030987,-0.14372,-0.25973,-0.18546,-0.05761,0.043426,0.46624,-0.10935,0.18794,-0.12115,-0.56719,0.14908,0.23278,0.071297,-0.042197,0.035306,-0.18578,0.12059,-0.094823,0.13442,-0.017054,0.044116,-0.016098,-0.082507],[-0.061223,0.0771,0.12764,0.29783,0.094991,0.017366,0.068285,0.029585,0.19427,-0.053727,0.086242,-0.11354,0.076118,0.0387,-0.11005,-0.0059944,-0.17377,-0.014747,0.18741,0.010792,0.1042,0.18188,0.069887,0.093485,-0.028015,-0.15761,-0.093921,-0.1197],[0.17007,0.05472,-0.0008137,-0.18841,-0.11536,-0.18354,0.0060362,0.24749,-0.14184,0.060027,0.07267,0.15895,-0.061453,-0.040269,0.12658,-0.27679,0.2255,-0.058468,0.24199,-0.018063,-0.14104,-0.0095413,0.3243,-0.25582,-0.019413,-0.021419,-0.32761,0.12526],[0.064943,-0.20243,-0.052107,0.019723,-0.052076,-0.10226,0.34524,0.11003,-0.052361,0.10431,0.11871,0.20933,0.10385,0.22979,0.053339,-0.04847,-0.040858,0.095068,-0.21509,0.18475,-0.015831,0.044778,0.054623,0.10097,0.22416,0.071335,-0.20922,0.23986],[0.16803,-0.071803,0.34818,0.22828,-0.19019,-0.24797,0.053596,0.10859,0.037263,-0.025074,-0.23009,0.050351,-0.06854,-0.064017,-0.1401,0.035666,0.17943,-0.25022,-0.096913,-0.15886,-0.15076,-0.17799,0.20614,0.36291,0.015218,0.16146,0.16514,-0.081986],[-0.33461,0.045007,0.033227,0.093759,0.12033,-0.3995,0.1564,0.19114,-0.012545,-0.084593,0.12766,0.11103,-0.063166,0.048152,0.063002,-0.47638,0.27959,-0.087857,0.020013,-0.20568,-0.083843,-0.03728,0.37252,0.21533,-0.24221,0.24002,0.079481,0.048288],[-0.015789,0.029111,0.023953,0.020896,0.0032122,-0.069761,-0.24799,0.080924,0.19491,0.26889,0.072772,-0.16905,-0.14418,0.1332,-0.0063671,0.027222,-0.25116,0.27059,-0.082357,-0.19269,-0.049175,0.091472,-0.04147,0.15339,0.021866,0.34764,-0.14052,-0.17252],[0.088185,-0.035423,-0.07209,-0.13877,0.17136,0.014737,0.061592,0.021021,-0.19033,-0.0096646,0.053416,-0.18017,0.077043,-0.18669,0.2021,-0.19628,0.20161,-0.032175,0.059038,0.23559,-0.064372,-0.14766,-0.048815,-0.32374,-0.056597,-0.081473,-0.055551,0.31906],[0.051389,0.036625,0.3263,-0.14862,-0.038662,0.16346,0.1308,-0.24143,0.056262,-0.027858,-0.01593,0.058446,-0.020405,0.11393,-0.03037,-0.056337,0.0078585,-0.22836,0.082764,-0.10479,-0.10928,0.028994,-0.16812,0.11319,0.052808,-0.24085,0.015584,0.28324],[0.17245,0.2348,-0.19668,0.082996,0.033358,-0.048179,-0.12495,-0.26525,0.043637,-0.01442,-0.13533,-0.036032,0.026134,0.19226,0.066027,0.18848,-0.0033764,0.049852,-0.15033,-0.221,-0.04543,0.10358,0.24719,0.12884,0.12343,-0.22328,0.23955,-0.076703],[-0.0097443,-0.19827,-0.010286,0.16679,0.20907,0.13333,0.087246,-0.066181,-0.049773,-0.011439,0.044606,-0.17213,-0.0016827,-0.16207,0.19551,0.33612,-0.032525,0.076124,0.24299,-0.034967,0.085064,0.013881,-0.12638,0.12324,0.13737,0.30454,-0.1525,-0.066534],[-0.020917,0.07276,0.14272,-0.048725,-0.18347,-0.0055327,0.040054,0.10445,-0.046513,-0.10958,0.12997,0.0053465,-0.036302,0.10355,-0.13747,0.059491,0.17053,-0.12353,-0.30593,0.019557,0.26756,-0.056905,0.22811,0.12485,0.0078907,-0.22114,0.053138,0.16542],[0.024693,0.11064,0.14385,-0.22478,0.0088344,-0.3403,-0.086697,-0.10643,0.066304,-0.070427,-0.14182,0.0051347,-0.06601,-0.02812,-0.21369,0.051102,-0.087028,-0.22406,-0.0018834,0.14637,0.062549,0.16417,-0.044575,0.31111,-0.088516,-0.17452,-0.01258,0.31551],[-0.26685,-0.13438,0.091317,0.055411,0.082508,0.03037,0.099778,0.076789,-0.1263,0.038988,-0.13844,0.36846,-0.10566,-0.095345,0.07017,-0.17021,0.092627,0.1529,0.028206,0.028394,0.23276,-0.28338,-0.077231,0.027235,-0.082358,0.15574,0.2084,-0.12521],[0.14429,0.3664,0.027327,-0.16261,-0.1776,0.04986,-0.089029,-0.13983,0.060397,-0.11642,-0.20011,-0.0014579,0.10238,0.092012,0.20182,-0.040837,0.16613,-0.093328,-0.049973,0.1364,-0.020286,-0.45513,0.19232,-0.22188,0.03792,0.063402,-0.11472,-0.12251],[0.23467,0.051348,-0.21789,-0.13576,-0.26212,-0.12823,0.091329,0.027774,0.04012,0.25383,-0.2282,-0.36741,0.039732,0.16207,-0.49159,-0.10829,-0.16263,-0.01735,-0.12174,-0.018252,0.015111,-0.087029,-0.051437,-0.057156,0.19092,-0.064822,-0.023233,-0.28711],[-0.016642,0.15643,-0.034746,-0.081972,0.088578,0.039269,-0.091905,-0.11291,0.020087,-0.17101,0.011331,-0.12672,0.020553,0.25566,-0.20977,-0.080802,0.16857,-0.12419,-0.24529,-0.14936,-0.09009,0.094948,0.10169,0.11124,-0.15519,0.093146,0.32678,-0.11407]],"b2":[-0.030061,-0.10698,0.14176,-0.040298,-0.046469,-0.0066731,0.062428,0.034375,-0.073312,-0.076537,0.16315,0.012729,-0.11332,0.020205,0.268,-0.013183,-0.055373,-0.036888,0.13984,-0.06311,-0.13396,-0.0036504,0.065283,-0.066945,0.026324,0.023261,0.051701,-0.041899],"meta":{"arch":"10-64-28","params":2524,"trained":1600}}