{"W1":[[-0.0012121,0.0011206,0.0004475,-0.00030196,-0.0023597,0.0007568,0.00056176,-0.00088282,0.00010356,0.00021331,-0.0016404,-0.0016409,0.0015428,0.0011081,0.00069123,-0.00021938,-0.0031685,-0.0010475,-0.0017357,0.0012858,-0.0035014,-0.0013098,0.0019843,-0.00016727,-0.00071353,-0.0001989,0.0014587,-0.00010854,-0.000012258,0.0010758,0.002681,-0.00007425,0.0034897,0.0007975,0.0020429,-0.000013743,-0.00023115,0.0008699,0.000021765,0.0025016,0.000034623,-0.00079579,-0.0018254,0.000088018,-0.00072021,-0.0003434,-0.0026408,-0.00086861,-0.00014552,-0.0013658,-0.0020167,0.0033418,0.00046201,-0.0010485,0.00097173,0.00091173,0.0013668,0.0035562,-0.0019005,-0.0030866,0.00026211,0.001677,-0.0038949,0.0015361],[-0.00070167,0.0021652,-0.0032104,-0.00051024,-0.00086221,-0.0012699,0.0017455,-0.0012543,-0.0022844,-0.00076482,0.00026681,-0.00052973,0.00087222,0.00002457,0.0012899,0.00061601,0.00016468,-0.0014823,0.000042445,-0.0019981,0.0026563,-0.00040895,-0.0022862,-0.0018096,0.0019209,0.000051143,0.000064076,-0.00045557,0.0022739,-0.00093327,-0.00021861,0.0027192,-0.00019077,-0.0014535,-0.0012062,-0.00048899,0.0011693,-0.00058813,-0.0005556,-0.0011639,-0.00015064,-0.0016807,-0.0010097,0.0013775,-0.0010747,-0.00041588,-0.0011378,0.0013049,-0.000011324,-0.0016222,-0.00076329,0.0017124,-0.00089147,0.00092684,-0.000027544,0.00058117,0.0011074,-0.0013547,0.0012031,-0.00035787,0.0013876,-0.0023806,0.001582,0.0023887],[0.000996,-0.00036505,0.00029493,0.0025515,0.00038719,-0.000068708,0.0012538,0.001594,0.0001377,-0.0020987,0.0014819,-0.00043212,-0.00083863,-0.0013857,-0.0013776,-0.0014732,-0.00269,0.000031194,-0.0009404,0.0041564,0.0017859,-0.00017177,0.0032052,-0.0018071,-0.0010215,0.00061706,0.00023135,-0.00037901,-0.0016515,0.0016489,0.00047218,0.0010682,-0.0003952,-0.00066367,-0.000041298,-0.0010576,-0.00070738,0.00016101,-0.0008934,0.00064351,-0.000026494,0.0017197,-0.0012745,-0.001946,-0.0013069,0.0011961,-0.0029482,0.00054907,0.0022427,0.00088712,-0.00023017,0.00011717,-0.00061299,-0.0026766,0.00001579,0.0028435,0.000098155,0.0008891,0.0018917,0.00045844,0.0010204,-0.00185,-0.00097132,0.00073621],[-0.00027792,-0.0012344,0.001039,-0.0010045,0.0028874,-0.00052852,0.00063769,0.0014241,0.0015685,0.0018531,-0.0023408,0.00091337,0.00060431,0.0018373,0.00030739,-0.0022085,-0.00094941,0.0015532,-0.00015458,-0.0024106,0.0020189,-0.00079139,-0.00063756,0.00027092,0.0016494,-0.0015401,-0.00086248,0.00037276,-0.0010208,-0.00058124,0.00026752,-0.0019815,-0.0011738,0.00037574,-0.00062103,-0.0015255,-0.0010392,-0.00038005,0.0017209,-0.00054341,-0.00032366,-0.0026301,0.0017516,-0.000072595,0.00018739,-0.0013971,0.0011255,-0.0010968,-0.0013307,0.0014565,-0.0001444,-0.0014185,-0.0043522,0.003465,0.0001075,0.0022216,-0.0017548,0.0028565,-0.000094568,-0.00088618,-0.0016159,-0.00067179,0.00091825,-0.0022998],[-0.0004979,0.0011853,-0.0022344,-0.00089406,-0.0017953,-0.00028837,0.0018441,-0.0010799,-0.0026075,-0.0021726,-0.00065671,0.00029085,-0.00092942,0.0019059,0.0020161,0.0011872,0.001029,-0.0025344,-0.0013504,-0.0022369,0.001566,-0.0010507,0.00056451,0.00023276,0.00066982,-0.000052516,0.00037627,-0.0011235,0.0021127,0.0017547,-0.000013042,-0.00075046,-0.00044625,0.00083,-0.00016919,0.00097793,0.00034072,-0.00091743,-0.000091887,-0.0016619,0.00091933,-0.00073609,0.00045871,0.0052045,-0.0002599,0.0021614,-0.00062504,0.00054618,-0.003197,-0.0019625,-0.00056683,-0.0019784,0.00060718,0.00069827,0.0013383,0.002024,0.0015729,-0.0018511,-0.0003681,-0.0019376,-0.0001566,-0.001395,-0.00037348,0.0019299],[0.00079563,-0.000045688,-0.001415,-0.00036946,0.0000037717,0.0013138,-0.001336,0.0011866,-0.0017367,-0.0019835,-0.00037833,0.0019444,-0.0017547,-0.0026219,0.0013385,-0.00027263,0.0022914,-0.0025255,0.00012778,0.0018725,0.00012531,0.0016379,-0.0019805,-0.0011477,-0.00067677,-0.00044366,0.0015298,-0.00031675,-0.00057919,-0.00082979,0.00081028,-0.00054842,-0.00084537,-0.001271,0.0020791,0.0014601,0.00033299,0.0015913,0.00075204,-0.00060834,0.0010518,0.00020242,-0.0019773,-0.000072484,0.00091638,0.002083,-0.0026073,-0.0014092,0.0019292,0.0010489,-0.000058407,0.0017,0.0022838,-0.0013017,-0.00033072,0.00081837,-0.0014554,-0.00058633,-0.0018596,-0.00040669,0.00045708,0.0022178,0.00065096,-0.0014973],[-0.0002678,0.0024359,0.00091368,0.0011493,-0.001429,0.0017672,0.0046976,0.0011614,-0.00036923,-0.00087743,0.00012211,-0.0010535,-0.0024876,-0.000058165,0.00062164,-0.0022306,0.0043367,-0.0017651,-0.0022799,-0.00046214,0.00096997,0.0012136,-0.0018432,-0.0002085,0.0026571,-0.0012164,-0.00018642,0.00030194,-0.0012705,0.00268,0.0015853,-0.00011416,-0.00049565,-0.00054125,0.0019885,0.001623,-0.0006443,-3.1203e-7,-0.00012901,-0.000015453,-0.001185,0.0000016182,0.00043872,-0.0018317,0.0020514,0.0044272,0.0024266,-0.00046944,0.00024845,0.00018631,-0.00066279,0.0026199,0.001468,0.0029161,-0.0032684,-0.0023205,-0.00010055,-0.0010171,-0.00021858,-0.00075953,0.00030737,-0.00027514,0.0033252,0.00069917],[-0.0012724,-0.00029886,0.0030839,0.0014203,0.0016497,0.00061111,-0.0014306,0.00015963,-0.00022231,0.00069944,0.00051538,0.0021007,0.0015346,-0.0029118,-0.000064708,-0.0015498,0.0045038,0.002649,-0.0005705,0.0021601,-0.00094045,-0.0002148,-0.0031017,0.0019844,-0.0021994,0.0028143,0.0014947,0.001576,0.0022018,0.00092291,-0.00020832,-0.00097736,0.0032688,0.0030012,0.00045842,-0.00068083,0.0020302,-0.00051549,0.0023906,-0.00093731,-0.0031544,0.0015686,0.0013427,-0.00041787,0.00010908,0.00090939,0.0011954,-0.0024479,0.00055209,-0.0018264,0.00030151,0.00053887,0.0012344,-0.00093003,0.001848,-0.0002306,0.00060219,-0.0007218,-0.0011692,0.00039324,-0.002507,0.0014576,-0.0010282,0.00038213],[-0.001468,0.002039,0.00033773,0.0010333,0.0012837,-0.00016864,-0.0019452,-0.00018389,0.00080146,0.00050351,-0.0020152,0.000087872,-0.0038612,-0.00039934,-0.0027845,0.0020509,-0.0076793,-0.0005325,0.00090926,-0.00063413,-0.00099379,0.0043868,0.001064,0.00033939,-0.00014896,-0.0036058,0.00047809,0.0032335,0.0021592,-0.000090662,0.00023853,0.0017794,0.0039142,-0.0018684,-0.0015782,-0.0015689,0.00026866,-0.00037643,-0.00042064,0.0034004,0.0058075,-0.00089385,-0.00032961,0.0036573,-0.00063035,-0.002532,-0.00028657,-0.0023929,0.0014892,0.00076856,-0.00062828,0.000077045,0.0024774,0.00054638,-0.0012753,-0.00030669,-0.0011388,0.0024672,-0.0023347,-0.00017729,0.0034486,-0.0000024987,-0.0032837,0.001409],[0.000039636,-0.00027972,-0.00044038,0.00090664,-0.00022239,0.0024729,-0.0013452,0.0013775,-0.001185,-0.0013196,-0.0016375,-0.0023503,-0.0037266,0.002572,-0.0016038,0.0014692,-0.00062663,0.00036601,0.00067097,-0.0040879,0.0011786,0.0011943,-0.001172,-0.0016848,-0.00064278,-0.0051897,0.00059175,0.0012895,0.0025295,0.00014627,-0.0012933,-0.0011138,-0.00043339,-0.0022351,-0.0029763,-0.00054753,0.0025648,0.0019787,-0.00092078,-0.00075844,-0.00067162,-0.00023704,-0.0036384,0.0021106,0.0032901,0.00081609,-0.0000917,0.0020877,-0.00052165,-0.0020937,0.0014489,0.0017495,0.00046074,0.001304,0.0016722,-0.003214,0.00075209,-0.0024114,-0.0017755,0.00045849,-0.0017742,0.0011631,0.0028675,-0.000048685]],"b1":[1.1832,-3.6269,2.2364,-1.041,1.5848,-1.4728,-5.7525,-1.507,3.437,3.7251,2.3001,0.29007,2.6056,-0.077101,-2.7027,3.0021,-0.93097,4.6094,4.22,0.087866,-3.5951,-0.082508,1.5636,2.7944,-2.4524,2.1972,-2.2196,0.44046,-0.81767,-3.4804,-3.4719,-0.02647,-1.0212,1.1786,-2.4914,0.049974,-0.099393,-0.45546,-0.90132,0.31238,-0.20414,2.1822,2.2776,-2.2013,-0.041177,-5.2539,3.8541,1.4585,0.18364,1.2522,2.8963,-4.5326,-0.067405,-2.0958,0.50043,-3.9892,-0.46143,-1.5863,1.742,4.5498,-0.91712,1.217,-0.85056,-2.4928],"W2":[[0.12798,-0.041632,-0.016085,-0.058731,-0.25853,-0.17156,-0.043725,-0.024225,0.23199,0.056873,0.066106,-0.047443,-0.12752,0.059282,0.068321,-0.00084904,0.01346,-0.10891,0.33588,-0.021219,0.34109,0.25962,-0.17839,-0.1434,0.057596,-0.094504,0.062421,0.3305],[-0.057573,0.03392,-0.092442,-0.03622,-0.06549,0.036968,-0.016986,0.053386,-0.081417,0.19155,-0.11359,-0.16229,-0.0088395,-0.11321,0.16363,-0.10163,-0.086107,0.1464,0.12586,-0.13981,0.13626,-0.18322,0.23918,0.085981,-0.097571,-0.12526,0.083806,-0.24354],[-0.14378,0.18004,0.0028465,0.036223,-0.063685,0.11734,0.11588,-0.060737,0.015167,0.08191,0.077431,-0.17305,0.18952,-0.17685,-0.073495,0.19937,0.092634,-0.14744,-0.028106,0.20554,-0.031294,-0.1475,0.32105,-0.07857,-0.34036,-0.012846,0.097451,-0.10337],[-0.057931,-0.10093,0.0086112,0.23754,-0.13917,0.0056056,-0.042491,0.23853,-0.0049649,-0.1094,0.025393,-0.13398,0.064145,0.11759,-0.1269,-0.22521,0.41967,-0.15685,0.023919,-0.048067,0.091662,0.46387,0.080938,-0.25488,-0.081059,-0.0511,-0.19322,0.17164],[0.021026,-0.3758,-0.091482,-0.038175,0.1782,0.098851,-0.15933,0.18028,-0.059373,-0.18265,-0.06656,-0.14082,-0.029395,0.11444,-0.049426,0.070741,-0.27395,0.26852,0.10967,-0.15195,-0.0095413,0.29206,-0.10434,0.27363,0.099134,-0.0012545,-0.04567,-0.0078237],[-0.17062,0.024289,0.049337,0.041083,0.043514,0.11977,0.0072354,0.13215,-0.073824,0.11745,0.027838,-0.028163,0.14449,0.012235,0.21373,0.041921,0.19631,-0.11662,0.2054,0.068803,0.0060515,-0.13733,0.040892,0.061156,-0.15005,-0.023787,-0.19343,0.0005587],[-0.0052084,-0.12924,-0.016977,-0.02558,0.26897,-0.063912,-0.28841,0.037623,-0.053683,0.34002,-0.16872,-0.14178,-0.02616,-0.055366,-0.03601,0.18218,-0.31977,0.075554,0.087219,0.2026,-0.10542,0.059546,0.041441,-0.31164,0.14632,-0.093339,-0.13237,-0.13921],[0.35432,-0.0053252,-0.084781,-0.20689,0.070476,0.13653,0.18643,0.023373,0.34654,0.063644,-0.23741,0.011707,0.10678,0.26191,-0.045757,-0.051999,-0.10779,-0.13487,0.077587,0.30965,-0.062724,0.0146,0.01118,-0.0631,0.072297,-0.024887,0.27217,-0.29384],[0.12844,-0.072447,0.032908,0.072621,-0.083716,-0.072045,-0.2548,-0.071143,-0.12511,0.18383,0.34808,-0.32855,-0.19757,-0.016001,-0.011483,0.15742,-0.21713,0.035153,-0.11721,-0.02726,-0.133,0.051555,-0.13681,-0.061539,0.13368,-0.059688,0.079227,-0.051951],[-0.3787,0.18524,0.33451,-0.20521,0.15734,0.1716,-0.19193,0.075084,0.25675,-0.1819,-0.046006,0.021033,-0.12862,0.25468,-0.052924,0.16422,-0.025939,-0.32814,0.20203,-0.020125,-0.037464,-0.17861,0.05166,0.11041,-0.24571,0.039148,-0.18016,0.010725],[-0.093121,0.015909,0.33081,0.062392,0.13351,-0.053239,-0.25792,0.026979,0.029403,0.40612,0.040686,0.1066,-0.023741,-0.066848,0.091647,0.092095,-0.19148,-0.15807,0.01278,-0.48436,-0.039038,-0.25446,0.05067,-0.14951,-0.0072382,-0.044214,-0.023723,0.12479],[0.048497,0.0084108,0.13488,-0.17103,0.13357,-0.10471,0.099242,-0.029526,0.12481,0.021307,0.28316,-0.020711,0.40203,0.14149,0.095476,-0.10424,-0.12693,0.0778,0.093072,0.013464,0.011408,-0.10922,0.025509,-0.049705,-0.066034,0.04411,-0.27432,0.20752],[-0.18788,-0.019349,0.21486,0.016399,0.088275,-0.21595,0.053164,-0.026704,0.052994,0.22033,0.031573,-0.0082743,0.010979,-0.088209,-0.018248,0.15819,0.018166,0.15169,0.056682,0.02242,0.074172,0.075359,-0.10351,0.031483,-0.066555,-0.077095,0.084726,-0.18078],[-0.081824,0.1056,-0.16526,0.0034295,-0.027565,-0.0295,0.0092601,-0.14057,0.20281,0.041505,-0.254,-0.048831,-0.067952,-0.15123,0.13209,-0.14292,0.032882,0.01209,-0.010128,-0.1524,-0.039874,-0.038603,-0.092893,0.076442,-0.021862,0.10607,0.17043,-0.13267],[-0.19108,0.1428,0.077687,0.059082,-0.13655,0.062053,-0.26669,0.2733,-0.14256,-0.24142,0.1476,0.13459,0.24485,-0.0090276,-0.11481,0.15542,0.099227,-0.22706,-0.032852,0.003823,-0.0023308,-0.15681,-0.082762,-0.041441,-0.12614,-0.10048,0.063055,0.055728],[-0.083213,-0.16209,-0.17128,0.13159,0.074146,-0.071035,0.18683,-0.060113,0.097507,-0.040964,-0.083017,-0.13743,0.084783,-0.062239,0.053106,-0.026382,-0.11094,0.15658,0.14264,-0.029893,-0.098391,0.21547,0.07952,0.038499,0.015743,0.025769,-0.1147,-0.26317],[0.051567,-0.14115,-0.13497,-0.045748,0.095459,0.1727,0.16835,0.040649,0.15522,0.1335,-0.084479,0.015769,-0.083527,-0.055278,0.042082,0.070365,-0.1476,0.039525,0.16293,0.071092,-0.30853,0.16512,0.02695,0.15498,-0.093947,0.13191,0.017835,-0.024146],[0.0060258,-0.17009,-0.075807,-0.090729,0.07435,0.12322,0.059142,-0.0726,-0.0084503,0.084308,-0.01469,0.03048,0.066709,-0.027862,-0.011364,-0.43402,0.010514,-0.028813,-0.19265,-0.19834,-0.35969,0.0032329,-0.17656,0.024535,0.17206,-0.18245,-0.013115,-0.11486],[0.031718,0.047371,-0.050874,-0.11337,-0.21334,0.21875,0.18213,0.27685,0.12694,0.061793,-0.030772,0.19754,-0.090521,-0.22665,-0.042916,0.046116,-0.057777,-0.10817,0.17458,0.19177,-0.042818,-0.28745,-0.049481,-0.035978,0.091205,0.10094,0.096071,0.16275],[-0.080324,-0.115,0.22128,0.21474,-0.013598,-0.064675,0.17419,0.095301,-0.19919,0.082836,-0.14351,0.19324,-0.13761,-0.046108,0.12262,0.15126,-0.079997,-0.080891,0.22602,-0.14346,-0.0015061,-0.060045,-0.026348,0.05825,0.14131,0.082923,0.13401,-0.095101],[0.35492,0.017713,0.16656,-0.1554,-0.20637,0.11274,-0.42606,-0.22179,0.047954,-0.030496,0.13959,0.048529,0.33453,-0.10051,-0.16259,-0.071372,0.096754,0.020828,-0.22083,-0.062341,-0.0035856,-0.13291,0.040504,-0.0092777,-0.20095,-0.01843,0.049823,0.061649],[0.1421,-0.14543,0.15791,-0.01384,-0.087232,-0.24513,-0.018334,-0.11978,-0.1283,0.017797,0.033138,0.28895,-0.031595,0.15702,0.10788,-0.22969,-0.12154,-0.0038077,0.16171,0.010191,-0.12883,-0.13756,0.0028193,0.0086391,0.16954,-0.084774,0.069522,-0.14015],[0.050191,0.028467,0.27808,-0.030392,0.1107,0.095938,0.31665,0.12804,-0.1994,0.16094,0.0044314,0.24405,0.14829,0.037854,-0.20317,0.14359,-0.0728,-0.060887,0.10253,-0.18684,0.071627,-0.10178,0.087242,-0.086507,0.060015,0.085107,-0.013443,0.038103],[0.083972,-0.039377,0.040916,0.075134,-0.23316,0.074296,0.10339,0.055172,-0.49893,-0.027725,0.026046,-0.037029,0.17323,-0.010111,0.068371,0.26263,0.28128,-0.025654,-0.057253,-0.14737,0.030336,0.49841,0.042542,0.25253,0.0062594,0.11642,0.11387,-0.055516],[0.10144,0.19377,0.084118,0.48259,-0.069933,0.26931,0.16064,0.27976,0.13816,-0.17887,-0.19808,0.1777,0.045703,0.15718,-0.16784,-0.051153,0.10591,-0.17869,0.13968,0.029185,-0.038022,0.36315,-0.15148,0.23409,-0.37301,0.13904,-0.16781,0.081827],[-0.043557,0.32481,0.01237,0.1722,-0.028323,0.18109,-0.12444,-0.11909,-0.16157,-0.21316,0.054864,-0.48747,-0.041702,0.12883,-0.1863,-0.0055262,-0.040605,-0.15252,-0.13301,0.025062,0.044442,0.16811,0.15853,-0.069525,0.14015,-0.16359,0.26942,-0.068676],[-0.12193,-0.14108,-0.056845,-0.22079,0.42339,0.011065,0.31001,0.18364,-0.23117,-0.343,-0.3474,0.27008,0.20851,0.19699,-0.26216,-0.0038365,-0.02857,-0.21463,-0.14103,-0.0861,0.38532,0.3083,-0.10552,-0.05962,0.16874,-0.07347,-0.20201,0.11838],[0.076988,-0.069474,-0.067395,-0.14934,0.12951,0.078062,0.46589,-0.15998,-0.034334,-0.0078896,0.0046386,-0.055492,0.108,-0.033759,-0.021194,0.065317,-0.12431,0.079,0.10238,-0.029607,0.17002,-0.13475,-0.091428,-0.053614,0.12627,0.092147,0.25099,0.13941],[0.050618,-0.1874,-0.22347,-0.025304,-0.1495,-0.37827,-0.082585,-0.086925,0.02946,0.19888,0.058734,-0.019087,0.11492,0.2589,0.1527,0.063211,-0.032658,-0.0096671,0.13342,-0.21665,-0.029404,-0.24751,0.0093838,0.35035,0.010006,-0.12493,-0.16109,0.10972],[-0.1364,-0.060397,-0.12712,-0.25231,0.060213,0.02239,-0.17195,0.11581,-0.22936,-0.090171,0.28374,0.12167,-0.2311,-0.062198,-0.15187,0.094175,-0.29874,0.010556,-0.040968,-0.16578,-0.05661,-0.17004,-0.074241,0.2778,-0.28202,-0.17872,0.025082,0.090074],[-0.022948,-0.31617,-0.035227,-0.12463,0.081618,0.20847,0.009735,-0.096161,-0.20332,0.034114,0.17883,-0.015873,0.28596,-0.088673,-0.051044,-0.053734,-0.13327,-0.059182,-0.16041,0.18313,-0.20577,-0.013218,0.19373,0.083521,0.01664,0.19839,0.151,0.094056],[-0.36635,-0.041192,0.33174,0.15397,-0.11411,-0.009144,-0.041832,-0.2842,-0.0015997,-0.28401,0.34473,-0.050939,-0.020077,-0.10281,-0.021124,0.0055857,0.1445,-0.27123,0.058019,0.2314,-0.17337,0.25043,0.040529,0.23958,0.065617,-0.13593,0.21054,0.04282],[-0.084032,0.07561,-0.033744,-0.019059,0.22946,0.21109,-0.19855,0.12159,0.20405,-0.45727,0.016684,-0.010004,-0.26283,-0.15044,0.075604,0.17186,0.1026,0.10383,-0.24059,0.11751,-0.21511,0.06928,0.0070547,-0.18767,-0.24856,0.095894,0.046275,0.056814],[0.059478,-0.073506,-0.25821,-0.096912,-0.14794,-0.052815,0.35398,-0.22258,-0.27386,0.013218,0.057089,0.32506,-0.091503,-0.081489,-0.020834,-0.13428,0.12297,0.12027,-0.10775,-0.050972,0.15,-0.38763,-0.23687,-0.19635,0.2487,-0.0018446,-0.2923,0.010903],[0.030851,0.046221,0.021521,-0.13133,-0.015123,0.021624,0.040392,-0.21273,0.10967,-0.035705,-0.15558,-0.014765,-0.17645,-0.11126,-0.31964,-0.25327,-0.01326,0.059819,-0.061413,-0.11173,0.35228,0.10331,-0.045907,-0.093159,-0.14972,0.016335,-0.029139,-0.13997],[0.24621,-0.27366,0.13546,-0.093848,0.11988,0.057774,0.064954,-0.12754,0.031395,0.074609,0.41284,0.086344,-0.016266,0.066952,0.29887,-0.087172,0.056521,0.086359,-0.03246,0.11652,-0.14833,0.031099,0.278,0.0016482,0.02388,0.0099602,0.15607,-0.016505],[0.18701,0.1488,0.36448,0.056653,-0.041351,-0.086792,-0.072297,0.07648,-0.15401,-0.034975,-0.02301,0.056789,-0.081225,0.014849,-0.034561,-0.17574,0.16003,0.051808,0.095568,0.12085,0.18248,-0.096557,0.11432,0.07212,-0.00061288,-0.30799,0.14279,-0.15109],[-0.05899,-0.042505,0.037872,-0.073894,-0.041962,-0.22222,0.15462,0.21992,-0.056379,0.10849,0.23517,-0.063177,-0.087718,-0.19516,0.0085944,0.15035,0.0022969,0.081739,0.046256,-0.045536,0.030982,0.11298,0.043429,0.05281,-0.047809,-0.13243,0.1759,0.055961],[-0.027507,-0.015697,-0.039182,0.12841,-0.094998,0.1211,-0.42866,0.033675,0.092145,0.023676,0.090295,-0.056129,-0.091339,-0.10118,0.12904,-0.2487,-0.14541,-0.13478,-0.1525,0.010405,0.23454,-0.016532,0.072107,-0.26267,0.081329,0.04022,0.30192,0.037554],[0.0090482,0.010461,0.091649,0.066723,-0.1361,-0.24568,-0.35844,0.12489,-0.1912,0.13565,-0.059968,-0.075182,0.18803,0.21508,-0.26655,-0.074473,0.26238,0.17307,-0.24124,0.3514,0.28682,0.27624,0.019836,0.075847,-0.13496,-0.11809,-0.13897,0.020134],[-0.067482,-0.010642,0.019172,-0.054223,-0.0054889,0.19623,0.16185,-0.019676,0.27821,-0.15538,0.13482,-0.14095,-0.089017,-0.082551,0.26105,0.069871,0.24978,-0.25487,-0.15586,-0.22785,0.018281,-0.17071,-0.082445,-0.061484,-0.083886,-0.11429,0.034988,0.10211],[0.082624,-0.051964,-0.23245,-0.25867,-0.037418,-0.10041,-0.23097,-0.059779,0.14971,-0.43205,-0.019297,0.13065,-0.048745,0.2708,-0.029765,0.38806,0.15078,-0.054096,-0.10693,0.31764,0.31496,0.09935,-0.119,0.035028,-0.15147,-0.041686,-0.23125,0.099436],[0.026322,-0.047284,0.044582,0.0816,-0.035003,-0.11743,-0.18338,0.12182,0.337,-0.069728,-0.25166,0.063894,-0.30028,0.0058316,-0.15252,-0.15561,0.076384,0.024117,-0.04201,0.24194,-0.094611,-0.14365,-0.015202,-0.22526,-0.10287,0.1075,-0.095138,-0.065358],[0.20614,-0.18431,0.023521,-0.16706,-0.046703,-0.14254,0.10609,0.0092989,0.065898,0.055221,-0.095206,0.016475,-0.15533,0.11693,0.27174,-0.059279,0.09831,0.020986,0.22922,0.098131,-0.033896,0.1421,-0.13393,-0.21586,0.30357,-0.072651,0.039709,0.049427],[0.049531,-0.10041,0.088284,0.11676,0.15002,-0.034676,0.073443,-0.10221,-0.088396,-0.41708,0.089406,-0.024182,-0.17345,0.098198,0.056545,-0.007241,0.073833,0.027465,0.15658,0.1618,0.19354,0.27606,0.56282,0.11076,-0.087123,-0.088091,-0.20161,0.23772],[-0.12066,0.18113,-0.12275,0.1985,-0.14323,-0.29798,0.43281,-0.33586,0.055164,-0.18769,-0.068257,-0.12387,-0.15638,0.069877,0.27737,-0.18412,0.28094,0.1118,-0.12602,0.10009,-0.044809,-0.079765,-0.23646,0.035903,0.17735,-0.011776,0.040322,0.037075],[0.28024,0.075388,-0.088157,0.033964,-0.077144,-0.18407,-0.038981,-0.071507,0.026704,0.01539,-0.024958,0.47164,-0.01102,-0.18996,0.12702,-0.024137,-0.083068,0.10539,0.19603,-0.13436,0.33126,0.097175,0.11852,-0.094951,0.11989,-0.0021946,-0.11271,0.26233],[-0.091185,-0.040944,0.0833,0.061013,0.083162,0.1489,-0.18178,-0.078345,-0.12898,-0.067737,-0.019406,-0.043735,0.047693,0.050246,-0.014279,-0.019709,-0.037287,0.10002,-0.022106,0.14558,-0.20154,-0.098184,-0.11408,0.24447,0.092751,-0.086868,-0.075545,0.020134],[-0.088834,0.28993,0.24745,-0.0050104,-0.058841,0.0088016,0.075909,-0.048558,0.091995,0.28571,0.17964,0.19668,-0.16304,-0.28806,0.23813,0.20813,0.047109,-0.01306,0.14173,-0.035897,-0.081326,-0.055637,0.070697,0.012833,0.076411,0.14107,-0.087758,-0.18541],[-0.086443,0.0085999,-0.24203,0.085855,0.1874,-0.0033519,0.1776,-0.12478,-0.21443,-0.039181,-0.18956,-0.21688,0.050642,0.0026327,-0.029482,-0.26735,0.063168,0.16404,-0.13857,0.15148,-0.13068,0.12156,0.016117,0.099077,0.010294,-0.16848,-0.013437,-0.15591],[-0.046998,0.22293,-0.11529,0.063654,0.23416,-0.10376,0.065452,0.089017,0.06786,-0.45257,0.066277,0.080671,0.16695,0.18013,0.19582,0.15687,0.26853,0.010616,-0.077578,-0.23802,0.028761,0.15845,0.31148,0.065715,0.089301,0.25356,-0.13036,0.18123],[0.096296,0.010005,-0.1064,0.029754,-0.18436,0.12475,-0.13325,-0.069929,0.16736,0.0045906,0.091846,-0.062145,-0.084505,0.058233,-0.071629,0.010809,-0.21806,0.052299,0.0096076,-0.21628,-0.14526,-0.095407,-0.24967,-0.10633,0.053541,0.070944,0.04059,0.048624],[0.19636,0.1046,-0.18418,-0.093993,0.17311,0.24338,0.15572,0.15294,-0.1406,0.33185,0.10981,-0.099587,0.13078,0.049252,0.11374,0.12788,-0.16112,0.41942,-0.00066828,-0.088562,0.077266,-0.022871,-0.11625,0.070684,-0.11608,-0.040549,0.036422,0.13813],[-0.038189,0.15082,0.13503,-0.064529,0.0092937,-0.20691,0.27384,-0.049108,-0.33176,0.18114,-0.081407,0.0095999,-0.15405,-0.10112,-0.19547,0.12011,0.44773,-0.067234,0.01011,0.051964,-0.024087,0.11836,0.13239,0.075378,0.32959,-0.06156,-0.12005,-0.24856],[-0.059323,-0.18793,0.038126,-0.0045264,-0.10781,-0.18165,-0.042031,-0.020054,-0.25212,0.1495,0.12022,-0.051962,0.021879,-0.05718,-0.049757,-0.031063,-0.20045,0.15044,0.02814,0.046801,0.02674,0.095457,-0.17955,0.0057658,0.061674,0.2322,-0.14512,0.17984],[-0.056091,0.054284,0.021673,0.070051,-0.041606,-0.14999,0.12109,0.16402,0.017404,-0.037982,-0.023506,-0.091097,-0.22177,0.085948,0.14158,0.14372,0.22083,0.10971,0.075163,-0.1608,0.093019,0.057544,0.1066,0.12931,0.11097,-0.023351,-0.071565,0.096833],[0.12425,0.067876,0.072199,-0.12801,-0.11323,0.058647,-0.034829,0.15403,0.3997,-0.16101,0.11526,-0.012864,-0.097245,-0.0056463,0.17221,0.057959,0.079047,-0.26931,-0.043817,-0.091845,0.072493,0.015375,0.12759,-0.21378,-0.11379,0.12091,0.078635,-0.038129],[-0.087966,-0.047873,-0.09832,0.028166,-0.13137,-0.027269,-0.075999,-0.043403,0.21442,-0.10269,0.20374,0.15314,0.065304,-0.029088,0.15756,0.0099184,-0.25411,0.042365,-0.06038,-0.24166,0.015331,-0.18711,-0.25646,-0.062889,-0.084694,0.13499,-0.14614,0.26294],[0.073848,0.030448,-0.14904,-0.20991,-0.16956,-0.029186,0.29218,0.19226,0.051126,-0.32159,-0.11963,0.20113,0.27096,-0.2782,0.031199,-0.092783,0.051672,0.12245,0.056967,0.30665,-0.081327,-0.24619,0.21132,0.2676,-0.34249,-0.0069965,0.241,0.041786],[0.16434,-0.049848,0.13256,0.28544,0.16149,-0.074054,0.1126,-0.019046,0.08145,0.28812,0.079681,-0.20888,0.00065573,0.15487,0.17989,-0.24736,0.14759,0.15471,0.001844,0.30052,0.1621,-0.037807,0.054413,0.07115,-0.020412,0.016357,0.26976,-0.031343],[0.022171,0.072792,-0.15417,-0.010439,0.067272,-0.21041,-0.25859,0.17013,-0.0015902,-0.1384,-0.16951,-0.010096,0.10041,0.048098,-0.19929,0.052634,-0.26792,0.013342,0.18347,0.071734,0.023857,-0.075202,0.24588,0.0067013,0.079433,0.17661,0.081169,0.024747],[0.17682,-0.046811,-0.16817,0.018356,-0.21935,-0.012873,0.11449,-0.036365,-0.066508,-0.082667,-0.061923,0.24091,0.17569,0.087139,0.019895,0.1219,0.054498,-0.10358,-0.24919,0.069132,0.079929,-0.09785,-0.051537,-0.36779,-0.014143,0.085535,0.37478,-0.048782],[-0.18387,0.096876,0.16011,0.04975,0.39661,-0.109,-0.30314,0.13009,-0.18471,0.24777,-0.10605,0.13466,0.074916,-0.13211,-0.048898,0.042353,0.18243,0.16466,0.12708,0.050438,-0.016741,-0.14918,0.11788,0.027331,0.1078,0.092918,-0.026553,-0.046698],[-0.079949,0.20631,0.19043,0.24469,-0.010602,0.066474,0.13069,-0.10846,0.095024,0.080907,-0.0049799,0.19665,0.22818,-0.1063,-0.2992,-0.02703,0.11137,-0.097901,-0.26332,0.051812,0.18991,0.11013,0.080686,0.03805,-0.048506,0.31787,-0.14334,-0.040655]],"b2":[-0.010327,0.040739,0.3016,0.065394,0.056936,0.021621,0.17694,0.049127,0.013237,-0.027715,0.32619,0.032725,0.051001,0.089759,0.28821,0.047497,0.015127,-0.019359,0.32178,0.039944,0.097163,0.0088436,0.22016,0.0098801,0.07487,-0.065924,0.27576,0.054839],"meta":{"arch":"10-64-28","params":2524,"trained":1600}}